-1.045247435569763184e+00
6.425811648368835449e-01
1.233667612075805664e+00
8.847111463546752930e-01
-7.445057034492492676e-01
6.661139726638793945e-01
2.310768514871597290e-01
4.945186376571655273e-01
-2.451528072357177734e+00
1.172874927520751953e+00
-1.544154524803161621e+00
3.213965415954589844e+00
7.683215737342834473e-01
5.456160068511962891e+00
4.661931097507476807e-01
-1.180418491363525391e+00
2.850939750671386719e+00
-1.280515193939208984e+00
8.092503547668457031e-01
5.691954493522644043e-01
7.132176160812377930e-01
-2.245966196060180664e+00
1.048234105110168457e+00
1.409803867340087891e+00
1.165088176727294922e+00
7.084675431251525879e-01
6.263453364372253418e-01
-2.283438920974731445e+00
1.119017004966735840e+00
-1.421525955200195312e+00
5.823637843132019043e-01
7.163847684860229492e-01
1.510166645050048828e+00
1.749573349952697754e-01
1.705208867788314819e-01
-2.832190752029418945e+00
-1.020816326141357422e+00
1.127628564834594727e+00
8.899447917938232422e-01
-1.491379380226135254e+00
-7.576032876968383789e-01
-2.698975801467895508e+00
8.008382916450500488e-01
-2.402398139238357544e-01
4.375531375408172607e-01
2.267422229051589966e-01
2.558000326156616211e+00
-1.469404101371765137e+00
-2.633291244506835938e+00
-1.979866921901702881e-01
