1.331888604909181595e-02 2.798420004546642303e-02 -5.893270671367645264e-02 -1.626625508069992065e-01 -2.042296081781387329e-01 -2.257782369852066040e-01 1.289291679859161377e-01 -5.500600114464759827e-02 -1.263749003410339355e-01 1.788010150194168091e-01 -9.799588471651077271e-02 1.535920612514019012e-02 -1.613160073757171631e-01 1.490783393383026123e-01 1.858573704957962036e-01 6.863863021135330200e-02 2.137251645326614380e-01 2.251845151185989380e-01 1.667126566171646118e-01 1.640519499778747559e-01 -1.038337573409080505e-01 1.493442207574844360e-01 2.300326973199844360e-01 4.240764304995536804e-03 4.775175824761390686e-02 -1.801964193582534790e-01 8.680438995361328125e-02 -3.005990386009216309e-01 2.479967847466468811e-02 2.748438343405723572e-02 -2.311963140964508057e-01 -4.552228003740310669e-02 2.634269595146179199e-01 -1.864481568336486816e-01 1.781749725341796875e-01 2.182884812355041504e-01 -1.484508961439132690e-01 -3.512424230575561523e-02 -1.960244923830032349e-01 3.327231854200363159e-02 -1.963177323341369629e-01 -1.493603736162185669e-01 -2.547536492347717285e-01 1.154335066676139832e-01 -2.622693777084350586e-01 1.528127193450927734e-01 -7.845956832170486450e-03 1.190654560923576355e-01 5.012034252285957336e-02 -1.422224845737218857e-02
1.058013439178466797e-01 1.363427340984344482e-01 -9.182213991880416870e-02 2.894412279129028320e-01 -1.126502603292465210e-01 1.781556159257888794e-01 -3.201058804988861084e-01 -8.593596518039703369e-02 -2.493291944265365601e-01 8.229745179414749146e-02 -1.943884491920471191e-01 1.456446498632431030e-01 -1.261605769395828247e-01 -1.694491058588027954e-01 -1.105969622731208801e-01 -1.215179413557052612e-01 -2.619563341140747070e-01 -1.709860116243362427e-01 1.157886981964111328e-01 1.634332090616226196e-01 -2.586960196495056152e-01 -1.935224384069442749e-01 4.267083853483200073e-02 -1.431307643651962280e-01 -9.174188971519470215e-02 -1.835204511880874634e-01 -1.050138939172029495e-02 -1.407139897346496582e-01 1.092117163352668285e-03 2.860622666776180267e-02 -7.973554730415344238e-02 -1.636748164892196655e-01 1.375706046819686890e-01 1.565301567316055298e-01 1.593158231116831303e-03 -2.502047419548034668e-01 2.289112210273742676e-01 1.911555528640747070e-01 -1.831838488578796387e-01 -1.181407421827316284e-01 -3.985491022467613220e-02 2.411922961473464966e-01 -7.614443451166152954e-02 -2.545489370822906494e-01 2.375995218753814697e-01 -1.948037445545196533e-01 -3.753611817955970764e-02 3.743848577141761780e-02 2.353605926036834717e-01 1.976502835750579834e-01
-4.722676873207092285e-01 4.244046658277511597e-02 1.524448953568935394e-02 1.881259977817535400e-01 -2.233712002635002136e-02 2.486797869205474854e-01 -1.659881025552749634e-01 -7.486424595117568970e-02 1.452305763959884644e-01 -1.314077824354171753e-01 -3.135810494422912598e-01 -2.441768199205398560e-01 -7.779122143983840942e-02 -1.432928889989852905e-01 4.517861828207969666e-02 2.946656197309494019e-02 -1.613178402185440063e-01 -1.421380881220102310e-02 1.172185242176055908e-01 4.734367504715919495e-02 -1.486551612615585327e-01 3.388614952564239502e-01 -2.022177726030349731e-01 2.348676472902297974e-01 -1.296269595623016357e-01 1.903782635927200317e-01 -2.809827029705047607e-01 -1.936058513820171356e-02 -2.726382315158843994e-01 -2.138861864805221558e-01 1.537193916738033295e-02 2.513711154460906982e-01 3.264460340142250061e-02 -2.071507126092910767e-01 -1.699676960706710815e-01 1.353995054960250854e-01 2.260929048061370850e-01 2.373520135879516602e-01 -2.446432560682296753e-01 3.165906295180320740e-02 -1.279568821191787720e-01 1.296084076166152954e-01 -1.809186786413192749e-01 -1.174962148070335388e-01 -2.527300454676151276e-02 -7.447070628404617310e-02 1.525791175663471222e-02 -7.647803425788879395e-02 1.508380323648452759e-01 1.149358004331588745e-01
-7.456051558256149292e-02 8.745814859867095947e-02 3.515024855732917786e-02 9.466771036386489868e-02 -1.033884286880493164e-01 -2.918025478720664978e-02 -2.078829854726791382e-01 5.435647442936897278e-02 1.462136059999465942e-01 -1.363745331764221191e-01 -3.858249401673674583e-03 1.136871799826622009e-01 -1.596591472625732422e-01 -1.692849844694137573e-01 -1.694623231887817383e-01 -2.284538447856903076e-01 -9.752780944108963013e-02 1.781716346740722656e-01 -1.878601908683776855e-01 1.376700252294540405e-01 -1.432282617315649986e-03 -1.052841022610664368e-01 -1.522684693336486816e-01 1.627854257822036743e-01 -2.027286887168884277e-01 1.383477449417114258e-01 -1.575997322797775269e-01 5.215970426797866821e-02 1.882624626159667969e-02 -1.200551986694335938e-01 6.128416210412979126e-02 -1.589751541614532471e-01 1.584552675485610962e-01 1.720044463872909546e-01 2.569680213928222656e-01 1.295114308595657349e-01 -1.720105260610580444e-01 -9.544399380683898926e-02 1.054643560200929642e-02 -2.694419622421264648e-01 -3.033989854156970978e-02 -1.826073378324508667e-01 8.924663811922073364e-02 -2.165439538657665253e-02 1.966931521892547607e-01 -2.671814858913421631e-01 -1.093600466847419739e-01 4.529010970145463943e-03 -7.437039911746978760e-02 -5.063116550445556641e-02
-1.435244828462600708e-01 7.392434775829315186e-02 -2.938575744628906250e-01 1.544134169816970825e-01 1.957021355628967285e-01 -1.558904051780700684e-01 2.275185137987136841e-01 1.026344113051891327e-02 -1.441840976476669312e-01 1.479169577360153198e-01 2.878420986235141754e-02 1.943404525518417358e-01 1.155765261501073837e-02 -2.590955197811126709e-01 3.748485073447227478e-02 2.872856147587299347e-02 2.003010213375091553e-01 -1.412015855312347412e-01 1.390400230884552002e-01 3.193191811442375183e-02 -2.338499426841735840e-01 -2.678661048412322998e-01 -8.992812782526016235e-02 2.887917496263980865e-02 -5.245952308177947998e-02 1.576152592897415161e-01 -4.163698852062225342e-02 1.105316169559955597e-02 7.956847548484802246e-02 3.823842853307723999e-02 2.153789997100830078e-01 -1.529961675405502319e-01 -1.814925223588943481e-01 2.217993438243865967e-01 1.957484930753707886e-01 2.824401557445526123e-01 4.710762575268745422e-02 -6.557387113571166992e-02 2.283704876899719238e-01 -1.216835975646972656e-01 8.756170421838760376e-02 -2.275714129209518433e-01 1.354775279760360718e-01 -1.686117649078369141e-01 1.491227447986602783e-01 -1.440522968769073486e-01 4.265145212411880493e-02 -2.315898090600967407e-01 -2.599579840898513794e-02 -8.038110285997390747e-02
3.195570409297943115e-02 -1.018357649445533752e-01 1.164141371846199036e-01 2.690531313419342041e-02 -7.652691006660461426e-02 2.147469669580459595e-01 2.298861593008041382e-01 -1.314346343278884888e-01 -2.768843621015548706e-02 -3.926202282309532166e-02 4.613574743270874023e-01 5.344943702220916748e-02 -1.239307131618261337e-02 -3.631827887147665024e-03 -1.336747221648693085e-02 1.541711296886205673e-02 -1.865824759006500244e-01 7.904558442533016205e-03 -1.227574571967124939e-01 -1.350862234830856323e-01 -1.192484423518180847e-01 -3.836544454097747803e-01 7.100431621074676514e-02 1.254993230104446411e-01 2.591298222541809082e-01 -2.521153986454010010e-01 -6.104494910687208176e-03 4.941968247294425964e-02 1.892078816890716553e-01 1.671160757541656494e-01 1.347831338644027710e-01 7.865644246339797974e-02 -5.667402595281600952e-02 -2.337271869182586670e-01 -9.866573661565780640e-02 5.838315933942794800e-02 -1.653102412819862366e-02 -4.882058501243591309e-02 -2.462596446275711060e-01 1.629995703697204590e-01 3.169576823711395264e-01 2.171667218208312988e-01 1.435262411832809448e-01 6.829962600022554398e-03 -7.821678370237350464e-02 -1.501996070146560669e-01 -8.062867075204849243e-02 1.342269182205200195e-01 -1.097875647246837616e-02 1.324956715106964111e-01
-2.255863845348358154e-01 -2.341000828891992569e-03 -9.964464604854583740e-02 -2.339742779731750488e-01 4.074593260884284973e-02 -2.582055032253265381e-01 -6.659123301506042480e-02 3.977975249290466309e-02 -9.842105954885482788e-02 -1.030195206403732300e-01 -4.156324639916419983e-02 2.335669472813606262e-02 4.648056253790855408e-02 -1.323029845952987671e-01 6.682586669921875000e-02 1.862250864505767822e-01 5.063868686556816101e-02 -2.105355560779571533e-01 -1.497075259685516357e-01 -7.144056260585784912e-02 5.049929395318031311e-02 -1.333704292774200439e-01 1.307228356599807739e-01 -3.419711440801620483e-02 1.135829985141754150e-01 -1.469831448048353195e-02 6.909893453121185303e-02 1.593711376190185547e-01 -2.207974791526794434e-01 -1.447117030620574951e-01 1.206418275833129883e-01 -1.472926512360572815e-02 1.052933856844902039e-01 1.930237859487533569e-01 -1.124880462884902954e-01 1.965164244174957275e-01 -1.365746259689331055e-01 -3.821416944265365601e-02 2.290043830871582031e-01 1.778357923030853271e-01 9.411954134702682495e-02 3.666379302740097046e-02 1.974820643663406372e-01 -1.622483134269714355e-01 2.739298529922962189e-02 -1.315059959888458252e-01 7.990633696317672729e-02 -1.502974629402160645e-01 -2.625012211501598358e-02 -4.632786661386489868e-02
2.593889087438583374e-02 -3.929368779063224792e-02 -2.657663077116012573e-03 2.770271301269531250e-01 -7.294072210788726807e-02 7.595697790384292603e-02 7.907546311616897583e-02 -2.047271654009819031e-02 -2.444094419479370117e-01 2.115081995725631714e-01 -8.615998178720474243e-02 -9.707278758287429810e-02 1.211748570203781128e-01 -2.656978182494640350e-02 8.330465853214263916e-02 -5.086535960435867310e-02 1.584207862615585327e-01 -2.061141431331634521e-01 -2.713183499872684479e-02 -2.990175783634185791e-01 -1.933989077806472778e-01 4.926040023565292358e-02 1.558803319931030273e-01 -3.765691816806793213e-02 2.355806529521942139e-01 -3.823781758546829224e-02 2.185473144054412842e-01 1.457156240940093994e-01 -4.816214367747306824e-02 1.117646917700767517e-01 -6.722469627857208252e-02 2.450759261846542358e-01 -5.729976296424865723e-02 1.357845216989517212e-01 9.970836341381072998e-02 -4.748700652271509171e-03 -6.071493402123451233e-02 -1.687928736209869385e-01 1.954451017081737518e-02 -1.282739490270614624e-01 1.191173493862152100e-01 -1.566304117441177368e-01 2.242859220132231712e-03 1.019387170672416687e-01 -7.685940712690353394e-02 -2.053912729024887085e-02 -1.965671777725219727e-01 2.043012380599975586e-01 -1.247835829854011536e-01 -1.178005039691925049e-01
-1.594127267599105835e-01 -6.306508928537368774e-02 -8.734568208456039429e-02 2.874090969562530518e-01 -1.673595011234283447e-01 -1.452437639236450195e-01 -3.200020790100097656e-01 6.205471232533454895e-02 -8.326382189989089966e-02 -2.492099106311798096e-01 -1.337133944034576416e-01 -2.027437537908554077e-01 -2.448515594005584717e-02 -6.315717101097106934e-02 -3.040526993572711945e-02 5.383645743131637573e-02 -1.089419797062873840e-01 1.068177893757820129e-01 -2.827533185482025146e-01 1.149189695715904236e-01 1.647783517837524414e-01 2.791119217872619629e-01 -8.074245601892471313e-02 2.743339240550994873e-01 1.302726566791534424e-01 1.685093790292739868e-01 -3.660992980003356934e-01 -1.500342935323715210e-01 -2.548194825649261475e-01 -2.328922301530838013e-01 1.379300802946090698e-01 -1.400760561227798462e-01 -8.656634390354156494e-02 1.555719226598739624e-01 1.145847588777542114e-01 -1.087497472763061523e-01 -1.600272506475448608e-01 1.651285737752914429e-01 9.911587089300155640e-02 1.378091424703598022e-01 2.148433960974216461e-02 2.244261801242828369e-01 -1.999605745077133179e-01 -1.970992796123027802e-02 2.520170211791992188e-01 -5.155341327190399170e-02 1.532116234302520752e-01 2.508062720298767090e-01 1.228271946310997009e-01 2.802285552024841309e-02
-1.854319870471954346e-01 1.153407096862792969e-01 -7.710254937410354614e-02 -5.176208168268203735e-02 2.139806002378463745e-01 2.417002171277999878e-01 -3.128407299518585205e-01 -1.635765284299850464e-02 1.195627674460411072e-01 -2.344865053892135620e-01 -2.202433906495571136e-02 -1.033872291445732117e-01 1.422678381204605103e-01 2.808266282081604004e-01 -2.091325670480728149e-01 -1.459887772798538208e-01 -3.392700804397463799e-03 -1.707486212253570557e-01 1.343484520912170410e-01 1.442017406225204468e-01 -3.346261009573936462e-02 2.748992145061492920e-01 -2.110190540552139282e-01 -6.706074625253677368e-02 -1.728368997573852539e-01 -2.423612326383590698e-01 -6.523250788450241089e-02 1.498368531465530396e-01 -5.249165743589401245e-02 2.292836830019950867e-02 1.668405979871749878e-01 7.430332899093627930e-02 1.234198734164237976e-01 -2.201330214738845825e-01 2.788014709949493408e-01 -1.703834235668182373e-01 6.266580522060394287e-02 -1.370267197489738464e-02 1.000234410166740417e-01 -5.838174372911453247e-02 -2.555060684680938721e-01 5.060701817274093628e-02 2.282657325267791748e-01 1.129849478602409363e-01 1.010010670870542526e-02 -2.428536266088485718e-01 -1.368643939495086670e-01 -1.639102995395660400e-01 3.061857819557189941e-01 -5.179570615291595459e-02
-1.537034101784229279e-02 -3.398127481341362000e-02 -2.041411995887756348e-01 -3.733846917748451233e-02 -2.217231392860412598e-01 -2.260679900646209717e-01 -5.531996022909879684e-03 1.576030552387237549e-01 2.729466184973716736e-02 -1.958994567394256592e-01 -1.545879840850830078e-01 -1.166144907474517822e-01 -5.276503786444664001e-02 -1.752836406230926514e-01 -1.794591397047042847e-01 -1.731039881706237793e-01 1.724215149879455566e-01 1.769490689039230347e-01 -6.045063585042953491e-02 1.894261837005615234e-01 1.458110101521015167e-02 -7.413562387228012085e-02 -2.339067012071609497e-01 1.915269047021865845e-01 6.096607074141502380e-02 1.859398931264877319e-02 7.972619682550430298e-02 3.654106333851814270e-02 1.875894367694854736e-01 5.026755854487419128e-02 1.301618814468383789e-01 5.382733419537544250e-02 -2.346145957708358765e-01 1.861426681280136108e-01 -8.597577363252639771e-02 2.203011214733123779e-01 -2.331729978322982788e-01 6.338679790496826172e-02 -6.645143777132034302e-02 -2.203822508454322815e-02 -1.958388537168502808e-01 -1.743644326925277710e-01 -1.279582530260086060e-01 -4.669662192463874817e-02 6.925583630800247192e-02 -2.346327900886535645e-01 1.934297680854797363e-01 -7.354097068309783936e-02 2.107256203889846802e-01 3.904149308800697327e-02
1.088014692068099976e-01 -3.181430697441101074e-02 -1.489302963018417358e-01 -1.891573369503021240e-01 2.576263546943664551e-01 2.524082064628601074e-01 2.054037153720855713e-01 2.799130082130432129e-01 1.673145778477191925e-02 3.613841235637664795e-01 2.935671210289001465e-01 9.514696151018142700e-02 4.879768192768096924e-02 -1.483870744705200195e-01 -7.605875283479690552e-02 -2.220261842012405396e-01 -2.188108414411544800e-01 -2.039931714534759521e-01 3.121760487556457520e-02 -6.500239670276641846e-02 -3.574218451976776123e-01 -1.826938986778259277e-01 -9.708866477012634277e-02 -1.165127381682395935e-01 2.430397719144821167e-01 -8.131876587867736816e-02 3.245773911476135254e-01 2.527744881808757782e-02 3.798320889472961426e-01 1.757297068834304810e-01 8.522300980985164642e-03 1.903811693191528320e-01 -1.149214804172515869e-01 3.548557683825492859e-02 -8.009947836399078369e-02 -1.468966156244277954e-02 2.275938093662261963e-01 -1.899185627698898315e-01 -1.997742503881454468e-01 1.857664585113525391e-01 1.093358471989631653e-01 2.172694653272628784e-01 -2.095479220151901245e-01 -7.504726201295852661e-02 2.084925919771194458e-01 -1.005292534828186035e-01 -2.597909271717071533e-01 -1.510960310697555542e-01 2.558924816548824310e-02 1.772268861532211304e-01
-2.760832309722900391e-01 -2.370695471763610840e-01 2.735472619533538818e-01 2.965214550495147705e-01 7.935623079538345337e-02 1.343399845063686371e-02 -2.355421781539916992e-01 2.311524599790573120e-01 -2.920430302619934082e-01 -1.346835941076278687e-01 6.140377745032310486e-02 7.491856347769498825e-03 2.449311316013336182e-01 2.139414548873901367e-01 -8.118392527103424072e-02 1.242313235998153687e-01 -3.175139427185058594e-01 -3.741061314940452576e-03 -2.682262957096099854e-01 1.200269758701324463e-01 -4.712463542819023132e-02 -1.041014939546585083e-01 -1.729889363050460815e-01 -8.716891519725322723e-03 -1.912213116884231567e-02 1.465187966823577881e-01 1.943517327308654785e-01 1.937474459409713745e-01 -1.809151172637939453e-01 1.928930431604385376e-01 -2.632506191730499268e-01 2.954133749008178711e-01 -1.646115817129611969e-02 -2.275294996798038483e-02 -1.464291661977767944e-01 3.544056415557861328e-02 8.509472012519836426e-02 -7.532793283462524414e-02 9.794062376022338867e-02 -2.739265859127044678e-01 -2.850951999425888062e-02 2.541919946670532227e-01 -1.544177681207656860e-01 -1.784321665763854980e-01 -7.689309865236282349e-02 -2.254011482000350952e-01 1.696817874908447266e-01 1.126219108700752258e-01 1.124245673418045044e-01 2.405851483345031738e-01
-2.871828079223632812e-01 -3.141798973083496094e-01 1.700027734041213989e-01 2.820241823792457581e-02 1.521040946245193481e-01 -2.149525098502635956e-02 -2.119480073451995850e-02 2.862840890884399414e-01 -1.086817979812622070e-01 1.269696652889251709e-01 -1.213062033057212830e-01 1.185839027166366577e-01 -2.363163419067859650e-02 2.145940810441970825e-01 1.031324714422225952e-01 -5.481842905282974243e-03 -2.937768995761871338e-01 -3.689466789364814758e-02 -2.624740302562713623e-01 -1.952480077743530273e-01 1.245924457907676697e-01 1.780918240547180176e-01 7.648155093193054199e-02 1.255878955125808716e-01 -9.228844940662384033e-02 -1.331566274166107178e-01 -3.477149903774261475e-01 2.665325999259948730e-01 3.256106004118919373e-02 1.461188942193984985e-01 -2.439395040273666382e-01 2.873586118221282959e-01 -1.789417117834091187e-01 9.167076647281646729e-02 5.495036765933036804e-02 1.299116760492324829e-01 2.551192939281463623e-01 3.430575430393218994e-01 -6.089721620082855225e-02 -2.944332957267761230e-01 -2.140516340732574463e-01 -1.147012785077095032e-01 -1.135291233658790588e-01 -7.561499625444412231e-02 3.187846839427947998e-01 2.391864731907844543e-02 -7.326596230268478394e-02 1.975495964288711548e-01 8.751176297664642334e-02 2.163023054599761963e-01
1.547084748744964600e-01 1.778771281242370605e-01 -1.129464432597160339e-01 -1.096655800938606262e-01 -5.529738217592239380e-02 7.018890976905822754e-02 1.484168916940689087e-01 -8.121683448553085327e-02 -2.124805934727191925e-02 1.731559187173843384e-01 4.033029675483703613e-01 -5.784618109464645386e-02 1.347590535879135132e-01 1.603259593248367310e-01 -1.216382607817649841e-01 9.510878473520278931e-02 -2.674636840820312500e-01 -2.001859545707702637e-01 -1.646107882261276245e-01 -2.177440822124481201e-01 -1.751286536455154419e-01 -9.733004495501518250e-03 -8.004939556121826172e-02 -9.521430730819702148e-02 3.137731552124023438e-01 -2.251330316066741943e-01 1.300299912691116333e-01 5.708483979105949402e-02 2.993169724941253662e-01 2.903930842876434326e-01 3.142244741320610046e-02 -7.458087056875228882e-02 5.253016576170921326e-02 1.094975844025611877e-01 -1.574765592813491821e-01 1.304938048124313354e-01 -1.764139533042907715e-01 1.655741184949874878e-01 -5.645720288157463074e-02 1.464332491159439087e-01 1.085794419050216675e-01 1.117342188954353333e-01 -1.013264805078506470e-01 -6.891056895256042480e-02 -5.085316300392150879e-02 5.605599284172058105e-02 -2.714425325393676758e-01 2.790097892284393311e-01 -2.643027305603027344e-01 -1.665191501379013062e-01
-2.725675702095031738e-01 -1.588598638772964478e-01 -2.281880378723144531e-02 1.347332540899515152e-02 -1.177087891846895218e-02 1.321513801813125610e-01 -2.438375651836395264e-01 -3.388263881206512451e-01 8.180446922779083252e-02 -5.597253516316413879e-02 -2.169013470411300659e-01 4.043168202042579651e-02 -7.715804502367973328e-03 1.772570461034774780e-01 2.397481054067611694e-01 1.172667294740676880e-01 1.057108640670776367e-01 3.307994604110717773e-01 3.549143299460411072e-02 -1.214521471410989761e-02 4.386290609836578369e-01 1.171691566705703735e-01 -2.378856688737869263e-01 1.337164193391799927e-01 1.610091328620910645e-02 1.151497364044189453e-01 -5.627136230468750000e-01 1.850889027118682861e-01 -4.100509881973266602e-01 -1.638286113739013672e-01 3.508603274822235107e-01 -8.283119648694992065e-02 1.076212525367736816e-02 2.345653027296066284e-01 -3.221633434295654297e-01 -2.132624536752700806e-01 -2.028579562902450562e-01 -1.490003019571304321e-01 1.044612750411033630e-01 1.454062461853027344e-01 1.914055645465850830e-01 -2.674979269504547119e-01 -3.014284074306488037e-01 -4.113109409809112549e-02 7.635588943958282471e-02 3.367697000503540039e-01 2.543488740921020508e-01 -2.917839884757995605e-01 1.061639487743377686e-01 -7.032667752355337143e-03
-1.097963079810142517e-01 1.767915189266204834e-01 6.597479432821273804e-02 2.590952441096305847e-02 -1.749729514122009277e-01 2.552910745143890381e-01 -6.076524779200553894e-02 2.183112800121307373e-01 -2.049740403890609741e-01 1.017122343182563782e-01 2.403823882341384888e-01 -3.411039710044860840e-02 2.225410938262939453e-02 -2.858015941455960274e-03 -8.762723207473754883e-02 -1.557164043188095093e-01 9.867347776889801025e-02 1.485294848680496216e-01 8.739014714956283569e-02 -2.471140623092651367e-01 -1.065061837434768677e-01 -1.602822691202163696e-01 -9.961719810962677002e-02 2.469846755266189575e-01 1.642491668462753296e-01 1.765681952238082886e-01 1.750444993376731873e-02 -6.807218492031097412e-02 2.092295885086059570e-02 1.023837998509407043e-01 1.185164554044604301e-03 -4.044960066676139832e-02 6.030657887458801270e-02 -1.259607523679733276e-01 4.576931893825531006e-02 7.221353054046630859e-02 -1.124181300401687622e-01 -4.417828097939491272e-02 -7.619791477918624878e-02 -2.838699221611022949e-01 -8.046419173479080200e-02 3.241587579250335693e-01 1.743039041757583618e-01 1.309722065925598145e-01 2.060927599668502808e-01 -1.352862715721130371e-01 -2.640784680843353271e-01 -1.258656829595565796e-01 9.004554897546768188e-02 1.710486114025115967e-01
-1.664649099111557007e-01 -2.481696158647537231e-01 1.854317784309387207e-01 2.526045441627502441e-01 -9.893826395273208618e-02 2.129361405968666077e-02 -9.883720427751541138e-02 2.916450500488281250e-01 -1.354598999023437500e-01 1.053220182657241821e-01 7.861050963401794434e-02 -1.591359525918960571e-01 -1.945583522319793701e-02 -9.621392190456390381e-02 -1.167048215866088867e-01 -1.378105282783508301e-01 -2.727221846580505371e-01 1.116952113807201385e-02 -1.606239564716815948e-02 -1.224207729101181030e-01 -3.651401028037071228e-02 6.000971421599388123e-02 7.019435614347457886e-02 4.121963866055011749e-03 -1.612055152654647827e-01 1.288500279188156128e-01 -2.188183516263961792e-01 2.435306757688522339e-01 2.748917937278747559e-01 1.617471426725387573e-01 -1.729872375726699829e-01 -1.045047715306282043e-01 -2.214111983776092529e-01 -2.348879352211952209e-02 -5.088216811418533325e-02 -1.914049237966537476e-01 2.099749296903610229e-01 2.997112274169921875e-01 -2.298283427953720093e-01 -1.745498329401016235e-01 -1.076132282614707947e-01 -8.990893512964248657e-02 6.806098669767379761e-02 -1.857742369174957275e-01 1.423890143632888794e-01 -1.591939926147460938e-01 1.208648309111595154e-01 -6.298928707838058472e-02 -1.025006026029586792e-01 -1.193010807037353516e-01
-1.190746203064918518e-01 -1.973074972629547119e-01 -1.604964584112167358e-02 -6.046963855624198914e-02 -2.212152630090713501e-01 1.401025503873825073e-01 1.515887528657913208e-01 -1.114028766751289368e-01 -1.606947481632232666e-01 -3.294093906879425049e-02 1.465571969747543335e-01 7.890602946281433105e-02 -1.702106148004531860e-01 -1.804165542125701904e-01 -1.818528473377227783e-01 -1.315845996141433716e-01 -3.519381955265998840e-02 -2.053172439336776733e-01 2.520568966865539551e-01 2.235541120171546936e-02 -6.144566088914871216e-02 1.514636278152465820e-01 1.797293871641159058e-01 -6.665888428688049316e-02 1.036152914166450500e-01 6.561659742146730423e-03 1.386250136420130730e-03 -2.973578870296478271e-01 7.682407647371292114e-02 2.121565192937850952e-01 -8.421086519956588745e-02 -4.328032210469245911e-02 7.889670878648757935e-02 3.377197682857513428e-02 -1.107299886643886566e-02 8.807734400033950806e-02 -1.935009509325027466e-01 -6.084579229354858398e-02 2.000293582677841187e-01 -1.182878017425537109e-01 -1.410505473613739014e-01 -1.690573543310165405e-01 1.558956950902938843e-01 -1.763668656349182129e-02 -1.728715188801288605e-02 -2.217907905578613281e-01 2.797342464327812195e-02 -1.568661779165267944e-01 -1.187421903014183044e-01 -1.109963282942771912e-01
8.079435676336288452e-02 1.674757301807403564e-01 1.029824241995811462e-01 6.133903935551643372e-02 -2.824125289916992188e-01 -9.024884551763534546e-02 2.410014569759368896e-01 -5.171955376863479614e-02 2.177382111549377441e-01 2.140549570322036743e-01 -1.366523802280426025e-01 1.156471893191337585e-01 -8.866634219884872437e-02 -5.756129696965217590e-02 -6.599880754947662354e-02 3.941082209348678589e-02 -1.865058094263076782e-01 2.084240019321441650e-01 -4.309920966625213623e-02 2.192202359437942505e-01 -1.397472321987152100e-01 -5.019806325435638428e-02 6.209135800600051880e-02 1.351723819971084595e-01 -1.005026772618293762e-01 -2.088390737771987915e-01 1.371405571699142456e-01 4.740342125296592712e-02 -8.615912497043609619e-02 5.285626649856567383e-02 2.209351360797882080e-01 -1.966095715761184692e-01 2.734687626361846924e-01 8.303020149469375610e-02 -8.386749774217605591e-02 -9.656395018100738525e-02 -2.705226838588714600e-01 -2.285824567079544067e-01 3.827327862381935120e-02 8.058976382017135620e-02 2.925243079662322998e-01 -7.200536318123340607e-03 -2.770548462867736816e-01 4.039297997951507568e-02 -1.332801729440689087e-01 2.037230283021926880e-01 1.162914335727691650e-01 -1.711937785148620605e-01 -1.600207984447479248e-01 2.725013531744480133e-02
1.790638566017150879e-01 4.158139973878860474e-02 1.503444612026214600e-01 -5.411266908049583435e-02 1.316271424293518066e-01 -2.400931268930435181e-01 -1.002143919467926025e-01 1.418135464191436768e-01 -7.657383382320404053e-02 -2.535930871963500977e-01 1.672489643096923828e-01 -2.265722118318080902e-02 -1.198811531066894531e-01 -1.365022212266921997e-01 2.510893642902374268e-01 -8.678640238940715790e-03 4.399743676185607910e-02 -1.629512459039688110e-01 2.352171391248703003e-01 4.644121229648590088e-02 -1.879262924194335938e-01 -3.400223329663276672e-02 2.784417569637298584e-01 -7.366747409105300903e-02 -1.225129738450050354e-01 -1.024412438273429871e-01 -1.422239094972610474e-01 -2.739420533180236816e-01 1.426234096288681030e-01 1.952304840087890625e-01 1.681022942066192627e-01 -2.062277346849441528e-01 -4.638155549764633179e-02 -7.183009386062622070e-02 -2.606335096061229706e-02 -1.088061109185218811e-01 4.962863028049468994e-02 -2.749284505844116211e-01 2.893197350203990936e-02 -1.028769277036190033e-02 7.153923809528350830e-02 -1.691492646932601929e-01 -2.476648390293121338e-01 -1.470011174678802490e-01 -7.253134250640869141e-02 -1.982951611280441284e-01 -1.117050051689147949e-01 1.937656253576278687e-01 1.577380448579788208e-01 -1.256784051656723022e-01
2.042753696441650391e-01 1.554882526397705078e-01 2.362867118790745735e-03 -1.974598914384841919e-01 -1.717519164085388184e-01 1.005474254488945007e-01 9.017141163349151611e-02 1.628028005361557007e-01 -2.557505369186401367e-01 4.399985820055007935e-02 1.546318829059600830e-01 1.360008567571640015e-01 -1.438146719010546803e-04 6.725639104843139648e-02 -2.674943208694458008e-01 -2.838523387908935547e-01 -1.553400456905364990e-01 -1.320836544036865234e-01 -2.301960885524749756e-01 2.041810750961303711e-02 -2.477840632200241089e-01 -1.590760201215744019e-01 -1.039212942123413086e-01 6.207609549164772034e-02 2.557838521897792816e-02 -5.561082065105438232e-02 3.163283169269561768e-01 -3.135707974433898926e-01 1.238779863342642784e-03 -6.479664146900177002e-02 1.686139106750488281e-01 1.853995919227600098e-01 -1.401120238006114960e-02 -1.759667694568634033e-01 -5.617842823266983032e-02 1.882020086050033569e-01 -7.467857748270034790e-02 -2.807428538799285889e-01 -2.150750011205673218e-01 9.514772891998291016e-02 2.666245400905609131e-01 -3.418822214007377625e-02 -5.395235493779182434e-02 2.690692842006683350e-01 -4.566411022096872330e-03 -2.670364677906036377e-01 1.888993382453918457e-02 -1.609370261430740356e-01 -3.243976235389709473e-01 -2.599124610424041748e-01
-7.829748094081878662e-02 -2.640643715858459473e-01 1.664415448904037476e-01 -1.706000864505767822e-01 5.355692282319068909e-02 2.336845993995666504e-01 9.791101329028606415e-03 -4.106220602989196777e-02 -1.408917307853698730e-01 1.190959885716438293e-01 -3.005771525204181671e-02 -3.831433877348899841e-02 -8.430316299200057983e-02 1.034459397196769714e-01 1.061905622482299805e-01 -1.505628377199172974e-01 -2.745084166526794434e-01 -2.224037945270538330e-01 -4.741947352886199951e-02 2.811366505920886993e-02 -2.395265400409698486e-01 -1.472509652376174927e-02 -1.101209297776222229e-01 2.678540349006652832e-01 9.550902247428894043e-02 1.363224685192108154e-01 -9.896544367074966431e-02 1.955466568470001221e-01 6.478863954544067383e-02 3.713392838835716248e-02 -7.402821630239486694e-02 -1.573022902011871338e-01 -2.048478424549102783e-01 1.591234207153320312e-01 -7.058084011077880859e-03 1.764445006847381592e-01 2.617719173431396484e-01 2.584660053253173828e-01 -2.979632839560508728e-02 -2.782214246690273285e-02 2.180713228881359100e-02 -6.490602344274520874e-02 -1.446238835342228413e-03 -1.065236702561378479e-01 1.376282721757888794e-01 1.325800567865371704e-01 -6.161585450172424316e-02 1.100403070449829102e-01 1.624615862965583801e-02 -1.722667813301086426e-01
-1.360159218311309814e-01 -1.510781496763229370e-01 1.106340587139129639e-01 8.349392563104629517e-02 7.799200713634490967e-02 -8.676937967538833618e-02 -3.126070797443389893e-01 -3.853046521544456482e-02 1.597423404455184937e-01 2.800457738339900970e-02 -2.082284539937973022e-02 -1.638186126947402954e-01 1.309483349323272705e-01 3.410227596759796143e-02 1.463581062853336334e-02 -2.525298297405242920e-01 -2.275211066007614136e-01 -1.815152019262313843e-01 -2.034561485052108765e-01 -2.716694772243499756e-01 3.095293045043945312e-02 3.687770292162895203e-02 5.875742435455322266e-02 -2.859528549015522003e-02 2.026360183954238892e-01 6.943398714065551758e-02 1.853045076131820679e-01 -5.459614843130111694e-02 1.054341718554496765e-01 -1.135380286723375320e-02 -1.241979151964187622e-01 7.363115902990102768e-03 -2.569215893745422363e-01 5.260827764868736267e-02 6.867393851280212402e-02 -8.827134966850280762e-02 2.673999071121215820e-01 2.463458925485610962e-01 -1.489328294992446899e-01 1.833011656999588013e-01 8.335778862237930298e-02 -3.881449624896049500e-02 2.273365706205368042e-01 -1.090341657400131226e-01 -9.127583354711532593e-02 -1.476082950830459595e-02 -2.773368358612060547e-01 2.140357345342636108e-01 5.691837891936302185e-02 9.032768011093139648e-02
1.171434670686721802e-01 1.390275508165359497e-01 1.448287069797515869e-01 -1.267935335636138916e-01 -8.325488120317459106e-02 8.967676758766174316e-02 1.956992596387863159e-01 -2.319027781486511230e-01 -6.019546836614608765e-02 -2.578221261501312256e-01 6.012942269444465637e-02 -5.978400353342294693e-03 -6.391335278749465942e-02 -2.530810534954071045e-01 1.741115152835845947e-01 -1.238403767347335815e-01 2.685482203960418701e-01 1.625978201627731323e-01 -7.666825503110885620e-02 1.037871167063713074e-01 7.375721633434295654e-02 -2.063176482915878296e-01 -1.656056791543960571e-01 -7.543470710515975952e-02 3.708272054791450500e-02 1.181485727429389954e-01 -7.586320489645004272e-02 -3.099690079689025879e-01 1.432668697088956833e-02 1.480919271707534790e-01 -1.402499973773956299e-01 -2.841664254665374756e-01 8.480414003133773804e-02 2.633880265057086945e-02 -1.299556940793991089e-01 2.572004199028015137e-01 -1.076812967658042908e-01 -1.142923608422279358e-01 3.625291958451271057e-02 -1.671255013206973672e-04 1.347943395376205444e-01 5.031050369143486023e-02 1.080548018217086792e-01 1.512051224708557129e-01 1.011537685990333557e-01 2.162668257951736450e-01 2.778101563453674316e-01 1.782015711069107056e-01 1.605340279638767242e-02 -1.093276441097259521e-01
-1.623546145856380463e-02 -2.914779484272003174e-01 1.189718302339315414e-02 -8.509508520364761353e-02 2.853131294250488281e-01 3.063148856163024902e-01 5.709283053874969482e-02 2.936874330043792725e-01 8.140882849693298340e-02 1.002981290221214294e-01 -3.989180549979209900e-02 3.884447365999221802e-02 -1.432520747184753418e-01 2.251357883214950562e-01 -2.411940693855285645e-01 -2.378713041543960571e-01 -2.236239463090896606e-01 1.469392031431198120e-01 -2.676933407783508301e-01 -1.842313855886459351e-01 -2.665470540523529053e-01 8.419110625982284546e-02 -1.282169073820114136e-01 -1.499990373849868774e-01 1.123992819339036942e-02 -1.294333338737487793e-01 2.355540990829467773e-01 1.483188271522521973e-01 -2.650311216711997986e-02 2.053972482681274414e-01 -1.781097352504730225e-01 8.900340646505355835e-02 -2.307826466858386993e-02 -1.588274836540222168e-01 -5.507736653089523315e-02 -2.327321618795394897e-01 2.386680431663990021e-02 2.236876636743545532e-01 -1.621301770210266113e-01 -2.334946691989898682e-01 -7.193018496036529541e-02 -1.481564193964004517e-01 5.965456366539001465e-02 9.450512379407882690e-02 2.888249158859252930e-01 -6.272416561841964722e-02 -2.797854840755462646e-01 -1.617727577686309814e-01 -9.008998982608318329e-03 -6.244218349456787109e-02
2.302251458168029785e-01 1.454729139804840088e-01 -2.784949839115142822e-01 1.792713552713394165e-01 -2.256368398666381836e-01 -1.363897919654846191e-01 1.998801380395889282e-01 -1.873493641614913940e-01 2.759523876011371613e-02 -2.434765696525573730e-01 -2.113149911165237427e-01 1.720907390117645264e-01 -2.762407958507537842e-01 8.841587603092193604e-02 -2.989168465137481689e-02 2.482913881540298462e-01 7.681026309728622437e-02 -7.785547524690628052e-02 2.275862842798233032e-01 2.956156432628631592e-01 3.184091150760650635e-01 1.083828322589397430e-02 -1.170393079519271851e-01 -2.160452306270599365e-01 -2.858557552099227905e-02 1.683678776025772095e-01 7.915845513343811035e-02 -1.006408259272575378e-01 8.697596937417984009e-02 3.248275816440582275e-02 3.017186000943183899e-02 -1.094429288059473038e-02 -1.222978532314300537e-01 2.683636248111724854e-01 7.710128556936979294e-03 2.743037231266498566e-02 1.718979924917221069e-01 -4.761314485222101212e-03 -1.141475699841976166e-02 3.730107843875885010e-02 -3.988201916217803955e-02 -6.761888414621353149e-02 7.173420488834381104e-02 -1.124444454908370972e-01 -1.161980628967285156e-01 -1.353911459445953369e-01 -1.400705426931381226e-01 -1.516581475734710693e-01 -4.934886097908020020e-02 -1.236451938748359680e-01
6.751449406147003174e-02 1.546828299760818481e-01 -4.892127960920333862e-02 1.601351201534271240e-01 1.898927241563796997e-01 2.169107794761657715e-01 -1.423191279172897339e-01 3.152326643466949463e-01 -1.700591892004013062e-01 -8.498764783143997192e-02 1.694843471050262451e-01 2.410481311380863190e-02 -1.002956628799438477e-01 2.339018583297729492e-01 9.682087227702140808e-03 -4.049822688102722168e-02 -1.068883985280990601e-01 1.537516713142395020e-01 -2.882222831249237061e-01 -3.093499317765235901e-02 -8.120707422494888306e-02 -3.760378807783126831e-02 -1.249006763100624084e-01 -5.969227477908134460e-02 9.141968935728073120e-02 4.262395948171615601e-02 2.683309838175773621e-02 -9.303675591945648193e-02 2.452348768711090088e-01 2.902534306049346924e-01 -2.849972806870937347e-02 -1.312017738819122314e-01 1.875268109142780304e-02 -3.059297502040863037e-01 -1.535736918449401855e-01 6.121024116873741150e-02 -1.816805452108383179e-01 7.644154597073793411e-03 -8.859791606664657593e-02 -1.637657880783081055e-01 1.674457490444183350e-01 -7.419593632221221924e-02 -1.463562548160552979e-01 -5.500914528965950012e-02 -3.945755213499069214e-02 -2.382134646177291870e-01 -1.547721624374389648e-01 1.713106781244277954e-01 -3.141364455223083496e-01 -1.291889101266860962e-01
1.605331599712371826e-01 -5.863184481859207153e-02 1.667508482933044434e-01 2.019981294870376587e-01 1.409605741500854492e-01 8.560232073068618774e-02 -2.167065069079399109e-02 -1.083409041166305542e-01 5.117504391819238663e-03 3.562681376934051514e-02 -6.397280097007751465e-02 -3.540056059136986732e-03 -1.299358457326889038e-01 1.510540843009948730e-01 -1.954232454299926758e-01 -7.581292092800140381e-02 -1.866551339626312256e-01 9.262051433324813843e-02 9.440971910953521729e-02 1.956871300935745239e-01 -6.249076873064041138e-02 1.506651788949966431e-01 9.618072956800460815e-02 9.485707432031631470e-02 -6.384511291980743408e-02 -1.798051297664642334e-01 -5.878081172704696655e-02 8.817242830991744995e-02 1.063082143664360046e-01 1.451297253370285034e-01 -2.448224127292633057e-01 -6.580895930528640747e-02 1.905629038810729980e-01 -1.715384721755981445e-01 -1.731319874525070190e-01 -2.136314511299133301e-01 5.783069878816604614e-02 2.437068223953247070e-01 -1.589913815259933472e-01 -1.964616477489471436e-01 -3.438931703567504883e-02 -6.866145879030227661e-02 2.217221558094024658e-01 -1.082398667931556702e-01 1.536348760128021240e-01 2.657178416848182678e-02 -1.538186818361282349e-01 2.892163991928100586e-01 2.390312850475311279e-01 -1.516455262899398804e-01
-2.174652367830276489e-01 -2.938337326049804688e-01 2.448114603757858276e-01 2.657426297664642334e-01 -3.230948746204376221e-02 3.137708827853202820e-02 -1.157274767756462097e-01 1.455215811729431152e-01 -7.384579628705978394e-02 6.713631749153137207e-02 1.628596931695938110e-01 -2.315112799406051636e-01 9.681804105639457703e-03 -7.956299930810928345e-02 -2.264469563961029053e-01 1.500363796949386597e-01 -2.114125937223434448e-01 -1.419134736061096191e-01 -4.218566045165061951e-02 -1.975921988487243652e-01 -1.963016688823699951e-01 -1.530364900827407837e-01 1.236421689391136169e-01 -1.127061769366264343e-01 1.682549268007278442e-01 1.205762401223182678e-01 -1.821673661470413208e-01 -7.250595837831497192e-02 1.806653887033462524e-01 2.869749069213867188e-01 -2.351060360670089722e-01 -9.729768335819244385e-02 -7.156137377023696899e-02 -1.022987142205238342e-01 1.399543434381484985e-01 -1.315691769123077393e-01 2.624473869800567627e-01 2.367678284645080566e-01 7.615052908658981323e-02 -5.916387774050235748e-03 -1.273617893457412720e-01 1.532744616270065308e-01 -1.745751351118087769e-01 3.816940262913703918e-02 -1.521448343992233276e-01 2.490794099867343903e-02 -1.911052316427230835e-01 4.100348055362701416e-02 5.048180371522903442e-02 2.063400000333786011e-01
-6.998290121555328369e-02 -1.505835205316543579e-01 -3.380876779556274414e-02 -2.837639488279819489e-02 -6.543997675180435181e-02 -1.862327158451080322e-01 -1.672893166542053223e-01 1.234214529395103455e-01 -1.888183951377868652e-01 1.182158812880516052e-01 -1.628752201795578003e-01 1.582426577806472778e-01 2.593616545200347900e-01 2.016015201807022095e-01 -2.465676367282867432e-01 -5.389933288097381592e-02 -3.053487837314605713e-01 -2.379422783851623535e-01 2.186912111937999725e-02 -2.800375223159790039e-01 -1.369285434484481812e-01 2.760705053806304932e-01 -2.915078997611999512e-01 -9.015665203332901001e-02 1.628076881170272827e-01 -1.395622342824935913e-01 -1.310846358537673950e-01 2.601813524961471558e-02 2.294159978628158569e-01 1.684507429599761963e-01 -1.584990769624710083e-01 3.818860277533531189e-02 -5.963186733424663544e-03 -2.116553932428359985e-01 9.863838553428649902e-02 -3.314195200800895691e-02 -8.934024721384048462e-02 1.641193628311157227e-01 -2.405167371034622192e-01 -1.728691160678863525e-01 1.831735223531723022e-01 1.175983622670173645e-01 -7.810224778950214386e-03 1.458955109119415283e-01 1.365644186735153198e-01 6.016965210437774658e-02 -9.150807559490203857e-02 1.819022744894027710e-01 -5.133269354701042175e-02 3.123048134148120880e-02
4.396766051650047302e-02 -1.337558031082153320e-01 -1.684737354516983032e-01 -5.965187773108482361e-02 -3.018443882465362549e-01 -1.280216425657272339e-01 2.385367602109909058e-01 -2.019531428813934326e-01 1.534478813409805298e-01 -2.240831553936004639e-01 -1.206775233149528503e-01 1.321488022804260254e-01 1.750686615705490112e-01 6.261524558067321777e-02 2.559982240200042725e-01 -5.223421845585107803e-03 1.583418101072311401e-01 1.985204964876174927e-01 2.214164435863494873e-01 2.910105586051940918e-01 2.280905544757843018e-01 1.428374052047729492e-01 1.365892887115478516e-01 1.745350360870361328e-01 4.403354227542877197e-02 2.471013069152832031e-01 2.655243501067161560e-02 -1.945521235466003418e-01 6.962731480598449707e-02 -2.545026242733001709e-01 -1.766746640205383301e-01 1.029784977436065674e-01 2.149446159601211548e-01 -1.221282966434955597e-02 3.398833097890019417e-03 6.729140132665634155e-02 1.158894598484039307e-02 1.142429038882255554e-01 2.264625579118728638e-01 -1.073988154530525208e-01 2.276395559310913086e-01 -9.292241185903549194e-02 -7.372231781482696533e-02 2.443148344755172729e-01 9.626965969800949097e-02 2.258199751377105713e-01 -1.033088937401771545e-01 -2.851149439811706543e-01 1.959758624434471130e-02 1.311533153057098389e-01
-1.237546950578689575e-01 -1.703153848648071289e-01 -2.131927758455276489e-02 -3.690668568015098572e-02 -7.545778900384902954e-02 -1.514033675193786621e-01 5.308267846703529358e-02 2.585223913192749023e-01 6.150853261351585388e-02 -1.271686255931854248e-01 -3.292127847671508789e-01 -6.856231391429901123e-02 1.990907788276672363e-01 -1.180317997932434082e-01 -9.805656969547271729e-02 -1.763487607240676880e-01 -9.966863691806793213e-02 -1.859777718782424927e-01 -2.529117166996002197e-01 -1.452160775661468506e-01 1.323492676019668579e-01 -7.176610082387924194e-02 -2.405521087348461151e-02 2.006649821996688843e-01 -1.336850076913833618e-01 4.421821609139442444e-02 9.652977436780929565e-02 -1.922590075992047787e-03 -9.467884898185729980e-02 -2.106294631958007812e-01 1.244998537003993988e-03 -2.030236124992370605e-01 1.437277644872665405e-01 -2.275730483233928680e-02 -7.107638567686080933e-02 4.566764831542968750e-02 -9.461427479982376099e-02 -1.299549043178558350e-01 7.797592878341674805e-02 1.927624493837356567e-01 -6.902654469013214111e-02 5.126944184303283691e-02 -7.535237073898315430e-02 -1.214357838034629822e-01 -1.312876343727111816e-01 -3.034213781356811523e-01 -1.344526708126068115e-01 2.428952045738697052e-02 -7.984791696071624756e-02 -8.540952950716018677e-02
-2.264988422393798828e-01 -2.666923999786376953e-01 1.896208524703979492e-01 1.559961028397083282e-02 1.631534546613693237e-01 2.147285938262939453e-01 -2.752742171287536621e-01 9.723473340272903442e-02 1.652735099196434021e-02 -8.966064453125000000e-02 -3.236248493194580078e-01 -2.412156462669372559e-01 2.418814897537231445e-01 1.595863252878189087e-01 1.130146458745002747e-01 1.411461085081100464e-01 -3.114418387413024902e-01 6.655599176883697510e-02 -2.384840846061706543e-01 1.724550873041152954e-01 1.536074280738830566e-01 1.821002066135406494e-01 -2.601824998855590820e-01 2.959664724767208099e-02 -2.053111344575881958e-01 -2.339839935302734375e-01 1.171497851610183716e-01 7.940527796745300293e-02 -2.605550587177276611e-01 -3.105992265045642853e-02 -2.663328945636749268e-01 2.638977169990539551e-01 -1.632478833198547363e-01 1.186852753162384033e-01 2.127037644386291504e-01 -1.215070933103561401e-01 -3.019879013299942017e-02 -6.395983695983886719e-02 1.618248522281646729e-01 5.779732018709182739e-02 1.099524088203907013e-02 2.725688517093658447e-01 -1.357549577951431274e-01 9.716646373271942139e-02 -1.539734541438519955e-03 -1.223713308572769165e-01 -8.309203386306762695e-02 4.046205058693885803e-02 -7.940709590911865234e-02 1.867208778858184814e-01
-2.701011300086975098e-01 -2.383160591125488281e-01 8.079115301370620728e-02 -3.212546184659004211e-02 5.051562190055847168e-02 2.514359652996063232e-01 -2.791610360145568848e-01 -9.910481981933116913e-03 -4.809867218136787415e-02 1.011805161833763123e-01 -5.994715541601181030e-02 1.440250873565673828e-01 -9.962993115186691284e-02 7.197511941194534302e-02 -6.273991893976926804e-03 -2.258901149034500122e-01 8.169399946928024292e-02 -1.796791106462478638e-01 -9.419996291399002075e-02 -2.756656408309936523e-01 -2.072016894817352295e-01 1.754179298877716064e-01 -4.344784095883369446e-02 -7.990051060914993286e-02 2.074027657508850098e-01 -3.369223773479461670e-01 -3.433300256729125977e-01 -8.078088611364364624e-02 4.746413789689540863e-03 8.744034171104431152e-02 -1.414362639188766479e-01 2.865920960903167725e-01 -2.943882942199707031e-01 -2.627477645874023438e-01 1.089472174644470215e-01 -2.933094501495361328e-01 1.187905594706535339e-01 -1.124140247702598572e-01 6.787890940904617310e-02 -1.038109287619590759e-01 -2.819504775106906891e-02 -2.869946137070655823e-02 2.620059847831726074e-01 1.182820349931716919e-01 -1.414656545966863632e-02 -1.445561088621616364e-02 5.862009525299072266e-02 -6.152530387043952942e-02 3.831605911254882812e-01 4.029740020632743835e-02
1.445459425449371338e-01 2.204968631267547607e-01 -1.480500400066375732e-01 8.313698321580886841e-02 -4.355064406991004944e-02 -1.959338337182998657e-01 -2.581301704049110413e-02 -2.313240617513656616e-01 1.452831178903579712e-01 -4.578363150358200073e-02 -1.579425930976867676e-01 3.697287291288375854e-02 -2.967021465301513672e-01 -1.951861893758177757e-03 1.862415969371795654e-01 2.719436772167682648e-02 7.240943610668182373e-02 -4.920449852943420410e-02 6.405206397175788879e-03 8.141243457794189453e-02 -1.857980787754058838e-01 -1.352538466453552246e-01 2.748065590858459473e-01 -1.520030051469802856e-01 8.187215775251388550e-02 1.634566336870193481e-01 -9.736490249633789062e-02 -2.938805893063545227e-02 6.529681384563446045e-02 -1.611221283674240112e-01 1.243599876761436462e-01 1.465881913900375366e-01 1.942605376243591309e-01 -2.178521752357482910e-01 -2.053097635507583618e-01 1.536117494106292725e-01 3.178479522466659546e-02 1.417584568262100220e-01 -1.834214925765991211e-01 -1.538449078798294067e-01 2.984434664249420166e-01 6.239753216505050659e-02 -2.987312078475952148e-01 -1.272628903388977051e-01 -1.054284721612930298e-01 -1.006355416029691696e-02 9.616123884916305542e-02 -2.278141379356384277e-01 -7.229262590408325195e-02 3.644346818327903748e-02
-5.210093259811401367e-01 2.038137167692184448e-01 2.590488195419311523e-01 1.105429604649543762e-01 1.854326725006103516e-01 -7.757177948951721191e-02 -1.831112056970596313e-01 1.959075778722763062e-01 2.427338510751724243e-01 -1.047457531094551086e-01 -3.550867736339569092e-01 2.846546843647956848e-02 3.386576175689697266e-01 -1.540815737098455429e-02 6.395822763442993164e-02 5.741809681057929993e-02 -1.519256085157394409e-01 -1.620163619518280029e-01 -2.040886580944061279e-01 -2.839266955852508545e-01 2.271844446659088135e-01 1.266298741102218628e-01 -3.223060667514801025e-01 -1.937682181596755981e-01 1.469580829143524170e-01 -3.150200471282005310e-02 -2.792741954326629639e-01 5.246451124548912048e-02 -3.244845867156982422e-01 -2.220384329557418823e-01 -2.058068364858627319e-01 1.333815902471542358e-01 1.513470262289047241e-01 1.544488519430160522e-01 8.985374867916107178e-02 -2.793212234973907471e-01 -1.789110600948333740e-01 1.078489944338798523e-01 -8.117141574621200562e-02 2.165012359619140625e-01 -3.099179826676845551e-02 -4.286375269293785095e-02 -1.189815253019332886e-01 1.670845001935958862e-01 -1.425679028034210205e-01 1.180491968989372253e-01 2.137553095817565918e-01 1.624298244714736938e-01 3.299662470817565918e-01 1.431909110397100449e-02
-3.162911832332611084e-01 1.548565365374088287e-02 2.633296847343444824e-01 -1.133241951465606689e-01 -1.132710799574851990e-01 2.387007884681224823e-02 8.178526163101196289e-02 1.231381148099899292e-01 1.332959681749343872e-01 1.770872771739959717e-01 -3.346954882144927979e-01 -1.410596519708633423e-01 2.704536318778991699e-01 2.590124607086181641e-01 -2.684730887413024902e-01 -1.862343102693557739e-01 -2.559779882431030273e-01 1.764468252658843994e-01 -8.981412649154663086e-02 -1.922586709260940552e-01 2.341657876968383789e-02 3.037313222885131836e-01 1.399223506450653076e-01 8.278615772724151611e-03 2.539345920085906982e-01 1.592058688402175903e-01 -1.607545018196105957e-01 2.099060565233230591e-01 1.283391267061233521e-01 8.872690796852111816e-02 -4.634280875325202942e-02 1.581898182630538940e-01 -1.764430254697799683e-01 -2.201714664697647095e-01 -1.754403859376907349e-01 -9.764447808265686035e-02 1.768971830606460571e-01 -8.242560550570487976e-03 -9.298309683799743652e-02 -2.168125659227371216e-01 -1.537640094757080078e-01 2.306410819292068481e-01 1.747253835201263428e-01 6.338171660900115967e-03 2.343225330114364624e-01 -1.296477317810058594e-01 1.689605601131916046e-02 2.877143621444702148e-01 -8.640248328447341919e-02 1.133282780647277832e-01
1.767086535692214966e-01 4.369059577584266663e-02 8.125852793455123901e-02 -1.711225509643554688e-01 -1.151939630508422852e-01 4.741729423403739929e-02 -1.755271852016448975e-01 -6.621277332305908203e-02 2.453346848487854004e-01 3.406147286295890808e-02 2.388834357261657715e-01 -9.967954456806182861e-02 1.773478686809539795e-01 -9.862940758466720581e-03 -1.340746879577636719e-01 -1.877286732196807861e-01 3.249557688832283020e-02 -1.512510925531387329e-01 -1.075697690248489380e-01 -1.000428050756454468e-01 6.830655038356781006e-02 4.526276141405105591e-02 4.001375287771224976e-02 5.067727342247962952e-02 9.964469820261001587e-03 -8.262477815151214600e-02 -1.150012686848640442e-01 9.663466480560600758e-04 -6.621002219617366791e-03 2.188931256532669067e-01 -1.930167898535728455e-02 -2.657474279403686523e-01 1.173234581947326660e-01 -8.912223577499389648e-02 -2.323149591684341431e-01 1.220055222511291504e-01 -1.618380695581436157e-01 2.884608320891857147e-02 -7.487791776657104492e-02 -1.080883294343948364e-01 -1.161927357316017151e-01 -1.307070106267929077e-01 -5.998505651950836182e-02 -7.009084522724151611e-02 1.354765295982360840e-01 8.250159770250320435e-02 -1.747102737426757812e-01 -1.728619486093521118e-01 -1.249797269701957703e-01 1.025714501738548279e-01
2.239355146884918213e-01 2.061999738216400146e-01 1.600716821849346161e-02 -5.599882453680038452e-02 -2.070326358079910278e-01 -2.047723382711410522e-01 -1.069066822528839111e-01 9.766504168510437012e-02 7.865867763757705688e-02 6.303109973669052124e-02 -1.128911077976226807e-01 2.078043073415756226e-01 -6.188964098691940308e-02 -2.459521740674972534e-01 -3.907900303602218628e-02 1.254645586013793945e-01 2.231002300977706909e-01 2.434587925672531128e-01 1.853016465902328491e-01 2.772657200694084167e-03 8.262398093938827515e-02 -6.944362819194793701e-02 2.796004414558410645e-01 1.307301819324493408e-01 6.806358695030212402e-02 1.173529997467994690e-01 1.233634650707244873e-01 -1.830959022045135498e-01 -2.607024013996124268e-01 -1.845058202743530273e-01 7.658328115940093994e-02 9.976368164643645287e-04 2.902628853917121887e-02 -1.367774456739425659e-01 -5.770342424511909485e-02 -8.584834635257720947e-03 8.140548318624496460e-02 -1.678407788276672363e-01 2.391591966152191162e-01 1.927401870489120483e-01 5.930941924452781677e-02 -4.967375099658966064e-02 1.368735879659652710e-01 -3.360356017947196960e-02 -2.059582471847534180e-01 1.549113541841506958e-01 1.476326435804367065e-01 6.298891454935073853e-02 -1.080450937151908875e-01 -1.200501620769500732e-01
1.401466280221939087e-01 1.614778488874435425e-01 -5.797425284981727600e-02 -3.151701986789703369e-01 1.327786147594451904e-01 -2.866503223776817322e-02 1.193836852908134460e-01 -1.381246000528335571e-01 -4.701094329357147217e-02 7.489819079637527466e-02 -1.034672111272811890e-01 1.011490449309349060e-01 -2.544497549533843994e-01 -2.271923571825027466e-01 -7.784482091665267944e-02 2.646395564079284668e-01 -1.106936484575271606e-01 1.764345169067382812e-01 2.030355930328369141e-01 -8.807443082332611084e-02 -1.641798168420791626e-01 4.742668941617012024e-03 1.292507946491241455e-01 1.439374685287475586e-01 -1.166678890585899353e-01 1.508889049291610718e-01 -1.461042463779449463e-01 6.425618380308151245e-02 8.681265264749526978e-02 -1.333612203598022461e-01 1.778308749198913574e-01 -2.418720573186874390e-01 2.296798974275588989e-01 1.347256749868392944e-01 -2.183481752872467041e-01 5.548044294118881226e-02 -1.309563517570495605e-01 -1.641304790973663330e-01 -1.625885367393493652e-01 1.069010868668556213e-01 -1.466844417154788971e-02 1.466316077858209610e-02 1.439736336469650269e-01 2.808431386947631836e-01 -2.576001882553100586e-01 3.700434416532516479e-02 -7.191854715347290039e-02 1.575386971235275269e-01 -2.421460300683975220e-01 -2.097227573394775391e-01
-4.697336629033088684e-02 1.817865669727325439e-01 1.416307985782623291e-01 1.992729306221008301e-02 -2.789147496223449707e-01 -9.204890578985214233e-02 -1.604071110486984253e-01 1.938137561082839966e-01 -7.775994390249252319e-02 -1.456167399883270264e-01 -3.457146883010864258e-02 -3.279072418808937073e-02 -2.099455334246158600e-02 -6.053199619054794312e-02 2.266434580087661743e-01 -2.232067845761775970e-02 -3.859532251954078674e-02 1.028129011392593384e-01 1.091255620121955872e-01 1.514510661363601685e-01 1.464768499135971069e-01 -5.853521451354026794e-02 7.196372002363204956e-02 -6.038566306233406067e-02 -2.154541164636611938e-01 2.049158513545989990e-02 -2.386461794376373291e-01 -1.674413532018661499e-01 -6.747779995203018188e-02 -2.453723400831222534e-01 7.775906473398208618e-02 -2.466896921396255493e-01 1.882898360490798950e-01 -5.410669371485710144e-02 -4.478213191032409668e-02 2.730238735675811768e-01 -1.627316027879714966e-01 1.202699244022369385e-01 2.867656201124191284e-02 6.947018206119537354e-02 5.018874630331993103e-02 -1.460970938205718994e-01 7.603444904088973999e-02 1.411520540714263916e-01 -2.343129962682723999e-01 1.095637455582618713e-01 8.051208406686782837e-02 -7.271540164947509766e-02 -1.355855911970138550e-01 8.344185352325439453e-02
-3.773826956748962402e-01 1.274291872978210449e-01 9.885312989354133606e-03 -6.619807332754135132e-02 1.025745049118995667e-01 1.194498538970947266e-01 -2.762608230113983154e-01 1.067794766277074814e-02 2.227292060852050781e-01 -2.946361303329467773e-01 -4.751847684383392334e-02 1.004743278026580811e-01 2.678873538970947266e-01 -3.825858235359191895e-02 6.276735663414001465e-02 5.834689363837242126e-02 -1.882100552320480347e-01 -1.147205680608749390e-01 1.913701891899108887e-01 1.935638785362243652e-01 1.649374663829803467e-01 -9.736029803752899170e-02 -3.185297548770904541e-01 -2.460122853517532349e-01 -2.185163646936416626e-01 1.785987019538879395e-01 -6.204789876937866211e-02 5.753061547875404358e-02 -1.103556156158447266e-01 -1.886689662933349609e-01 2.482787966728210449e-01 -9.108030796051025391e-02 2.253868579864501953e-01 2.547320425510406494e-01 -1.268982887268066406e-01 -2.607257068157196045e-01 -8.511541783809661865e-02 -5.173438228666782379e-03 1.218525916337966919e-01 -1.740721762180328369e-01 1.608974039554595947e-01 4.704642668366432190e-02 1.261785328388214111e-01 2.415278367698192596e-02 -6.202925462275743484e-03 1.809667646884918213e-01 -1.462145596742630005e-01 1.088647842407226562e-01 3.240032121539115906e-02 -1.621622741222381592e-01
-4.768643379211425781e-01 1.722901910543441772e-01 1.842520534992218018e-01 3.199735879898071289e-01 -1.842074245214462280e-01 9.160399436950683594e-02 -2.415992468595504761e-01 -6.021297723054885864e-02 -1.698339134454727173e-01 -1.393212080001831055e-01 -4.121347963809967041e-01 -4.515694826841354370e-02 4.194315895438194275e-02 -1.782667189836502075e-01 -6.834813207387924194e-02 2.190557718276977539e-01 1.767335087060928345e-01 1.473607569932937622e-01 1.516897529363632202e-01 -5.690231919288635254e-02 5.472694709897041321e-02 7.715337723493576050e-02 4.780340567231178284e-02 2.230959199368953705e-02 1.517958641052246094e-01 2.100536674261093140e-01 -2.592090368270874023e-01 4.491533711552619934e-02 -2.006669193506240845e-01 -1.003471538424491882e-01 -1.362242400646209717e-01 9.991076588630676270e-02 1.127135530114173889e-01 -4.346570465713739395e-03 1.726659946143627167e-02 -2.850299775600433350e-01 2.584973275661468506e-01 -1.812651753425598145e-01 3.506623208522796631e-02 2.321996986865997314e-01 -2.246023565530776978e-01 1.604482531547546387e-01 -1.170332580804824829e-01 -2.805120050907135010e-01 4.347236454486846924e-02 2.182294577360153198e-01 1.511986106634140015e-01 -1.742701083421707153e-01 -1.174382399767637253e-03 -2.851936966180801392e-02
-7.559347152709960938e-02 5.509334430098533630e-02 -1.813964247703552246e-01 -4.603714495897293091e-02 -2.734010107815265656e-02 -1.748152226209640503e-01 1.358176022768020630e-01 -4.095327481627464294e-02 8.457667380571365356e-02 9.368571639060974121e-02 1.217930912971496582e-01 3.003843426704406738e-01 3.451330959796905518e-02 2.164957486093044281e-02 2.251844257116317749e-01 2.666637599468231201e-01 1.458928138017654419e-01 2.637190520763397217e-01 -1.267800480127334595e-01 6.347316503524780273e-02 1.116529330611228943e-01 -2.104252725839614868e-01 1.192085221409797668e-01 -1.680704206228256226e-02 6.074243038892745972e-02 3.025567829608917236e-01 6.784003973007202148e-02 -1.920946985483169556e-01 -2.862759120762348175e-02 -1.584670543670654297e-01 2.899413406848907471e-01 -5.305375531315803528e-02 -2.148540318012237549e-02 1.045655906200408936e-01 1.790092326700687408e-02 -1.090103462338447571e-01 -3.264772295951843262e-01 -2.165025472640991211e-01 8.287382870912551880e-02 -8.779765665531158447e-02 -8.588217943906784058e-02 -2.582939863204956055e-01 -1.453453153371810913e-01 1.839217394590377808e-01 -2.292916923761367798e-01 3.556014299392700195e-01 1.985175609588623047e-01 -8.849876374006271362e-02 -3.570391237735748291e-02 1.257300823926925659e-01
-3.092431426048278809e-01 7.503348588943481445e-02 8.665149658918380737e-02 2.220788598060607910e-01 -2.293833717703819275e-02 2.685506828129291534e-02 -1.793823689222335815e-01 -1.320458948612213135e-01 -1.470684856176376343e-01 -1.805437803268432617e-01 -2.068138718605041504e-01 1.757537722587585449e-01 1.016928106546401978e-01 2.497432976961135864e-01 -2.308674007654190063e-01 -1.556471139192581177e-01 1.071030199527740479e-01 1.345356702804565430e-01 -4.342116415500640869e-03 -2.101284563541412354e-01 -2.582039833068847656e-01 1.851275265216827393e-01 3.659920394420623779e-02 5.162024125456809998e-02 2.032223343849182129e-02 -2.351493090391159058e-01 -2.041570097208023071e-01 -6.762859970331192017e-02 -9.751498699188232422e-02 -1.732561141252517700e-01 -2.096604704856872559e-01 1.298757940530776978e-01 6.043330579996109009e-02 -9.881034493446350098e-02 2.198281586170196533e-01 -2.418756484985351562e-01 2.791121900081634521e-01 1.820184141397476196e-01 -6.893001496791839600e-02 -1.024758592247962952e-01 1.562627106904983521e-01 1.128536835312843323e-01 -4.013606905937194824e-02 -2.355377674102783203e-01 1.731786690652370453e-02 -3.048206567764282227e-01 -2.737491428852081299e-01 2.787922024726867676e-01 2.227096557617187500e-01 3.177653998136520386e-02
-2.220025360584259033e-01 1.606995016336441040e-01 2.835295498371124268e-01 2.139567136764526367e-01 1.486204713582992554e-01 -3.600925579667091370e-02 -2.998088598251342773e-01 -4.564931243658065796e-02 -1.551681570708751678e-02 -3.235189989209175110e-02 -5.132260918617248535e-02 -1.215095221996307373e-01 2.402685731649398804e-01 5.829215049743652344e-02 9.857714921236038208e-02 -1.710436679422855377e-02 -2.705693542957305908e-01 -3.047901988029479980e-01 -2.049132585525512695e-01 -1.404462158679962158e-01 -4.822657629847526550e-02 -8.688181638717651367e-02 -2.654138505458831787e-01 -1.680745482444763184e-01 -1.615813821554183960e-01 -1.705468446016311646e-01 1.280813068151473999e-01 -1.220154911279678345e-01 1.789873838424682617e-02 2.467197328805923462e-01 -2.868979573249816895e-01 -8.399452269077301025e-02 -1.668514609336853027e-01 1.534746438264846802e-01 4.223106056451797485e-02 1.427960544824600220e-01 9.784977883100509644e-02 1.874300986528396606e-01 -2.812022566795349121e-01 1.044356152415275574e-01 -9.226323664188385010e-02 2.976622283458709717e-01 -1.703507900238037109e-01 -2.129469364881515503e-01 -1.057266145944595337e-01 -2.998467385768890381e-01 -3.093437254428863525e-01 -1.751713752746582031e-01 3.807065775617957115e-03 -1.041286736726760864e-01
2.416289299726486206e-01 -3.944900631904602051e-02 1.764782071113586426e-01 -2.935364842414855957e-01 -1.733736246824264526e-01 1.954473406076431274e-01 2.379742860794067383e-01 -2.530943974852561951e-02 1.334347277879714966e-01 2.235287576913833618e-01 -3.272011876106262207e-02 -2.107329368591308594e-01 1.486698351800441742e-02 -1.953649073839187622e-01 1.251705829054117203e-02 -1.690396517515182495e-01 2.083113193511962891e-01 -9.459125250577926636e-02 -8.315489441156387329e-02 -1.478644758462905884e-01 1.314069181680679321e-01 5.572980642318725586e-02 4.762838035821914673e-02 -1.466464996337890625e-02 -1.521133929491043091e-01 -4.315688088536262512e-02 2.213005721569061279e-02 6.821296364068984985e-02 -2.690909206867218018e-01 -1.709509640932083130e-01 1.708109974861145020e-01 -2.143370807170867920e-01 4.615741316229104996e-03 5.673999711871147156e-02 1.698719561100006104e-01 -3.728334605693817139e-02 -1.504894495010375977e-01 -1.622488498687744141e-01 1.928565949201583862e-01 8.166879415512084961e-03 2.711117565631866455e-01 -2.272578142583370209e-02 -2.618638575077056885e-01 2.582557797431945801e-01 -2.533985078334808350e-01 -3.058531135320663452e-02 1.217570900917053223e-01 -9.640093892812728882e-02 -5.708611384034156799e-02 -4.559184610843658447e-02
-8.995425887405872345e-03 9.678030014038085938e-02 2.525517642498016357e-01 4.734653607010841370e-02 -1.142005175352096558e-01 1.667440533638000488e-01 1.607090830802917480e-01 3.104451596736907959e-01 1.243162825703620911e-01 1.876323223114013672e-01 5.458830296993255615e-02 -1.194732636213302612e-01 -9.569875895977020264e-02 1.736609786748886108e-01 -8.831017650663852692e-03 -6.385826319456100464e-02 6.757094711065292358e-02 -9.265145659446716309e-02 -2.400837689638137817e-01 -2.052331417798995972e-01 -3.756974935531616211e-01 8.088874071836471558e-02 -6.589914113283157349e-02 2.690821588039398193e-01 -1.430277973413467407e-01 -3.650597482919692993e-02 -1.375364661216735840e-01 1.677047014236450195e-01 3.012914359569549561e-01 1.037731990218162537e-01 -1.910476386547088623e-02 1.038655787706375122e-01 -7.228146493434906006e-02 -1.529817283153533936e-01 3.266864418983459473e-01 -8.679445832967758179e-02 1.339141279458999634e-01 -1.125036925077438354e-01 -2.098136991262435913e-01 -2.698934078216552734e-01 -2.882922627031803131e-02 1.447620987892150879e-01 1.693658679723739624e-01 4.000392928719520569e-02 3.504283726215362549e-02 -1.588050276041030884e-01 -2.382283657789230347e-02 2.981604337692260742e-01 -9.732078015804290771e-02 1.675828546285629272e-02
-2.000167369842529297e-01 -1.050464250147342682e-02 -2.370494604110717773e-01 -2.445818483829498291e-01 4.940157756209373474e-02 -2.211815118789672852e-01 -1.574741899967193604e-01 -1.439050585031509399e-01 1.231259927153587341e-01 3.177248314023017883e-02 1.347322463989257812e-01 -6.227012723684310913e-02 -1.248050667345523834e-02 -2.383607327938079834e-01 1.710367649793624878e-01 -1.549675911664962769e-01 9.052960574626922607e-02 4.687543213367462158e-02 -4.332048818469047546e-02 1.057205572724342346e-01 -1.467313468456268311e-01 -6.151143461465835571e-02 3.044233024120330811e-01 -7.886271178722381592e-02 2.267317147925496101e-03 8.058571070432662964e-02 1.250203996896743774e-01 -9.353755414485931396e-02 -1.369553357362747192e-01 1.736720651388168335e-02 -6.894602626562118530e-02 8.331542834639549255e-03 8.872902393341064453e-02 3.978764638304710388e-02 -7.149840146303176880e-02 6.956747174263000488e-02 2.992026135325431824e-02 -2.472843825817108154e-01 -1.498806569725275040e-02 -1.507003754377365112e-01 -1.168391853570938110e-01 6.698487699031829834e-02 1.303687244653701782e-01 1.093207970261573792e-01 4.746975749731063843e-02 -1.877780854701995850e-01 2.302031368017196655e-01 1.695777028799057007e-01 -2.361550331115722656e-01 -2.164658159017562866e-01
