6.873690336942672729e-02 1.984764337539672852e-01 4.496577009558677673e-02 -8.759354054927825928e-02 -1.332974433898925781e-02 -1.314499080181121826e-01 2.168865799903869629e-01 -1.883008778095245361e-01 1.054273471236228943e-01 -7.975236326456069946e-02 3.373990580439567566e-02 1.365111172199249268e-01 9.431816637516021729e-02 -8.542015403509140015e-02 -1.402856111526489258e-01 -3.845298290252685547e-02 4.363116621971130371e-02 -1.631706207990646362e-01 2.768297791481018066e-01 1.530016660690307617e-01 9.939456731081008911e-02 -8.094469457864761353e-02 -7.190060615539550781e-02 9.516139328479766846e-02 1.045763045549392700e-01 -1.894018054008483887e-01 -1.448320746421813965e-01 2.124279439449310303e-01 -7.956535369157791138e-02 -1.324197798967361450e-01 1.193368658423423767e-01 1.754518896341323853e-01 -7.226412743330001831e-02 1.813793480396270752e-01 -4.499473795294761658e-02 -1.966945379972457886e-01 4.216088354587554932e-02 1.471991278231143951e-02 6.572866346687078476e-03 -1.817594282329082489e-02 3.693129867315292358e-02 1.262608170509338379e-01 1.988185346126556396e-01 -2.389137595891952515e-01 -1.621236652135848999e-01 2.030208706855773926e-01 -1.016278713941574097e-01 2.147832512855529785e-01 -1.866663396358489990e-01 1.815085709095001221e-01
-1.821547448635101318e-01 2.885867059230804443e-01 7.018216699361801147e-02 -1.247338503599166870e-01 1.203666999936103821e-01 9.213382750749588013e-02 1.536271572113037109e-01 7.734115421772003174e-02 -4.242128878831863403e-02 -2.862992137670516968e-02 -1.218972802162170410e-01 1.238592565059661865e-01 4.053839668631553650e-02 1.308057364076375961e-02 1.285294741392135620e-01 8.839403837919235229e-02 9.335062652826309204e-02 1.402411758899688721e-01 7.908072471618652344e-01 7.796955108642578125e-02 7.645219564437866211e-03 2.704199850559234619e-01 -1.260245889425277710e-01 -1.479507237672805786e-01 -6.656529009342193604e-02 -7.545544207096099854e-02 -4.189492762088775635e-02 4.635671377182006836e-01 8.824814110994338989e-02 -1.097635030746459961e-01 -6.939521431922912598e-02 1.093204319477081299e-01 1.343142241239547729e-01 -1.087418571114540100e-01 1.108583882451057434e-01 -5.421949550509452820e-02 -2.373306155204772949e-01 2.412037998437881470e-01 -3.777580559253692627e-01 2.265317924320697784e-02 1.747887730598449707e-01 1.166527271270751953e-01 2.347253412008285522e-01 -5.519594252109527588e-02 -2.145002037286758423e-02 5.551788955926895142e-02 2.144074440002441406e-01 -2.382685393095016479e-01 -3.490870818495750427e-02 -3.367476165294647217e-03
3.980753570795059204e-02 7.346791028976440430e-02 2.259289771318435669e-01 5.186322331428527832e-02 -1.023095101118087769e-02 6.856239587068557739e-02 6.953480839729309082e-02 1.379101425409317017e-01 -3.407227098941802979e-01 -8.032599091529846191e-02 -8.898117579519748688e-03 1.258613020181655884e-01 1.695076189935207367e-02 -1.123178601264953613e-01 4.255305230617523193e-02 -9.630024433135986328e-02 8.078846335411071777e-02 8.036552369594573975e-02 -8.617430925369262695e-02 -6.745714694261550903e-03 3.698566928505897522e-02 2.075142860412597656e-01 -1.043283473700284958e-02 3.954288363456726074e-02 4.358422383666038513e-02 -1.032400596886873245e-02 -8.150414377450942993e-02 -1.465653441846370697e-02 6.185368075966835022e-02 6.494264304637908936e-02 2.296949736773967743e-02 4.306809976696968079e-02 6.886090338230133057e-02 2.088598720729351044e-02 1.303532868623733521e-01 7.367502152919769287e-02 -1.729657649993896484e-01 4.321691393852233887e-02 -3.754151463508605957e-01 -3.492873162031173706e-02 3.362494334578514099e-02 -9.435130655765533447e-02 2.676205635070800781e-01 -4.151073694229125977e-01 1.075126416981220245e-02 3.843702375888824463e-03 8.553888648748397827e-02 1.746891252696514130e-02 -1.556765288114547729e-02 3.486721962690353394e-02
-3.219193816184997559e-01 1.398055106401443481e-01 2.441387474536895752e-01 -1.142545882612466812e-02 -2.913852930068969727e-01 -1.338383555412292480e-01 9.547319263219833374e-02 4.184065014123916626e-02 -2.214185446500778198e-01 1.508884876966476440e-01 1.896948218345642090e-01 -3.719486296176910400e-01 2.441289424896240234e-01 8.791130781173706055e-02 -4.617362022399902344e-01 3.294290304183959961e-01 -7.765805721282958984e-02 -1.731900312006473541e-02 -5.147809907793998718e-02 -1.615942716598510742e-01 -3.436541259288787842e-01 -3.191015422344207764e-01 -3.416919708251953125e-01 1.531117707490921021e-01 -2.521023154258728027e-01 -2.122817039489746094e-01 1.034644395112991333e-01 2.545753959566354752e-03 -3.810140490531921387e-02 2.093182951211929321e-01 -2.551566660404205322e-01 3.609746396541595459e-01 -1.928067207336425781e-01 1.695179194211959839e-01 8.728443831205368042e-02 2.907230556011199951e-01 -2.802592469379305840e-03 1.676664203405380249e-01 -4.946148991584777832e-01 9.439176321029663086e-02 -2.114649415016174316e-01 -9.025621414184570312e-02 5.536298155784606934e-01 3.258540928363800049e-01 1.954736560583114624e-01 -3.328633308410644531e-01 -2.435242682695388794e-01 -2.756182253360748291e-01 -3.200544118881225586e-01 -1.543295979499816895e-01
-1.989035122096538544e-02 2.713425084948539734e-02 3.072598576545715332e-01 -1.321874260902404785e-01 -3.972032573074102402e-03 8.268746733665466309e-02 -3.307370543479919434e-01 -5.041296407580375671e-02 -8.560511469841003418e-02 3.246745467185974121e-01 -7.293756306171417236e-02 3.129014670848846436e-01 5.354131106287240982e-03 -2.154819965362548828e-01 4.514256492257118225e-02 -4.915384054183959961e-01 -1.229190900921821594e-01 1.936128288507461548e-01 -5.160861834883689880e-02 -2.846162319183349609e-01 -3.009066283702850342e-01 -1.590608209371566772e-01 2.699408233165740967e-01 -1.001988127827644348e-01 -2.626537680625915527e-01 2.847669422626495361e-01 3.624439612030982971e-02 -4.195699840784072876e-02 -4.658937081694602966e-02 3.613018095493316650e-01 3.447748124599456787e-01 -3.037033081054687500e-01 1.363281756639480591e-01 -1.018609926104545593e-01 6.846322119235992432e-02 1.215979978442192078e-01 5.676588416099548340e-02 1.860958039760589600e-01 -2.507216632366180420e-01 1.473159790039062500e-01 -2.301531583070755005e-01 -1.026541367173194885e-01 -2.409380972385406494e-01 -1.567366570234298706e-01 -2.084864079952239990e-01 4.491404816508293152e-02 2.774420380592346191e-01 -3.106476366519927979e-01 2.778518386185169220e-02 -2.891308963298797607e-01
-2.008490115404129028e-01 1.403575986623764038e-01 7.159822434186935425e-02 5.697754025459289551e-02 2.796124294400215149e-02 -1.164794713258743286e-01 3.014659583568572998e-01 1.757806837558746338e-01 3.378370106220245361e-01 2.272254973649978638e-01 2.829535007476806641e-01 -6.024331226944923401e-02 1.392861604690551758e-01 -2.701754868030548096e-01 -1.627246588468551636e-01 -1.161225214600563049e-01 -3.401379659771919250e-02 -1.560332477092742920e-01 -4.584743082523345947e-02 -8.752582967281341553e-02 -1.722993105649948120e-01 1.692432314157485962e-01 5.835481360554695129e-02 -7.548379898071289062e-02 -2.730680406093597412e-01 -1.376247555017471313e-01 -2.565236091613769531e-01 -1.006170287728309631e-01 9.240869432687759399e-02 1.846495270729064941e-01 1.735269650816917419e-02 -3.137281537055969238e-01 3.525031805038452148e-01 1.712662051431834698e-03 -1.268613040447235107e-01 -6.626585125923156738e-02 3.683715313673019409e-02 1.616811156272888184e-01 -2.451907545328140259e-01 -1.274109482765197754e-01 6.277947872877120972e-02 1.777572184801101685e-01 5.738892033696174622e-02 -2.808496654033660889e-01 -3.631177246570587158e-01 -2.952192127704620361e-01 -4.862186033278703690e-03 2.596730589866638184e-01 -3.715310618281364441e-02 -3.983090072870254517e-02
-1.930600553750991821e-01 4.542627558112144470e-02 -3.429325763136148453e-03 -1.777873486280441284e-01 -7.759947329759597778e-02 -1.215240806341171265e-01 7.743722200393676758e-02 2.514939904212951660e-01 -2.827004529535770416e-02 -2.698548324406147003e-02 -8.507388830184936523e-02 8.810316026210784912e-02 6.044672429561614990e-02 2.489356547594070435e-01 1.037783101201057434e-01 -4.754931330680847168e-01 7.203467935323715210e-02 3.497247099876403809e-01 2.882221043109893799e-01 -1.378079652786254883e-01 3.755925968289375305e-02 -2.779887318611145020e-01 -4.827095195651054382e-02 3.528094887733459473e-01 -3.489283472299575806e-02 2.369062602519989014e-01 -5.347076430916786194e-02 3.145933896303176880e-02 2.981491684913635254e-01 2.657100856304168701e-01 1.985796093940734863e-01 -2.714525759220123291e-01 1.180650200694799423e-03 3.265113234519958496e-01 3.342498838901519775e-02 -3.049716949462890625e-01 -2.233771421015262604e-02 -1.965155638754367828e-02 1.959014385938644409e-01 1.138448044657707214e-01 -3.010869920253753662e-01 1.683846414089202881e-01 1.103557199239730835e-01 -8.791047334671020508e-02 -3.995724320411682129e-01 2.601945400238037109e-01 3.216212689876556396e-01 6.235684081912040710e-02 5.869868025183677673e-02 -3.342556357383728027e-01
3.072247505187988281e-01 2.015240490436553955e-01 2.974490225315093994e-01 1.878361403942108154e-01 -5.013358220458030701e-02 1.080773994326591492e-01 3.523600101470947266e-02 -2.672052569687366486e-02 -2.064971327781677246e-01 2.066077739000320435e-01 1.593677997589111328e-01 1.226126700639724731e-01 3.664486110210418701e-02 3.532138839364051819e-02 1.071352437138557434e-01 1.076836809515953064e-01 -1.906490772962570190e-01 -3.348976373672485352e-02 2.515065968036651611e-01 -1.108466833829879761e-01 -1.516237258911132812e-01 2.178308665752410889e-01 8.862163522280752659e-04 1.194826066493988037e-01 1.502943634986877441e-01 2.685525119304656982e-01 1.228237375617027283e-01 -9.739818423986434937e-02 2.092522680759429932e-01 1.657095253467559814e-01 1.551402509212493896e-01 2.116241306066513062e-01 2.413153834640979767e-02 2.127150595188140869e-01 -1.712509542703628540e-01 7.549934834241867065e-02 1.961961090564727783e-01 -2.220600098371505737e-01 4.515931382775306702e-02 -2.596076130867004395e-01 1.045065298676490784e-01 -1.521028131246566772e-01 3.123369514942169189e-01 1.238428503274917603e-01 1.791400611400604248e-01 -1.938381493091583252e-01 -1.091716960072517395e-01 -2.036710530519485474e-01 1.319426745176315308e-01 1.703899204730987549e-01
6.135231629014015198e-02 4.739870876073837280e-02 7.118058204650878906e-01 8.316310495138168335e-02 -3.384895026683807373e-01 -3.165280520915985107e-01 -5.797694995999336243e-02 -1.974273920059204102e-01 3.396303625777363777e-03 2.081056237220764160e-01 2.456405907869338989e-01 -2.552081644535064697e-01 2.450176328420639038e-01 1.158845275640487671e-01 -1.032604277133941650e-01 3.946806788444519043e-01 -9.451536089181900024e-02 -2.676166296005249023e-01 -2.317271381616592407e-01 2.207354083657264709e-02 -1.802752465009689331e-01 -9.938609600067138672e-02 9.926682710647583008e-02 2.122993469238281250e-01 -8.072724193334579468e-02 1.085307672619819641e-01 2.409863919019699097e-01 1.171233057975769043e-01 -5.321141332387924194e-02 -1.497694253921508789e-01 -3.588503003120422363e-01 2.018189430236816406e-01 1.265525668859481812e-01 9.302613139152526855e-02 1.965648867189884186e-02 3.477707803249359131e-01 -9.613867849111557007e-03 -2.178496122360229492e-01 -6.666444540023803711e-01 1.351785063743591309e-01 -8.022113889455795288e-02 4.162590503692626953e-01 9.667960405349731445e-01 2.801862657070159912e-01 -2.643059194087982178e-01 -2.659720182418823242e-01 1.387220323085784912e-01 -1.326584368944168091e-01 -1.367417722940444946e-01 -4.622374773025512695e-01
-3.218213319778442383e-01 4.271833971142768860e-02 -1.880664378404617310e-01 3.636249303817749023e-01 1.577510982751846313e-01 1.940723392181098461e-03 1.370330154895782471e-01 3.235782310366630554e-02 -3.276689946651458740e-01 -7.847196608781814575e-02 1.956839412450790405e-01 -2.939098775386810303e-01 -5.155812203884124756e-02 1.294505298137664795e-01 -2.767209708690643311e-01 -5.194955691695213318e-02 -3.824039697647094727e-01 2.088569849729537964e-01 -2.000151127576828003e-01 -1.344701349735260010e-01 3.866144642233848572e-02 6.353884190320968628e-02 1.604321748018264771e-01 8.335223793983459473e-02 -1.082798540592193604e-01 2.821079920977354050e-03 -5.826551094651222229e-02 -8.336308598518371582e-02 1.696987003087997437e-01 -2.296087592840194702e-01 -1.976225078105926514e-01 2.139200568199157715e-01 5.790044367313385010e-02 -2.367727756500244141e-01 -2.978562191128730774e-02 -1.338656991720199585e-01 -4.900982975959777832e-02 -3.609783202409744263e-02 -3.233876228332519531e-01 3.375670909881591797e-01 -7.793935388326644897e-02 -1.644971966743469238e-01 -1.672063767910003662e-01 3.653724491596221924e-02 -2.385095506906509399e-01 5.408535152673721313e-02 -2.872191071510314941e-01 -1.228254958987236023e-01 -8.556034415960311890e-02 -4.018186330795288086e-01
-2.821592092514038086e-01 -1.840824931859970093e-01 5.965200066566467285e-01 2.909700870513916016e-01 -1.613421887159347534e-01 -2.911620028316974640e-02 2.081730216741561890e-01 -2.043520212173461914e-01 5.354911834001541138e-02 2.129311859607696533e-01 5.776625871658325195e-02 -5.178009271621704102e-01 1.353760659694671631e-01 -2.996695935726165771e-01 -8.977915346622467041e-02 7.814726233482360840e-02 -3.206068277359008789e-01 1.383937895298004150e-01 8.527534455060958862e-02 -1.075943037867546082e-01 -1.637252867221832275e-01 3.111374750733375549e-02 -3.350450396537780762e-01 1.010294109582901001e-01 5.436244979500770569e-02 -2.525731027126312256e-01 -2.790370881557464600e-01 7.695125788450241089e-02 -3.451654016971588135e-01 -6.013988703489303589e-02 -1.962476223707199097e-01 3.505749702453613281e-01 1.311290860176086426e-01 1.216249838471412659e-01 -4.136785864830017090e-02 3.199366331100463867e-01 2.606322467327117920e-01 -5.700356140732765198e-02 -7.435746788978576660e-01 7.285249233245849609e-02 1.393267512321472168e-01 3.540393114089965820e-01 5.290803313255310059e-01 3.261038959026336670e-01 -2.507348358631134033e-02 1.033545583486557007e-01 -1.239883452653884888e-01 1.969667822122573853e-01 1.863179355859756470e-02 -1.191770285367965698e-01
-3.780656456947326660e-01 6.911117816343903542e-04 4.513387084007263184e-01 -3.139198720455169678e-01 -3.891221284866333008e-01 1.080507487058639526e-01 -1.741538792848587036e-01 -6.474864482879638672e-02 3.471107184886932373e-01 6.544643640518188477e-02 1.045705005526542664e-01 2.876675724983215332e-01 -2.520087920129299164e-02 2.897001504898071289e-01 2.308980971574783325e-01 -3.214886486530303955e-01 5.058336630463600159e-02 1.526728868484497070e-01 -3.392584621906280518e-01 -1.174697428941726685e-01 -6.782987713813781738e-02 -1.754797697067260742e-01 -7.987558841705322266e-02 -2.389632910490036011e-02 -1.296453326940536499e-01 -2.773103490471839905e-02 -2.244655191898345947e-01 1.448903530836105347e-01 3.702543377876281738e-01 7.835168391466140747e-02 2.391076683998107910e-01 -1.169871464371681213e-01 8.837034553289413452e-02 1.069353073835372925e-01 3.188824355602264404e-01 3.639170527458190918e-02 1.733119934797286987e-01 -2.673270925879478455e-02 2.814658582210540771e-01 -5.303501710295677185e-02 -3.983124792575836182e-01 -5.128457024693489075e-02 -8.519148826599121094e-02 -2.343994081020355225e-01 -2.382368296384811401e-01 7.389418035745620728e-02 1.703391596674919128e-02 -1.571849882602691650e-01 1.638078503310680389e-02 -3.883094787597656250e-01
-6.610450893640518188e-02 3.588088601827621460e-02 -7.542297989130020142e-02 7.240940630435943604e-02 1.845753639936447144e-01 -2.590687572956085205e-01 3.915023058652877808e-02 -5.400255694985389709e-02 1.335415393114089966e-01 3.073428869247436523e-01 1.017354801297187805e-01 1.045930162072181702e-01 2.248906642198562622e-01 -3.703729510307312012e-01 -9.686685167253017426e-03 -2.961015701293945312e-01 -3.098642528057098389e-01 1.415792293846607208e-02 4.046282768249511719e-01 -1.919854879379272461e-01 -3.049255013465881348e-01 -1.650681495666503906e-01 -1.830620914697647095e-01 -7.993520796298980713e-02 1.322712600231170654e-01 2.386523038148880005e-02 -1.988556087017059326e-01 2.195615321397781372e-01 5.697612464427947998e-02 -7.363387942314147949e-02 2.866852581501007080e-01 -3.011354506015777588e-01 -5.525913462042808533e-02 8.658072352409362793e-02 -1.286770254373550415e-01 -3.489242866635322571e-02 2.951880097389221191e-01 8.107805997133255005e-02 -2.311082035303115845e-01 1.399620026350021362e-01 1.351502090692520142e-01 1.232770979404449463e-01 -1.930340379476547241e-01 -3.612621426582336426e-01 -3.415270149707794189e-01 -3.018875718116760254e-01 1.648840457201004028e-01 2.443551123142242432e-01 -1.370131224393844604e-01 -1.349422484636306763e-01
7.928047329187393188e-02 2.794530056416988373e-02 2.628870308399200439e-01 1.579793244600296021e-01 -3.511162102222442627e-01 -1.028746515512466431e-01 -1.847013980150222778e-01 2.225441336631774902e-01 -3.902425244450569153e-02 2.923666834831237793e-01 -3.432824611663818359e-01 -1.416517943143844604e-01 4.273038804531097412e-01 5.247691273689270020e-02 1.889297813177108765e-01 -3.486851155757904053e-01 7.376050204038619995e-02 2.982378751039505005e-02 1.072718575596809387e-01 -1.980930715799331665e-01 -2.986975312232971191e-01 -3.540650606155395508e-01 3.323101699352264404e-01 1.458794474601745605e-01 -4.956520348787307739e-02 3.084833323955535889e-01 -7.523632794618606567e-02 9.254909120500087738e-03 1.017091646790504456e-01 -6.980814039707183838e-02 2.535146772861480713e-01 9.483225643634796143e-02 -9.475457668304443359e-02 1.325999349355697632e-01 2.275697886943817139e-01 3.524213656783103943e-02 2.226198464632034302e-02 -5.863207578659057617e-02 -4.364026710391044617e-02 -2.522104419767856598e-02 -2.883405387401580811e-01 5.329300835728645325e-02 -2.629031836986541748e-01 -3.251337260007858276e-02 -3.620290458202362061e-01 5.598989129066467285e-02 -3.181036189198493958e-02 -9.347695857286453247e-02 1.543921083211898804e-01 9.095669724047183990e-03
8.176586776971817017e-02 1.249384600669145584e-02 9.944479912519454956e-02 3.736066222190856934e-01 9.666294604539871216e-02 4.247638210654258728e-02 1.125105749815702438e-02 8.392731100320816040e-02 -4.547623917460441589e-02 -5.605573207139968872e-02 1.546187251806259155e-01 -7.553898543119430542e-02 -9.123203903436660767e-02 -3.308159410953521729e-01 -7.872062921524047852e-02 -2.186695933341979980e-01 -1.685630902647972107e-02 6.008248776197433472e-02 1.785299926996231079e-01 1.609335392713546753e-01 -6.489699333906173706e-02 1.733628958463668823e-01 -1.766332089900970459e-01 1.726104021072387695e-01 -2.280608266592025757e-01 -1.567287370562553406e-02 9.257207810878753662e-02 -1.088721752166748047e-01 -8.175304532051086426e-02 1.791671067476272583e-01 -1.857828050851821899e-01 7.098849117755889893e-02 1.621973365545272827e-01 1.058068871498107910e-01 -2.738606631755828857e-01 -6.491073290817439556e-04 2.810851037502288818e-01 -1.212883442640304565e-01 1.400322616100311279e-01 5.272736400365829468e-02 1.647866144776344299e-02 6.490533053874969482e-02 -1.034852042794227600e-01 -1.396535336971282959e-01 1.660524010658264160e-01 1.381941586732864380e-01 -5.043441057205200195e-02 -1.104362383484840393e-01 -9.543362539261579514e-04 -6.333912163972854614e-02
-2.432998716831207275e-01 -3.371503204107284546e-02 -5.080965533852577209e-02 3.537481650710105896e-02 2.138410657644271851e-01 -3.077427148818969727e-01 3.802970424294471741e-02 1.224703416228294373e-01 7.815600186586380005e-02 8.503860235214233398e-02 2.430299222469329834e-01 1.084805503487586975e-01 3.373323976993560791e-01 1.349160671234130859e-01 -9.415350109338760376e-02 -2.731966078281402588e-01 -8.043847233057022095e-02 -1.243214979767799377e-01 1.985180526971817017e-01 -1.339276283979415894e-01 -5.886036157608032227e-01 1.076948419213294983e-01 4.765801504254341125e-02 1.594186127185821533e-01 -1.201444119215011597e-01 -3.565235435962677002e-02 1.420512516051530838e-02 2.411335110664367676e-01 6.051961332559585571e-02 -9.484072774648666382e-02 -6.529068201780319214e-02 9.967977553606033325e-02 -3.924876824021339417e-02 -1.799324527382850647e-02 -4.788354933261871338e-01 8.683336526155471802e-02 2.013747841119766235e-01 2.001565247774124146e-01 1.180637534707784653e-02 2.006147205829620361e-01 1.639413982629776001e-01 1.508405357599258423e-01 -9.632916003465652466e-02 -2.899632453918457031e-01 -4.125007987022399902e-01 -2.120911628007888794e-01 2.379437536001205444e-01 1.173795089125633240e-01 2.344599962234497070e-01 1.490811109542846680e-01
1.425091326236724854e-01 1.305146217346191406e-01 1.694259792566299438e-01 -1.739426632411777973e-03 -1.022262647747993469e-01 -1.695590317249298096e-01 -2.772617340087890625e-01 2.907291352748870850e-01 2.376599162817001343e-01 3.904720544815063477e-01 -2.765115797519683838e-01 7.324922084808349609e-02 1.641891896724700928e-01 -2.043859511613845825e-01 2.730385065078735352e-01 -4.649312496185302734e-01 -9.246964007616043091e-03 -4.451789334416389465e-02 1.782560348510742188e-02 -9.133666008710861206e-02 5.724839866161346436e-02 -2.011779546737670898e-01 4.774582758545875549e-02 1.812380254268646240e-01 -2.368806861340999603e-02 2.030747830867767334e-01 -2.995328903198242188e-01 -3.139558015391230583e-03 5.622967332601547241e-02 -7.434555888175964355e-02 3.082513809204101562e-01 -8.147960901260375977e-02 -3.800947591662406921e-02 2.100700736045837402e-01 -3.626608522608876228e-03 -1.027441620826721191e-01 1.923284232616424561e-01 1.369335800409317017e-01 7.802046090364456177e-02 -9.286756068468093872e-02 -2.055612951517105103e-01 -1.041616424918174744e-01 2.184092849493026733e-01 -3.470586538314819336e-01 -1.045108437538146973e-01 -5.214354768395423889e-02 3.464001119136810303e-01 -2.042123228311538696e-01 3.768028318881988525e-01 -2.036317586898803711e-01
2.134450972080230713e-01 -8.795240521430969238e-02 3.946352303028106689e-01 6.479066330939531326e-03 -3.362787887454032898e-02 -4.726787284016609192e-02 2.064565867185592651e-01 -4.979691281914710999e-02 -1.329912245273590088e-01 -2.147183865308761597e-01 1.532945930957794189e-01 2.699025273323059082e-01 1.892818808555603027e-01 -6.161369755864143372e-02 8.644015341997146606e-02 1.112936586141586304e-01 2.286595851182937622e-01 -6.467869132757186890e-02 2.170690596103668213e-01 1.601874679327011108e-01 2.755506932735443115e-01 -2.078686505556106567e-01 1.080911308526992798e-01 -5.215018521994352341e-03 1.058974266052246094e-01 1.953660100698471069e-01 -2.941895090043544769e-02 -5.194324851036071777e-01 -3.292997479438781738e-01 1.691076159477233887e-01 7.458022236824035645e-02 -1.097437888383865356e-01 -1.899432986974716187e-01 -2.042275220155715942e-01 6.383827328681945801e-02 2.860461473464965820e-01 3.568983078002929688e-01 1.663616113364696503e-02 6.189664602279663086e-01 -2.419222332537174225e-02 -9.894187003374099731e-02 3.651014715433120728e-02 2.273403555154800415e-01 4.964503645896911621e-01 -1.839396543800830841e-02 7.021931558847427368e-02 1.000066176056861877e-01 -1.701843440532684326e-01 1.885439902544021606e-01 1.352800875902175903e-01
9.094116836786270142e-02 4.942276701331138611e-02 1.550923883914947510e-01 -4.259776696562767029e-02 1.830965727567672729e-01 -8.468249440193176270e-02 7.283481955528259277e-02 1.281129121780395508e-01 -2.164017856121063232e-01 -1.642498970031738281e-01 -2.267911285161972046e-01 8.804207295179367065e-02 5.775175988674163818e-02 -8.491805940866470337e-02 -4.994634538888931274e-02 -1.440829932689666748e-01 2.170248627662658691e-01 -1.524668484926223755e-01 -4.036424681544303894e-02 -1.163639947772026062e-01 -6.822848916053771973e-01 8.989841677248477936e-03 2.925864458084106445e-01 4.221012350171804428e-03 1.566618829965591431e-01 2.187024503946304321e-01 -5.248405784368515015e-02 -3.440712019801139832e-02 -1.609554290771484375e-01 5.221634358167648315e-02 -1.702677756547927856e-01 -5.143977329134941101e-02 7.059527933597564697e-02 1.620760411024093628e-01 -1.466790735721588135e-01 1.235370412468910217e-01 8.556648343801498413e-02 1.646471768617630005e-01 -8.257380872964859009e-02 1.372915059328079224e-01 5.098124593496322632e-02 -1.821124106645584106e-01 4.460855424404144287e-01 5.681469291448593140e-02 -8.103916794061660767e-02 1.479009240865707397e-01 -8.023437112569808960e-02 9.769508242607116699e-02 -1.627776399254798889e-02 -5.824015289545059204e-02
-2.709803357720375061e-02 1.095025986433029175e-01 1.053764745593070984e-01 -2.442096024751663208e-01 -1.566111110150814056e-02 2.149032354354858398e-01 1.533389538526535034e-01 -5.621730163693428040e-02 1.267926990985870361e-01 -2.308130264282226562e-02 1.994810439646244049e-02 -1.508022397756576538e-01 -1.478581577539443970e-01 1.263356059789657593e-01 -9.086822718381881714e-02 5.225751549005508423e-02 2.458428591489791870e-01 1.973952800035476685e-01 4.800679087638854980e-01 -3.754441067576408386e-02 3.712529838085174561e-01 -4.486113041639328003e-02 -3.487418964505195618e-02 -1.436229944229125977e-01 -1.950931921601295471e-02 1.804570108652114868e-01 -8.807113766670227051e-02 -3.178647533059120178e-02 -2.741549611091613770e-01 -1.755090802907943726e-01 -5.759543180465698242e-02 -1.322733610868453979e-01 -3.468215465545654297e-02 -2.091075032949447632e-01 3.121605515480041504e-01 1.067948192358016968e-01 1.779067814350128174e-01 -5.065888538956642151e-02 3.621419966220855713e-01 -1.348907966166734695e-02 2.279431186616420746e-02 -3.661615774035453796e-02 -7.586787920445203781e-03 5.544614195823669434e-01 -1.116234734654426575e-01 -2.212944775819778442e-01 1.373112201690673828e-01 9.910734742879867554e-02 -4.824859648942947388e-02 -1.587613858282566071e-02
-6.911704689264297485e-02 -1.816560775041580200e-01 4.403145313262939453e-01 -1.057679578661918640e-01 9.240182489156723022e-02 -2.754873633384704590e-01 -2.671835720539093018e-01 8.857308328151702881e-02 2.877955697476863861e-02 6.760112941265106201e-02 7.011919468641281128e-02 -2.145037204027175903e-01 2.869895100593566895e-02 -1.977982819080352783e-01 6.745211035013198853e-02 -1.207426860928535461e-01 2.457209825515747070e-01 7.166229933500289917e-02 -2.894095480442047119e-01 -1.367515921592712402e-01 -3.433908820152282715e-01 -1.089722476899623871e-02 1.177052184939384460e-01 -4.979148972779512405e-03 3.455686569213867188e-02 1.628117412328720093e-01 -2.223526835441589355e-01 3.348049819469451904e-01 2.121772468090057373e-01 -4.651192575693130493e-02 -1.738985329866409302e-01 4.299064725637435913e-02 2.391172349452972412e-01 -1.558202952146530151e-01 -1.904532313346862793e-01 -2.293193154036998749e-02 -1.501928716897964478e-01 2.800073325634002686e-01 -2.627829611301422119e-01 -1.245883330702781677e-01 -1.796470880508422852e-01 1.752752959728240967e-01 2.212616354227066040e-01 3.186591863632202148e-01 5.335067957639694214e-02 1.373655050992965698e-01 -1.628727614879608154e-01 1.557395160198211670e-01 2.511983364820480347e-02 -1.527095679193735123e-02
-5.201664287596940994e-03 -2.946057021617889404e-01 9.466308355331420898e-01 -3.388692438602447510e-02 -3.611719310283660889e-01 -4.903673529624938965e-01 -1.259446591138839722e-01 -9.952534735202789307e-02 1.299252510070800781e-01 2.473497539758682251e-01 -9.770170599222183228e-02 -6.968526244163513184e-01 -3.252568542957305908e-01 -2.564224600791931152e-01 -4.182802736759185791e-01 4.091600179672241211e-01 -2.770229279994964600e-01 5.713433399796485901e-02 -8.612009882926940918e-02 -1.751883924007415771e-01 -1.939319521188735962e-01 -2.416180968284606934e-01 -3.508303165435791016e-01 -1.593206971883773804e-01 -1.484775096178054810e-01 -3.231001319363713264e-03 -9.732151776552200317e-02 -3.021740317344665527e-01 -9.127602726221084595e-02 -3.999100327491760254e-01 6.480111926794052124e-02 3.117303848266601562e-01 -1.482816785573959351e-01 1.649472862482070923e-01 7.927284389734268188e-02 5.746751651167869568e-02 3.936247229576110840e-01 -1.546205580234527588e-02 -5.902308821678161621e-01 3.025345802307128906e-01 1.834915205836296082e-02 2.666135728359222412e-01 1.135239839553833008e+00 6.655392050743103027e-01 3.027171827852725983e-02 -3.202497363090515137e-01 -2.431122511625289917e-01 1.395002659410238266e-02 -4.516783952713012695e-01 -1.237238422036170959e-01
-3.617568686604499817e-02 1.352270543575286865e-01 -1.489887982606887817e-01 2.457941770553588867e-01 2.032838165760040283e-01 9.402306750416755676e-03 -2.098893970251083374e-01 -2.393468469381332397e-02 -4.181124866008758545e-01 -2.190180309116840363e-02 2.504697302356362343e-03 -9.667549282312393188e-02 2.339326292276382446e-01 1.990472078323364258e-01 2.450611442327499390e-01 -1.419447809457778931e-01 -3.081694841384887695e-01 2.168320119380950928e-01 -3.376977443695068359e-01 2.251983731985092163e-01 -2.732622623443603516e-01 1.893926560878753662e-01 -5.500977113842964172e-02 -2.869350314140319824e-01 -6.203133612871170044e-02 1.415905952453613281e-01 2.156820893287658691e-02 6.357365250587463379e-01 -3.207344412803649902e-01 -1.559261605143547058e-02 -2.445280551910400391e-01 -1.626865267753601074e-01 1.868987232446670532e-01 -2.816405594348907471e-01 9.617072646506130695e-04 1.559836864471435547e-01 6.065634638071060181e-02 2.263964340090751648e-02 -4.344645440578460693e-01 -9.135697036981582642e-02 2.477676421403884888e-01 -2.350785732269287109e-01 -3.215956687927246094e-02 -2.494526207447052002e-01 -1.817748397588729858e-01 -3.231496810913085938e-01 1.425678730010986328e-01 -6.906209886074066162e-02 -1.853788346052169800e-01 -3.597191274166107178e-01
1.234203055500984192e-01 -3.312366828322410583e-02 6.938469409942626953e-01 -2.819831967353820801e-01 -2.120981216430664062e-01 -9.211343526840209961e-02 1.130927726626396179e-01 -4.192261397838592529e-02 -1.138474047183990479e-01 -1.423627436161041260e-01 7.653711736202239990e-02 -5.611606836318969727e-01 -1.669635325670242310e-01 1.824495345354080200e-01 -2.225784212350845337e-01 1.283762753009796143e-01 -3.549544513225555420e-01 1.771555542945861816e-01 6.378155946731567383e-02 -8.444472402334213257e-02 2.384962281212210655e-03 -5.432326793670654297e-01 -6.455916911363601685e-02 -5.701067298650741577e-02 1.812656074762344360e-01 -1.976791620254516602e-01 6.697455048561096191e-02 -1.654714047908782959e-01 -2.258978635072708130e-01 1.085629835724830627e-01 -5.466410145163536072e-02 2.606728672981262207e-01 -2.052407525479793549e-02 -6.210325658321380615e-02 -4.900635406374931335e-02 -4.152699559926986694e-02 3.922369480133056641e-01 1.297311782836914062e-01 -2.743257582187652588e-01 1.091223508119583130e-01 -2.042768597602844238e-01 6.780132651329040527e-02 8.681298494338989258e-01 5.654349923133850098e-01 -2.689302526414394379e-02 -2.451893687248229980e-01 1.325385123491287231e-01 7.716829888522624969e-03 -4.498898983001708984e-01 -9.011080861091613770e-02
1.141043677926063538e-01 -1.241857782006263733e-01 9.201423823833465576e-02 -1.705074310302734375e-01 -4.248344525694847107e-02 -2.178021222352981567e-01 -5.860668048262596130e-02 -1.145199984312057495e-01 2.476308196783065796e-01 3.232638910412788391e-02 -9.420262277126312256e-02 -2.508136332035064697e-01 -6.477576494216918945e-02 -1.444073021411895752e-01 -1.239368095993995667e-01 2.751475274562835693e-01 -1.567520052194595337e-01 -7.704886794090270996e-02 -1.483694314956665039e-01 -2.841211110353469849e-02 1.197051908820867538e-02 -2.508286535739898682e-01 -1.994303986430168152e-02 -4.204737767577171326e-02 7.592723518610000610e-02 -5.753571167588233948e-02 1.028565838932991028e-01 -2.497528344392776489e-01 8.327101357281208038e-03 9.366968646645545959e-03 5.544989556074142456e-02 -6.061650067567825317e-02 -4.924352467060089111e-02 1.201924681663513184e-01 -2.376763336360454559e-02 -3.947370126843452454e-02 2.253129780292510986e-01 1.665955595672130585e-02 3.483425676822662354e-01 -1.038356795907020569e-01 1.258733216673135757e-02 -1.518647419288754463e-03 9.753485023975372314e-02 3.278716802597045898e-01 1.751875877380371094e-01 -8.241700939834117889e-03 6.886079907417297363e-02 -1.751717180013656616e-01 -9.301251918077468872e-02 7.029876857995986938e-02
-3.299688994884490967e-01 3.994479179382324219e-01 1.771996766328811646e-01 4.555650949478149414e-01 2.325160801410675049e-02 -1.117785274982452393e-01 -1.497761756181716919e-01 -4.935232102870941162e-01 -2.777944505214691162e-01 2.488295882940292358e-01 -1.872846633195877075e-01 6.981746107339859009e-02 5.720389541238546371e-03 -6.305206567049026489e-02 1.467099785804748535e-01 1.710256487131118774e-01 5.330949556082487106e-03 -4.078501462936401367e-02 -4.104023277759552002e-01 2.540563344955444336e-01 -1.612365394830703735e-01 4.371426999568939209e-01 1.927462071180343628e-01 1.247327253222465515e-01 6.334719806909561157e-02 -2.606048882007598877e-01 -9.616877883672714233e-02 5.467385649681091309e-01 -2.594543993473052979e-01 1.864017695188522339e-01 -1.227188259363174438e-01 2.329619079828262329e-01 1.923922896385192871e-01 -3.363341093063354492e-01 -3.513468503952026367e-01 -2.551156580448150635e-01 -1.007531806826591492e-01 2.394316159188747406e-02 -5.373706221580505371e-01 2.143238931894302368e-01 2.320671379566192627e-01 -2.143081128597259521e-01 5.728403851389884949e-02 -4.529255093075335026e-04 -3.702085614204406738e-01 1.227563470602035522e-01 2.477580308914184570e-01 -1.696723401546478271e-01 1.948099397122859955e-02 -1.873674690723419189e-01
-1.317981183528900146e-01 -7.902888581156730652e-03 3.563237190246582031e-01 2.439917251467704773e-02 -9.584224969148635864e-02 -1.627378016710281372e-01 2.771579325199127197e-01 -1.860738396644592285e-01 -1.596182882785797119e-01 -9.529169648885726929e-02 -2.231719046831130981e-01 -5.454456806182861328e-01 2.099624425172805786e-01 3.339631855487823486e-02 -3.733164668083190918e-01 5.611708760261535645e-02 -4.391282498836517334e-01 -2.121789455413818359e-01 -2.809475362300872803e-01 2.181953750550746918e-02 9.813141077756881714e-03 -3.496317565441131592e-01 -1.931481957435607910e-01 4.727876558899879456e-02 -1.001094654202461243e-01 -1.101152854971587658e-03 4.181865230202674866e-02 -4.925362765789031982e-02 -7.306297123432159424e-02 -4.932855442166328430e-02 1.415951550006866455e-01 2.299280613660812378e-01 2.264712303876876831e-01 2.320120930671691895e-01 1.791786849498748779e-01 3.465560674667358398e-01 5.566865205764770508e-01 1.990581452846527100e-01 -7.540542483329772949e-01 -1.441687047481536865e-01 7.767474651336669922e-02 4.315347075462341309e-01 7.905762791633605957e-01 2.282912284135818481e-01 -1.320595592260360718e-01 -2.142916470766067505e-01 -3.150317072868347168e-01 -3.133616447448730469e-01 -2.714977599680423737e-02 -3.260800540447235107e-01
-2.110621929168701172e-01 3.830301761627197266e-01 4.742265939712524414e-01 -1.981270164251327515e-01 -5.241984724998474121e-01 3.085576891899108887e-01 -2.353674620389938354e-01 -9.901858866214752197e-02 3.102815449237823486e-01 3.041644990444183350e-01 -1.442272663116455078e-01 4.793572798371315002e-02 1.387063562870025635e-01 8.515109308063983917e-03 1.573706418275833130e-01 -2.231446802616119385e-01 1.531536877155303955e-01 4.956347346305847168e-01 -3.545282781124114990e-01 -1.390069723129272461e-01 -6.439722329378128052e-02 -5.314728021621704102e-01 7.081151753664016724e-02 8.723127096891403198e-02 -1.126107573509216309e-01 2.159763723611831665e-01 -4.640505909919738770e-01 3.164880871772766113e-01 4.427988454699516296e-02 1.702050566673278809e-01 4.359349012374877930e-01 -5.389166474342346191e-01 -1.068984940648078918e-01 7.526037842035293579e-02 3.218031227588653564e-01 -1.916961073875427246e-01 5.033226311206817627e-02 3.122895024716854095e-02 1.150031164288520813e-01 -6.485757231712341309e-02 -4.220297336578369141e-01 -5.287567377090454102e-01 -4.169620573520660400e-01 6.759811937808990479e-02 -5.726824402809143066e-01 3.871371150016784668e-01 3.838464021682739258e-01 -2.183574587106704712e-01 3.849775195121765137e-01 -3.584870398044586182e-01
1.713564544916152954e-01 -1.986257582902908325e-01 1.450956016778945923e-01 1.411476284265518188e-01 4.777902737259864807e-02 4.321574792265892029e-02 -1.460718810558319092e-01 -6.513947248458862305e-02 2.584712505340576172e-01 -2.616282999515533447e-01 2.852014005184173584e-01 -1.440976709127426147e-01 1.036271527409553528e-01 -7.063996046781539917e-02 -1.511129289865493774e-01 -1.181202474981546402e-02 1.422119587659835815e-01 -2.530369460582733154e-01 8.499428629875183105e-02 -1.090361550450325012e-01 -5.407431125640869141e-01 -1.366130411624908447e-01 6.889938563108444214e-02 3.538994118571281433e-02 2.491756230592727661e-01 9.176372736692428589e-02 6.720257550477981567e-02 1.080429479479789734e-01 1.541765220463275909e-02 2.030477821826934814e-01 1.854343563318252563e-01 -2.256808131933212280e-01 3.709169328212738037e-01 -7.874025404453277588e-02 -2.177119106054306030e-01 9.488316625356674194e-02 2.575748860836029053e-01 -8.348660916090011597e-02 6.572127342224121094e-02 1.584067642688751221e-01 -1.912159770727157593e-01 -9.821777790784835815e-02 -2.492859214544296265e-02 1.933612376451492310e-01 -7.361152768135070801e-02 2.073621749877929688e-01 -2.154348194599151611e-01 1.640036143362522125e-02 -1.185178682208061218e-01 2.755221724510192871e-01
-3.250238299369812012e-01 4.856649637222290039e-01 3.326422572135925293e-01 8.747160434722900391e-02 -2.065474092960357666e-01 3.620497882366180420e-01 -4.535556733608245850e-01 7.968291640281677246e-02 4.284042119979858398e-01 9.803411364555358887e-02 -1.839088797569274902e-01 -1.021757498383522034e-01 4.086665809154510498e-01 4.381096959114074707e-01 1.654182327911257744e-03 -3.742963373661041260e-01 4.097070097923278809e-01 7.335366215556859970e-03 -1.347037851810455322e-01 -3.792081400752067566e-02 -6.748437136411666870e-02 -8.344822376966476440e-02 8.318632841110229492e-02 9.836448729038238525e-02 -3.489798903465270996e-01 3.163546323776245117e-01 -2.522843889892101288e-02 2.683607935905456543e-01 2.003124207258224487e-01 4.153873026371002197e-01 4.510674178600311279e-01 -3.686140477657318115e-02 2.679846286773681641e-01 3.410684466361999512e-01 2.497648596763610840e-01 -2.291400581598281860e-01 4.105828106403350830e-01 3.060791492462158203e-01 1.846410483121871948e-01 -1.323665231466293335e-01 -2.109729647636413574e-01 -4.130709171295166016e-01 8.014549314975738525e-02 -2.251246422529220581e-01 -4.832425415515899658e-01 4.428728520870208740e-01 1.508791744709014893e-01 -2.978377342224121094e-01 6.048762425780296326e-02 -1.313812583684921265e-01
2.032340615987777710e-01 -6.676317006349563599e-02 1.899922639131546021e-01 2.210681140422821045e-01 1.727370917797088623e-02 1.558133400976657867e-03 2.850868999958038330e-01 2.215472012758255005e-01 -1.391914188861846924e-01 9.417661279439926147e-02 -3.377036750316619873e-02 -2.468343675136566162e-01 4.385530576109886169e-02 -3.929957151412963867e-01 1.941706798970699310e-02 -3.447966575622558594e-01 -7.139167189598083496e-02 -6.826989352703094482e-02 6.408908963203430176e-01 1.229635328054428101e-01 -3.278496265411376953e-01 2.349528521299362183e-01 -1.831091195344924927e-01 -2.053469866514205933e-01 8.617188036441802979e-02 -1.913519799709320068e-01 -2.076627761125564575e-01 -8.831485174596309662e-03 -2.075813263654708862e-01 -1.362754255533218384e-01 5.663012713193893433e-02 -2.526264786720275879e-01 1.007876619696617126e-01 9.105071425437927246e-02 -6.054839491844177246e-01 -1.064939275383949280e-01 -1.674223095178604126e-01 9.483194351196289062e-02 4.803750198334455490e-03 -2.074443995952606201e-01 2.291614860296249390e-01 1.313052419573068619e-02 2.348315566778182983e-01 -4.117163717746734619e-01 -4.787858575582504272e-02 -3.546448051929473877e-01 -1.150724217295646667e-01 2.143565714359283447e-01 1.243856269866228104e-02 -1.000507771968841553e-01
-1.894503086805343628e-01 -5.496139824390411377e-02 -1.340549737215042114e-01 3.029686510562896729e-01 2.730958163738250732e-02 -2.127151340246200562e-01 2.074582874774932861e-01 -2.022898197174072266e-01 1.133504211902618408e-01 1.398883908987045288e-01 5.823300778865814209e-02 -7.492498308420181274e-02 1.367778629064559937e-01 -2.089298069477081299e-01 -3.260073363780975342e-01 -1.171621307730674744e-01 -3.166713416576385498e-01 -8.629542589187622070e-02 4.165311157703399658e-01 -6.007916107773780823e-02 -7.603809833526611328e-01 1.256392002105712891e-01 4.646543040871620178e-02 -1.794375330209732056e-01 -3.104966320097446442e-02 -2.127540558576583862e-01 -1.376890093088150024e-01 -2.350195050239562988e-01 -2.058151513338088989e-01 7.997065782546997070e-02 1.966013610363006592e-01 1.733774095773696899e-01 -2.463056705892086029e-02 -1.551703959703445435e-01 -5.916403234004974365e-02 1.774176061153411865e-01 -6.061756610870361328e-02 -2.165791392326354980e-02 3.501558909192681313e-03 -2.346180677413940430e-01 -1.109186485409736633e-01 3.063500225543975830e-01 2.097758948802947998e-01 -3.175192177295684814e-01 -3.978597223758697510e-01 4.581336677074432373e-02 -1.636865176260471344e-02 1.852307170629501343e-01 -3.629174549132585526e-03 2.001830190420150757e-01
-1.781826019287109375e-01 4.354149103164672852e-01 5.198187232017517090e-01 -2.981049418449401855e-01 -2.132535725831985474e-01 -7.904917001724243164e-02 -4.202583432197570801e-01 1.333468258380889893e-01 2.179002612829208374e-01 1.111312732100486755e-01 -3.335327506065368652e-01 -2.251231856644153595e-02 -2.964480407536029816e-02 2.035825746133923531e-03 1.339109987020492554e-01 -2.958771586418151855e-01 2.136265859007835388e-02 3.212656378746032715e-01 -5.800408869981765747e-02 -2.050688117742538452e-01 5.129156261682510376e-02 -3.595512732863426208e-02 3.845202624797821045e-01 2.147462218999862671e-01 -2.905270271003246307e-02 2.556347250938415527e-01 -1.337177753448486328e-01 2.923107147216796875e-01 3.987141549587249756e-01 8.673565089702606201e-02 3.824540376663208008e-01 3.068422526121139526e-02 3.987032473087310791e-01 2.088750600814819336e-01 2.931334078311920166e-01 -4.334784746170043945e-01 1.012527644634246826e-01 3.108380138874053955e-01 1.878839880228042603e-01 -5.802599340677261353e-02 -5.862165242433547974e-02 1.716676726937294006e-02 3.920285031199455261e-02 -3.615543246269226074e-01 -5.205350518226623535e-01 2.474928498268127441e-01 2.381019592285156250e-01 -7.564643025398254395e-02 3.162598907947540283e-01 -8.280872553586959839e-02
1.289706118404865265e-02 -2.382146865129470825e-01 -1.482041627168655396e-01 -1.847404837608337402e-01 4.723956808447837830e-02 3.214457258582115173e-02 -1.339793205261230469e-01 -2.959358096122741699e-01 -1.651513278484344482e-01 -5.292444676160812378e-02 -4.060125350952148438e-02 -3.170248866081237793e-02 -1.272965371608734131e-01 -2.784944372251629829e-03 1.221444681286811829e-01 9.715789556503295898e-02 -8.417913317680358887e-02 7.549936883151531219e-03 -1.066369656473398209e-02 -4.514642804861068726e-02 5.113028883934020996e-01 -3.987290337681770325e-02 4.744233738165348768e-04 -1.903764605522155762e-01 9.411515295505523682e-02 5.108357593417167664e-02 1.740977168083190918e-01 -1.094465032219886780e-01 1.295156870037317276e-02 -4.330243915319442749e-02 -9.838230162858963013e-02 -4.310954362154006958e-02 -1.488933265209197998e-01 -2.394317537546157837e-01 -3.991835564374923706e-02 1.981579512357711792e-01 -1.858032494783401489e-01 -7.427303493022918701e-02 1.504611223936080933e-01 8.097874373197555542e-02 3.914961591362953186e-02 -5.030611064285039902e-03 -1.212495341897010803e-01 8.291018754243850708e-02 1.671314835548400879e-01 -2.147372663021087646e-01 -1.120471628382802010e-03 3.210748359560966492e-02 7.197126001119613647e-02 -3.243703767657279968e-02
4.230717942118644714e-02 -3.383199870586395264e-02 2.988224625587463379e-01 2.597946226596832275e-01 -1.283276975154876709e-01 2.090748213231563568e-02 2.928848005831241608e-02 2.261147648096084595e-01 9.094407409429550171e-02 3.849122524261474609e-01 -1.318244338035583496e-01 1.007256191223859787e-02 1.070007234811782837e-01 -4.179603159427642822e-01 -2.709987573325634003e-02 -1.850461512804031372e-01 -1.128024328500032425e-02 -2.263139188289642334e-01 4.759931266307830811e-01 3.267184197902679443e-01 -3.204656243324279785e-01 3.713397309184074402e-02 8.309824019670486450e-02 9.477466344833374023e-02 1.678687892854213715e-02 -1.644424349069595337e-01 -2.847853004932403564e-01 1.679124534130096436e-01 -3.391073346138000488e-01 -6.197373569011688232e-02 -1.230442896485328674e-01 -2.450029551982879639e-01 2.766087353229522705e-01 1.499097347259521484e-01 -3.303631544113159180e-01 2.156057804822921753e-01 -8.002711832523345947e-02 -1.351344436407089233e-01 5.410799384117126465e-02 1.272345632314682007e-01 1.117548570036888123e-01 2.565389275550842285e-01 3.654786571860313416e-02 -2.957191169261932373e-01 2.962452732026576996e-02 -1.588394194841384888e-01 -8.563488721847534180e-02 2.103757858276367188e-01 -1.959932595491409302e-02 9.483571350574493408e-02
-1.574428193271160126e-02 1.594286561012268066e-01 7.183108944445848465e-03 -8.995234221220016479e-02 7.862480729818344116e-02 1.293793171644210815e-01 1.740220785140991211e-01 -7.566325366497039795e-02 1.037912368774414062e-01 2.695119380950927734e-01 -1.150610740296542645e-03 -1.950038820505142212e-01 -3.936606645584106445e-02 -4.284356236457824707e-01 -8.711612969636917114e-02 -1.453813314437866211e-01 1.127290800213813782e-01 9.921929240226745605e-02 4.004002213478088379e-01 -1.957774460315704346e-01 -7.529605627059936523e-01 -1.557481288909912109e-02 4.880292713642120361e-02 2.200750112533569336e-01 -2.811686098575592041e-01 9.244884550571441650e-02 -2.148700654506683350e-01 3.061518073081970215e-01 -1.494935601949691772e-01 2.302095741033554077e-01 -1.261271983385086060e-01 1.025914549827575684e-01 -8.062624186277389526e-02 -5.392679572105407715e-02 -3.107634782791137695e-01 6.949090212583541870e-02 -3.740246966481208801e-02 -2.244549542665481567e-01 -2.212066352367401123e-01 -2.110425382852554321e-01 -2.018240690231323242e-01 -1.755832135677337646e-01 1.844668984413146973e-01 -4.077794551849365234e-01 -2.785293161869049072e-01 -2.551432549953460693e-01 -1.684795916080474854e-01 -1.502384990453720093e-01 -2.774584591388702393e-01 1.438408493995666504e-01
-3.607392907142639160e-01 3.094981424510478973e-02 -1.772812940180301666e-02 1.165155693888664246e-01 5.853916332125663757e-02 1.031865030527114868e-01 6.310185417532920837e-03 -2.078133672475814819e-01 3.546959161758422852e-01 4.321532249450683594e-01 1.274031251668930054e-01 -1.291655153036117554e-01 3.226270377635955811e-01 1.538066416978836060e-01 -5.619652569293975830e-02 -4.084298312664031982e-01 2.685678005218505859e-01 1.661955714225769043e-01 3.115706518292427063e-02 -1.099823042750358582e-02 -2.474877238273620605e-01 -3.014551401138305664e-01 1.678638756275177002e-01 -1.109648570418357849e-01 -3.815212547779083252e-01 4.406242445111274719e-02 7.773619890213012695e-02 3.141087293624877930e-01 -4.793392866849899292e-02 2.421383857727050781e-01 7.268802821636199951e-02 -5.621000006794929504e-02 -1.020123586058616638e-01 2.964280247688293457e-01 1.540242284536361694e-01 -6.278330087661743164e-02 2.747756242752075195e-01 1.637793779373168945e-01 -7.155589014291763306e-02 -3.731375038623809814e-01 -1.993067935109138489e-02 2.050843462347984314e-02 -2.826581597328186035e-01 -1.178426817059516907e-01 -7.682515308260917664e-03 1.775881201028823853e-01 1.204476505517959595e-01 -4.340084642171859741e-02 3.187215924263000488e-01 -1.544421464204788208e-01
