-9.440476447343826294e-02
1.674594432115554810e-01
1.511646211147308350e-01
3.081289678812026978e-02
-1.277648955583572388e-01
2.257370017468929291e-02
-5.065065622329711914e-02
6.857741624116897583e-02
1.021211147308349609e-01
1.427077800035476685e-01
-3.188686817884445190e-02
4.754646122455596924e-02
1.395409554243087769e-01
2.580933971330523491e-03
1.727391965687274933e-02
-2.486408203840255737e-01
1.200801581144332886e-01
1.136788353323936462e-01
1.214236244559288025e-01
-7.865441590547561646e-02
-6.138596311211585999e-02
-1.083681285381317139e-01
1.092902645468711853e-01
8.296340703964233398e-02
-1.496720463037490845e-01
7.075548171997070312e-02
-1.265913546085357666e-01
1.285625100135803223e-01
5.834781005978584290e-02
1.252898722887039185e-01
8.711577206850051880e-02
-1.381219774484634399e-01
7.075498253107070923e-02
1.561354547739028931e-01
9.823919273912906647e-03
-1.260296106338500977e-01
5.975406989455223083e-02
7.894371449947357178e-02
-3.998930752277374268e-02
-9.041784703731536865e-02
-7.906476408243179321e-02
-6.744398921728134155e-02
-5.537397228181362152e-03
-3.258074522018432617e-01
-2.377622425556182861e-01
7.063362747430801392e-02
1.235532611608505249e-01
-6.631679832935333252e-02
9.951314330101013184e-02
-1.483477205038070679e-01
