1.302647143602371216e-01 -4.296615123748779297e-01 3.149839341640472412e-01 -1.430075764656066895e-01 -2.332165539264678955e-01 -1.167325824499130249e-01 2.028009176254272461e+00 2.067166715860366821e-01 1.641126871109008789e-01 -2.409777939319610596e-01 -1.413946300745010376e-01 -3.059100210666656494e-01 -1.158116161823272705e-01 -6.251733750104904175e-02 -3.221206665039062500e-01 1.402600705623626709e-01 -6.577149033546447754e-01 4.535017907619476318e-02 -1.046896100044250488e+00 -1.009458154439926147e-01 -1.372351348400115967e-01 1.953224837779998779e-01 -1.904750019311904907e-01 -1.502802968025207520e+00 -2.995236814022064209e-01 -1.329516917467117310e-01 1.422071337699890137e+00 -4.025350883603096008e-02 -1.686764359474182129e-01 1.663093417882919312e-01 -1.059707701206207275e-01 -4.901124536991119385e-01 7.904672995209693909e-03 -1.409218311309814453e+00 -2.400380522012710571e-01 2.820810377597808838e-01 7.705726474523544312e-02 -1.209844872355461121e-01 -1.148187667131423950e-01 5.292437076568603516e-01 8.245031535625457764e-02 -3.679271340370178223e-01 -9.518583118915557861e-02 -4.032588005065917969e-01 -8.900994062423706055e-02 -1.459492594003677368e-01 -9.285646677017211914e-02 1.312365829944610596e-01 -1.702035069465637207e-01 9.719290584325790405e-02
4.292852431535720825e-02 2.801759004592895508e+00 -2.647975683212280273e+00 -1.296881884336471558e-01 -2.400712013244628906e+00 1.102561056613922119e-01 -6.024745106697082520e-01 -4.486985683441162109e+00 2.064443111419677734e+00 -9.786049835383892059e-03 -2.528277873992919922e+00 3.054865598678588867e+00 -6.876928359270095825e-02 -7.398950576782226562e+00 1.937082409858703613e+00 1.007989719510078430e-01 5.410850048065185547e-01 1.632106304168701172e+00 2.547897815704345703e+00 -5.146894836798310280e-04 -2.985377237200737000e-02 -6.020066738128662109e-01 -1.075703382492065430e+00 6.544762849807739258e-01 3.241018295288085938e+00 -3.768508508801460266e-02 4.385002136230468750e+00 -2.787098169326782227e+00 -2.336511164903640747e-01 2.316223829984664917e-02 1.107726618647575378e-01 -2.410697698593139648e+00 -2.274239063262939453e+00 1.207877397537231445e+00 -7.899934053421020508e-01 1.840398192405700684e+00 -3.603463619947433472e-02 1.158249139785766602e+00 -1.073586940765380859e-01 -1.285789608955383301e+00 -1.087752506136894226e-01 4.730444431304931641e+00 -4.084587097167968750e+00 1.276113629341125488e+00 5.079689249396324158e-02 -2.869025468826293945e+00 -5.599337577819824219e+00 9.770745038986206055e-01 4.375334262847900391e+00 4.241017818450927734e+00
-6.411402672529220581e-02 -4.610386788845062256e-01 -9.447022080421447754e-01 4.850213602185249329e-02 -8.361564278602600098e-01 1.204158514738082886e-01 -2.089289426803588867e+00 -2.399702817201614380e-01 5.999838709831237793e-01 1.913777589797973633e-01 3.684977293014526367e-01 8.286898583173751831e-02 2.583059482276439667e-03 -2.271523773670196533e-01 -9.350749850273132324e-01 -1.102029904723167419e-02 3.786362111568450928e-01 1.097351908683776855e+00 1.228597313165664673e-01 -1.559913810342550278e-02 8.234251290559768677e-02 -1.444155722856521606e-01 -5.792150497436523438e-01 -1.525794863700866699e-01 7.981528341770172119e-02 1.172391101717948914e-01 3.124685287475585938e+00 -3.417220413684844971e-01 3.560912236571311951e-02 -5.478410050272941589e-02 9.098131209611892700e-02 -1.523475050926208496e+00 -5.106272548437118530e-02 -3.593656718730926514e-01 8.362995386123657227e-01 1.324842683970928192e-02 2.227648049592971802e-01 -4.576141536235809326e-01 -1.249861065298318863e-02 -4.916560351848602295e-01 9.733269363641738892e-02 -7.135730981826782227e-02 7.425453513860702515e-02 -9.833624362945556641e-01 -3.421815857291221619e-02 5.572992190718650818e-02 -2.598315179347991943e-01 2.741929590702056885e-01 7.447369396686553955e-02 5.225554108619689941e-01
