-4.257962480187416077e-02
-1.196669787168502808e-02
-6.386093795299530029e-03
5.511434748768806458e-03
1.223582681268453598e-02
1.113160327076911926e-02
-4.104571044445037842e-02
2.444495074450969696e-02
-7.728813681751489639e-03
-4.763301461935043335e-03
-3.000503778457641602e-02
-1.138240657746791840e-02
4.672833252698183060e-03
1.875665597617626190e-02
-3.715073317289352417e-02
-1.198396086692810059e-02
-2.936701849102973938e-02
-1.464907173067331314e-02
-1.649664714932441711e-02
1.532773487269878387e-03
-2.021055482327938080e-02
2.356063760817050934e-02
-1.414501946419477463e-02
1.342989969998598099e-02
3.814897499978542328e-03
-2.004398964345455170e-02
-5.634542182087898254e-02
1.810348778963088989e-02
-2.804993838071823120e-02
2.603095490485429764e-03
-2.537553943693637848e-02
5.325243808329105377e-03
-1.038095355033874512e-02
-2.418283186852931976e-02
2.653159433975815773e-03
-1.728419028222560883e-02
1.170682534575462341e-02
2.574666403234004974e-02
-7.221648003906011581e-03
1.682032481767237186e-03
-2.121451310813426971e-02
3.314412385225296021e-02
-7.822437910363078117e-04
-3.651306324172765017e-04
-4.102675709873437881e-03
-2.183764614164829254e-02
-2.299359440803527832e-02
1.494463626295328140e-02
2.725693769752979279e-02
1.160828105639666319e-04
