-7.911156415939331055e-01 -2.635211050510406494e-01 -8.821123838424682617e-01 7.566778063774108887e-01 -9.700760990381240845e-02 -2.288894169032573700e-02 1.169800385832786560e-01 -6.502992659807205200e-02 3.002663850784301758e-01 -8.644255995750427246e-01 -3.532389700412750244e-01 -3.412800282239913940e-02 -5.833709239959716797e-01 -5.446336269378662109e-01 -7.492824196815490723e-01 -7.707872986793518066e-01 -1.223566532135009766e-01 4.436548054218292236e-01 -5.887599587440490723e-01 1.236977875232696533e-01 -3.717360794544219971e-01 -6.727321743965148926e-01 1.832535862922668457e-01 -1.075600534677505493e-01 -8.250461518764495850e-02 2.155562192201614380e-01 2.163342535495758057e-01 -1.408388763666152954e-01 -6.075254678726196289e-01 -5.263379812240600586e-01 8.502163924276828766e-03 -4.915654361248016357e-01 -3.781034350395202637e-01 4.808117449283599854e-02 -4.227101802825927734e-01 -2.604712545871734619e-01 -4.089680016040802002e-01 -3.426773846149444580e-01 -1.691907048225402832e-01 -2.943458259105682373e-01 5.351815819740295410e-01 -2.171497792005538940e-01 5.770920515060424805e-01 -1.664016693830490112e-01 -3.373725414276123047e-01 -1.618060469627380371e-01 -1.670371741056442261e-01 5.286750942468643188e-02 -1.049929618835449219e+00 -6.539810299873352051e-01
-6.930490732192993164e-01 -3.774825930595397949e-01 -1.154838681221008301e+00 5.778110623359680176e-01 -4.412539303302764893e-01 -9.829332679510116577e-02 -8.750758320093154907e-02 -1.455249488353729248e-01 1.612136512994766235e-01 -7.645801305770874023e-01 -3.280810713768005371e-01 -2.184489518404006958e-01 -4.726935625076293945e-01 -8.412699699401855469e-01 -5.341811776161193848e-01 -6.389937996864318848e-01 -2.470717877149581909e-01 -6.326477229595184326e-02 -4.321459233760833740e-01 -2.957833707332611084e-01 -5.475616082549095154e-02 -8.177985548973083496e-01 -1.258091628551483154e-01 -3.834992051124572754e-01 7.122392207384109497e-02 1.072994023561477661e-01 -1.856485754251480103e-01 -7.973345369100570679e-02 -4.431610107421875000e-01 -5.964930653572082520e-01 -2.683781385421752930e-01 -4.779485464096069336e-01 -4.018708318471908569e-02 -3.786210715770721436e-01 -4.191181361675262451e-01 -3.463122844696044922e-01 -4.000244140625000000e-01 -2.419960200786590576e-01 -1.825465708971023560e-01 -3.830619752407073975e-01 1.388044357299804688e-01 -3.874912261962890625e-01 1.317376047372817993e-01 -4.025131464004516602e-01 -2.540649175643920898e-01 -2.115617543458938599e-01 -1.144018322229385376e-01 -1.141434386372566223e-01 -8.110668063163757324e-01 -6.402118206024169922e-01
5.791912600398063660e-02 1.846187949180603027e+00 1.033206820487976074e+00 1.341930389404296875e+00 -1.424794077873229980e+00 -9.649429321289062500e-01 -1.234051823616027832e+00 -1.159156560897827148e+00 -8.571574687957763672e-01 -1.722095757722854614e-01 1.766843676567077637e+00 -1.275242686271667480e+00 -1.010015964508056641e+00 8.794708847999572754e-01 1.463350415229797363e+00 1.555536627769470215e+00 -1.286039233207702637e+00 -1.725708097219467163e-01 -1.581949472427368164e+00 -1.159936070442199707e+00 1.424920797348022461e+00 -1.132416203618049622e-01 -1.060937881469726562e+00 1.698694586753845215e+00 1.148374676704406738e+00 -8.949105739593505859e-01 -1.012183666229248047e+00 -1.289814710617065430e+00 2.062952280044555664e+00 -1.107948184013366699e+00 2.573408126831054688e+00 -1.432966232299804688e+00 -1.046948552131652832e+00 -1.067532300949096680e+00 -1.018567204475402832e+00 -1.295343637466430664e+00 -1.136409997940063477e+00 1.609557151794433594e+00 -1.432262778282165527e+00 2.711311340332031250e+00 -5.281229615211486816e-01 1.925411581993103027e+00 -8.473486900329589844e-01 -1.131625652313232422e+00 -1.153157949447631836e+00 -1.341272592544555664e+00 -1.033194780349731445e+00 -9.740241169929504395e-01 -3.049191534519195557e-01 1.780468225479125977e+00
-3.451874554157257080e-01 -1.792560070753097534e-01 3.563813269138336182e-01 1.016066297888755798e-01 -2.795468568801879883e-01 -2.620042264461517334e-01 -4.378509819507598877e-01 -3.125360906124114990e-01 -5.710730552673339844e-01 -1.140532121062278748e-01 -1.626971364021301270e-01 -5.594653487205505371e-01 -6.038716435432434082e-01 -6.647580265998840332e-01 5.537568405270576477e-02 1.241122633218765259e-01 -3.116149604320526123e-01 -7.532154917716979980e-01 -4.631432890892028809e-01 -2.116668522357940674e-01 -2.142782509326934814e-02 -1.457861065864562988e-01 -4.549941420555114746e-01 1.795181334018707275e-01 1.318997293710708618e-01 -5.363078117370605469e-01 -4.110851883888244629e-01 -2.257796674966812134e-01 -1.122369691729545593e-01 -1.024071812629699707e+00 -8.085113167762756348e-01 -5.191482901573181152e-01 -6.310095191001892090e-01 -5.067073702812194824e-01 -5.071853995323181152e-01 -1.832389235496520996e-01 -9.359123110771179199e-01 -3.141827881336212158e-01 -7.510177493095397949e-01 -2.924481630325317383e-01 -6.982297301292419434e-01 -6.816926598548889160e-02 -5.999431610107421875e-01 -4.335147738456726074e-01 -3.121628165245056152e-01 -4.725729525089263916e-01 -2.742504179477691650e-01 -4.642743170261383057e-01 -5.012620687484741211e-01 1.796012371778488159e-01
-3.523755967617034912e-01 -1.654701530933380127e-01 3.243828564882278442e-02 -1.020697578787803650e-01 -2.429590374231338501e-01 -3.266640007495880127e-01 -1.811773627996444702e-01 -3.074981868267059326e-01 -7.612310349941253662e-02 -1.775196790695190430e-01 -9.390988945960998535e-02 -3.559379875659942627e-01 -3.648126721382141113e-01 -5.619959235191345215e-01 1.896148473024368286e-01 1.618139892816543579e-01 -8.758807182312011719e-02 -1.015777513384819031e-01 -4.152739346027374268e-01 -2.534669637680053711e-01 1.374436467885971069e-01 -4.197131097316741943e-01 -8.654375374317169189e-02 1.402004957199096680e-01 3.316204249858856201e-01 -1.706107705831527710e-01 -4.191348850727081299e-01 -2.288334965705871582e-01 -2.847508713603019714e-02 -8.613254427909851074e-01 -4.802856966853141785e-02 -3.553753793239593506e-01 -3.857672214508056641e-02 -3.433764278888702393e-01 -5.703811049461364746e-01 -3.344892263412475586e-01 -6.851094365119934082e-01 -2.083574086427688599e-01 -4.877185821533203125e-01 -4.362255930900573730e-01 5.157539248466491699e-01 3.210651874542236328e-02 -7.223643362522125244e-02 -5.218371748924255371e-01 -1.103581786155700684e-01 -3.447625935077667236e-01 -3.490907847881317139e-01 -2.232096344232559204e-01 -4.636107385158538818e-01 1.388700306415557861e-01
-1.493775397539138794e-01 -4.532850086688995361e-01 4.970629513263702393e-02 -5.818338990211486816e-01 -9.395191073417663574e-02 -3.349932134151458740e-01 -4.617639183998107910e-01 -4.058151245117187500e-01 -5.108487606048583984e-01 1.076300144195556641e-01 -3.164646923542022705e-01 -1.083119660615921021e-01 -8.652117252349853516e-01 -1.512621194124221802e-01 2.158907055854797363e-02 -9.338800609111785889e-02 4.429788095876574516e-04 -3.500235080718994141e-01 -4.917478859424591064e-01 -6.105013489723205566e-01 7.474907673895359039e-03 -5.025136470794677734e-01 -4.763015210628509521e-01 -6.602876633405685425e-02 2.062164247035980225e-01 -1.296613961458206177e-01 -7.427710294723510742e-02 -5.553207397460937500e-01 -8.419885486364364624e-02 -9.577246308326721191e-01 -7.482942938804626465e-02 -1.941594481468200684e-01 -1.228794082999229431e-01 -5.061061978340148926e-01 -7.003141641616821289e-01 -4.974893331527709961e-01 -8.527529239654541016e-01 -3.495528101921081543e-01 -1.656494587659835815e-01 -3.156765699386596680e-01 -3.534814715385437012e-02 -2.402305305004119873e-01 -4.322385489940643311e-01 -7.651358842849731445e-01 -2.683452069759368896e-01 -2.836693227291107178e-01 -1.774093359708786011e-01 -5.188112258911132812e-01 -1.461381614208221436e-01 2.955874614417552948e-02
-2.747141383588314056e-02 -1.309904158115386963e-01 2.133741825819015503e-01 3.044514171779155731e-02 -4.509382843971252441e-01 -2.997809052467346191e-01 1.944152079522609711e-02 -2.234963178634643555e-01 9.151694178581237793e-02 -3.348217606544494629e-01 3.355584666132926941e-02 9.612458944320678711e-02 -3.597668707370758057e-01 -5.197282433509826660e-01 -1.097078770399093628e-01 -2.768305875360965729e-02 -2.177917957305908203e-01 4.113025069236755371e-01 -3.801156282424926758e-01 -2.411320060491561890e-01 8.459687232971191406e-02 -1.483875960111618042e-01 -8.943475782871246338e-02 -1.361563503742218018e-01 1.860190033912658691e-01 4.596036672592163086e-02 -9.993235766887664795e-02 -9.331218898296356201e-02 -9.595648944377899170e-02 -5.780621170997619629e-01 -2.431716918945312500e-01 1.391227543354034424e-01 -1.682477146387100220e-01 -3.156332075595855713e-01 -2.387458980083465576e-01 -2.478595227003097534e-01 -5.684246420860290527e-01 -3.699607551097869873e-01 -2.224038392305374146e-01 -1.793968677520751953e-01 5.395343303680419922e-01 2.218299172818660736e-02 -3.043557107448577881e-01 -6.897708773612976074e-02 -1.407391130924224854e-01 -3.271885216236114502e-01 -1.833513751626014709e-02 -3.482376337051391602e-01 -4.477386474609375000e-01 2.267384082078933716e-01
2.791925370693206787e-01 2.259553521871566772e-01 9.939126372337341309e-01 -1.469038367271423340e+00 -2.025365233421325684e-01 -1.573458611965179443e-01 -1.318956017494201660e-01 -3.350610733032226562e-01 -2.494259923696517944e-01 4.636282026767730713e-01 2.270752340555191040e-01 -5.250325798988342285e-02 -1.072316408157348633e+00 2.426765710115432739e-01 -6.130491197109222412e-02 1.061450690031051636e-02 1.415571719408035278e-01 -1.311059117317199707e+00 -1.693781912326812744e-01 -2.496201097965240479e-01 -1.828178316354751587e-01 -4.475122094154357910e-01 -1.907306537032127380e-02 1.210258156061172485e-01 -8.603270351886749268e-02 4.267868399620056152e-02 -1.888088583946228027e-01 -4.672233760356903076e-01 2.675550878047943115e-01 -1.074514389038085938e+00 1.369833111763000488e+00 -6.743456721305847168e-01 -5.205487832427024841e-02 -5.973022580146789551e-01 -8.385345339775085449e-01 -5.754750221967697144e-03 -2.770678102970123291e-01 -4.215854406356811523e-01 -1.556995213031768799e-01 4.252591431140899658e-01 -7.504433989524841309e-01 2.101475000381469727e-01 -1.314685463905334473e+00 -4.577890038490295410e-01 3.945399448275566101e-02 -2.911738157272338867e-01 -1.268264800310134888e-01 -3.008973300457000732e-01 3.822288811206817627e-01 -5.761410295963287354e-02
-3.807907104492187500e-01 -5.477777719497680664e-01 -3.773548603057861328e-01 -2.167905867099761963e-01 -3.685382902622222900e-01 -3.705652952194213867e-01 -4.748141467571258545e-01 3.722886089235544205e-03 -1.695084944367408752e-02 -4.225616157054901123e-01 -5.075025558471679688e-01 -6.359575986862182617e-01 -7.377092242240905762e-01 -6.356419324874877930e-01 -3.282955288887023926e-01 7.725337147712707520e-02 -3.806856274604797363e-02 -7.352697253227233887e-01 -8.204328417778015137e-01 -3.396703898906707764e-01 -1.658171415328979492e-01 -4.812864363193511963e-01 -3.805681765079498291e-01 -3.220150172710418701e-01 -3.184561058878898621e-02 -4.243266880512237549e-01 -4.329479932785034180e-01 -3.194327950477600098e-01 -5.096868872642517090e-01 -7.537621259689331055e-01 -5.577690005302429199e-01 -8.499595522880554199e-01 -1.803372353315353394e-01 -4.348751008510589600e-01 -5.175824761390686035e-01 -2.227151691913604736e-01 -1.014592766761779785e+00 -4.650811254978179932e-01 -8.903554677963256836e-01 -5.743595361709594727e-01 -7.567099332809448242e-01 -2.277295738458633423e-01 -6.435104012489318848e-01 -2.659872472286224365e-01 -4.498256444931030273e-01 -2.134853005409240723e-01 -4.818980991840362549e-01 -3.033066689968109131e-01 -6.759209036827087402e-01 -2.974250018596649170e-01
3.801951706409454346e-01 3.952775895595550537e-01 -1.300430595874786377e-01 -5.207879543304443359e-01 -1.826339066028594971e-01 -3.673028945922851562e-01 -1.452467590570449829e-01 -4.976616501808166504e-01 -4.240990877151489258e-01 3.645574450492858887e-01 5.309273675084114075e-02 3.762899339199066162e-01 2.868563830852508545e-01 5.927798748016357422e-01 3.264499306678771973e-01 4.017367064952850342e-01 -5.291662216186523438e-01 -8.781619668006896973e-01 2.429417520761489868e-02 -6.828046441078186035e-01 9.735648334026336670e-02 1.742566525936126709e-01 -4.016381502151489258e-01 3.266556859016418457e-01 1.282702684402465820e-01 -4.744632840156555176e-01 -2.948122620582580566e-01 -3.189848065376281738e-01 3.777724206447601318e-01 -1.393195986747741699e+00 1.022386908531188965e+00 -1.359877288341522217e-01 2.254731953144073486e-02 -6.103969216346740723e-01 -1.956278532743453979e-01 -4.414424896240234375e-01 6.666762232780456543e-01 1.592279523611068726e-01 2.398963421583175659e-01 4.856172800064086914e-01 -1.031677246093750000e+00 8.987887762486934662e-03 -6.047193706035614014e-02 -5.664522051811218262e-01 -4.074542820453643799e-01 -2.104644179344177246e-01 -4.542251527309417725e-01 -5.787736177444458008e-01 4.037765562534332275e-01 1.420973986387252808e-01
-3.938182890415191650e-01 -3.126522600650787354e-01 -3.539672493934631348e-01 -2.884123921394348145e-01 -2.751680314540863037e-01 -9.152980055660009384e-04 1.820174753665924072e-01 -2.973763942718505859e-01 -1.410684287548065186e-01 -4.240061342716217041e-01 -1.017253175377845764e-01 -3.408354818820953369e-01 -1.422186642885208130e-01 -1.521580815315246582e-01 -3.625941574573516846e-01 -4.146267175674438477e-01 -4.996459558606147766e-02 -2.546032965183258057e-01 9.270250797271728516e-03 2.762084081768989563e-02 -5.149062722921371460e-02 -3.853293061256408691e-01 3.254546085372567177e-03 -4.407951608300209045e-02 -7.825927808880805969e-03 1.914524585008621216e-01 -1.945632249116897583e-01 -2.750265896320343018e-01 -1.041950359940528870e-01 -3.917864561080932617e-01 -5.031164288520812988e-01 -5.331482365727424622e-02 -1.124446839094161987e-01 -2.520000338554382324e-01 9.801089763641357422e-02 -1.323132663965225220e-01 8.539553731679916382e-02 -2.142587304115295410e-01 3.777082264423370361e-02 -2.872195839881896973e-01 1.352719068527221680e-01 -1.419147849082946777e-02 1.970448195934295654e-01 -2.283061444759368896e-01 -4.221767187118530273e-02 -1.314738541841506958e-01 2.110208757221698761e-02 -1.946190744638442993e-01 -3.247954249382019043e-01 -1.630183607339859009e-01
-2.153973430395126343e-01 -2.513940930366516113e-01 -1.076105237007141113e-01 -5.173999071121215820e-01 -3.183090686798095703e-01 2.492058575153350830e-01 -2.104321420192718506e-01 2.960288524627685547e-02 2.660810649394989014e-01 -4.589251875877380371e-01 -5.008618235588073730e-01 1.476842612028121948e-01 -3.739772737026214600e-01 -1.555385440587997437e-01 -1.511107236146926880e-01 -2.306876629590988159e-01 2.592236995697021484e-01 1.887146383523941040e-01 2.243968285620212555e-02 3.923946246504783630e-02 -1.589424610137939453e-01 -3.865007162094116211e-01 -2.156462669372558594e-01 -2.142098248004913330e-01 -2.868611812591552734e-01 2.969910502433776855e-01 2.701850533485412598e-01 -1.244814842939376831e-01 -2.992691397666931152e-01 -3.673069775104522705e-01 3.925973773002624512e-01 -3.768639266490936279e-01 -1.468468755483627319e-01 -3.939934670925140381e-01 -4.950834810733795166e-01 -3.620554506778717041e-01 -1.303549706935882568e-01 -7.743216753005981445e-01 -1.991649419069290161e-01 -3.119090497493743896e-01 3.309647738933563232e-01 -2.584399282932281494e-02 -1.475265026092529297e-01 -4.102728366851806641e-01 -2.891251742839813232e-01 -3.116966187953948975e-01 -2.314930707216262817e-01 4.322118312120437622e-02 -4.367126524448394775e-01 -8.119761198759078979e-02
-4.033316969871520996e-01 -2.201787531375885010e-01 8.602384477853775024e-02 -3.943592309951782227e-01 -4.410685300827026367e-01 -1.177334785461425781e-01 -4.101209938526153564e-01 -4.336614906787872314e-01 -1.653519272804260254e-01 -5.400896668434143066e-01 -3.887900412082672119e-01 -2.411438971757888794e-01 -8.994437456130981445e-01 -5.325200557708740234e-01 1.584035158157348633e-02 -1.143015772104263306e-01 -1.675600260496139526e-01 -1.982426941394805908e-01 -6.940242648124694824e-01 -2.784914076328277588e-01 -1.352334469556808472e-01 -4.325158894062042236e-01 -4.014977514743804932e-01 1.006908342242240906e-01 5.780722945928573608e-02 -1.118851527571678162e-01 -1.464407294988632202e-01 -4.212001264095306396e-01 -4.360437989234924316e-01 -9.917456507682800293e-01 -5.009963512420654297e-01 -6.714236736297607422e-01 -4.023005366325378418e-01 -4.491001665592193604e-01 -5.851235985755920410e-01 -2.003997713327407837e-01 -1.025369763374328613e+00 -1.946869194507598877e-01 -3.434523344039916992e-01 -5.806665420532226562e-01 -6.524626612663269043e-01 -1.296548247337341309e-01 -4.262510240077972412e-01 -6.621052026748657227e-01 -4.477921128273010254e-01 -1.636942178010940552e-01 -4.220938980579376221e-01 -4.989057779312133789e-03 -3.204741477966308594e-01 -1.212544441223144531e-01
4.622019529342651367e-01 -3.223778903484344482e-01 1.204482078552246094e+00 -1.174241900444030762e+00 -1.849669963121414185e-01 -1.019591838121414185e-01 -1.240641251206398010e-01 -2.092493623495101929e-01 -7.137495279312133789e-02 5.846604704856872559e-01 -1.428281515836715698e-01 2.644065916538238525e-01 -3.451784551143646240e-01 3.280747234821319580e-01 1.317835748195648193e-01 6.526893377304077148e-02 1.460258811712265015e-01 -1.395258456468582153e-01 -2.718127071857452393e-01 5.244039371609687805e-02 -1.305689010769128799e-02 -2.687908709049224854e-01 -2.164042443037033081e-01 -3.346720337867736816e-01 3.094831109046936035e-02 3.022953309118747711e-02 1.579372882843017578e-01 -7.642984390258789062e-02 4.426772594451904297e-01 -5.741997957229614258e-01 6.124365329742431641e-01 -5.017172098159790039e-01 -1.102152988314628601e-01 -2.513222694396972656e-01 -2.304204702377319336e-01 3.721221117302775383e-03 -2.236812710762023926e-01 -6.081802248954772949e-01 -1.222779303789138794e-01 -3.380059003829956055e-01 -3.406497836112976074e-01 2.403860241174697876e-01 -5.668947100639343262e-01 -3.799835145473480225e-01 -2.923817038536071777e-01 1.215191856026649475e-01 -2.886236011981964111e-01 -1.927088759839534760e-02 2.093333154916763306e-01 -1.627658158540725708e-01
-6.763094663619995117e-01 -6.778562664985656738e-01 -7.366673946380615234e-01 -2.054771631956100464e-01 -2.028596997261047363e-01 -9.737554937601089478e-03 1.319646649062633514e-02 8.905808627605438232e-02 2.863381803035736084e-01 -3.612051308155059814e-01 -6.837602257728576660e-01 4.029798135161399841e-02 -3.855731487274169922e-01 -7.489432692527770996e-01 -5.508753657341003418e-01 -5.766172409057617188e-01 1.278004199266433716e-01 2.496387511491775513e-01 -8.492702245712280273e-02 7.439841330051422119e-02 -3.560967147350311279e-01 -8.339028358459472656e-01 1.519990060478448868e-02 -3.493548929691314697e-01 -1.092371940612792969e-01 -6.879655271768569946e-02 7.704939693212509155e-02 1.133079230785369873e-01 -1.999555975198745728e-01 -1.690169572830200195e-01 -3.096429109573364258e-01 6.187843903899192810e-02 -3.130697607994079590e-01 6.090100482106208801e-02 -3.618012964725494385e-01 3.831483051180839539e-02 -7.438724637031555176e-01 -3.209128975868225098e-01 1.497940272092819214e-01 -4.522952437400817871e-01 7.055390477180480957e-01 -6.821393370628356934e-01 4.089889228343963623e-01 -1.941594779491424561e-01 -1.659926921129226685e-01 2.253471314907073975e-01 -1.578957289457321167e-01 2.032082378864288330e-01 -4.726403951644897461e-01 -6.990000605583190918e-01
4.003956913948059082e-02 3.741728365421295166e-01 1.595181226730346680e-02 8.581276237964630127e-02 -2.479178458452224731e-01 -5.055028200149536133e-01 -2.859885394573211670e-01 -1.312337219715118408e-01 1.790983974933624268e-02 -1.771278828382492065e-01 2.269699722528457642e-01 1.056170612573623657e-01 6.571734696626663208e-02 2.036528736352920532e-01 2.746891677379608154e-01 2.874107360839843750e-01 -3.497923612594604492e-01 -1.327735781669616699e-01 1.428644806146621704e-01 -3.424510955810546875e-01 2.540282905101776123e-01 2.869628928601741791e-02 -5.454370975494384766e-01 1.594148874282836914e-01 2.452803105115890503e-01 -3.579026758670806885e-01 -1.891127973794937134e-01 -3.588566184043884277e-01 5.797560811042785645e-01 -7.497420907020568848e-01 9.248941540718078613e-01 -1.178811565041542053e-01 -5.036566257476806641e-01 -5.862265825271606445e-01 -4.838466346263885498e-01 -2.785960137844085693e-01 1.907464414834976196e-01 2.324562333524227142e-02 -9.444040060043334961e-02 3.710470497608184814e-01 -1.480759531259536743e-01 1.020288839936256409e-01 5.963714048266410828e-02 -3.872160911560058594e-01 -1.570386886596679688e-01 -5.642845630645751953e-01 -5.618981122970581055e-01 -3.080667853355407715e-01 -1.362221986055374146e-01 4.377709925174713135e-01
-6.431727409362792969e-01 -2.689073979854583740e-01 -4.096601307392120361e-01 -5.706945061683654785e-01 -3.396601080894470215e-01 -2.194544672966003418e-01 7.310194522142410278e-02 -2.156403101980686188e-02 1.262709498405456543e-01 -6.163514256477355957e-01 -2.901889383792877197e-01 -1.597866714000701904e-01 -4.994154274463653564e-01 -2.810280025005340576e-01 -5.218735933303833008e-01 -4.350577294826507568e-01 1.297314763069152832e-01 2.814049124717712402e-01 -5.316857099533081055e-01 -6.348859518766403198e-02 -2.520989179611206055e-01 -6.321721673011779785e-01 -2.063781321048736572e-01 -3.691991269588470459e-01 1.348327398300170898e-01 -2.103332281112670898e-01 -5.513205006718635559e-02 -2.825238108634948730e-01 -1.117078214883804321e-01 -7.572872638702392578e-01 -4.051847457885742188e-01 -4.571291804313659668e-01 -5.665318965911865234e-01 -4.677229523658752441e-01 -2.737370729446411133e-01 -1.934150904417037964e-01 -1.019671797752380371e+00 -4.989914298057556152e-01 -2.950727343559265137e-01 -6.214104294776916504e-01 1.310676336288452148e-01 -4.418024420738220215e-01 -2.973711490631103516e-02 -3.641200065612792969e-01 -4.511712789535522461e-01 -2.785360515117645264e-01 4.197785630822181702e-02 -1.307715326547622681e-01 -6.674214005470275879e-01 -5.437968373298645020e-01
2.227974496781826019e-02 -4.402450472116470337e-02 -2.242474406957626343e-01 6.803886890411376953e-01 -4.670407474040985107e-01 -7.000996470451354980e-01 -6.590477228164672852e-01 2.207952924072742462e-02 -4.202029705047607422e-01 -1.949523836374282837e-01 7.432352751493453979e-02 -6.939377188682556152e-01 -2.929406166076660156e-01 -7.298050820827484131e-02 -8.407713472843170166e-02 -1.359078139066696167e-01 -3.114427328109741211e-01 1.197772264480590820e+00 -4.849362969398498535e-01 -7.194163799285888672e-01 3.688824474811553955e-01 -3.823507577180862427e-03 -5.824776887893676758e-01 2.227442860603332520e-01 -3.333141654729843140e-02 -4.858322739601135254e-01 -5.523287653923034668e-01 -7.775222659111022949e-01 2.405495755374431610e-02 -6.987630724906921387e-01 -1.108657661825418472e-02 -7.140161395072937012e-01 -4.484329521656036377e-01 -5.250546932220458984e-01 -8.262255787849426270e-01 -1.978020668029785156e-01 -2.034167349338531494e-01 3.353856205940246582e-01 -7.476390004158020020e-01 2.291875779628753662e-01 1.665820330381393433e-01 1.816002652049064636e-03 4.045016467571258545e-01 -7.386304736137390137e-01 -7.558559179306030273e-01 -2.109984308481216431e-01 -7.568193674087524414e-01 -7.314209938049316406e-01 -1.272999495267868042e-01 1.490013897418975830e-01
-3.058432340621948242e-01 -3.933129012584686279e-01 -2.873545587062835693e-01 -4.892372488975524902e-01 5.209657177329063416e-02 -2.394235320389270782e-02 -1.444830298423767090e-01 -6.471752375364303589e-02 -3.354582488536834717e-01 -5.172409415245056152e-01 -5.082908272743225098e-01 6.604457739740610123e-04 -3.753728866577148438e-01 -9.518063068389892578e-01 6.847757101058959961e-02 -2.698974311351776123e-02 5.411587283015251160e-02 -2.788743078708648682e-01 -2.042011171579360962e-01 -3.702637925744056702e-02 -1.916992664337158203e-02 -4.254927337169647217e-01 -3.234416246414184570e-01 -2.778390794992446899e-02 1.350270360708236694e-01 -3.166868984699249268e-01 -2.366441190242767334e-01 -2.742456495761871338e-01 -2.677851021289825439e-01 -4.552171230316162109e-01 -7.715668082237243652e-01 -3.589566946029663086e-01 -3.180330991744995117e-01 -2.629142105579376221e-01 -1.354800909757614136e-01 -2.997445166110992432e-01 -6.496410965919494629e-01 -2.954134941101074219e-01 -3.390721976757049561e-01 -3.572624921798706055e-01 -5.772086977958679199e-01 -5.376241803169250488e-01 -4.323684573173522949e-01 -5.193568468093872070e-01 -2.777708470821380615e-01 -2.246148586273193359e-01 -2.417262792587280273e-01 -6.250710785388946533e-02 -6.608184576034545898e-01 -1.918454170227050781e-01
-1.243975520133972168e+00 3.117600083351135254e-01 -1.771816253662109375e+00 2.468768119812011719e+00 -6.868945360183715820e-01 -2.224419414997100830e-01 1.706946194171905518e-01 3.930149376392364502e-01 1.811812371015548706e-01 -1.677876472473144531e+00 4.063403904438018799e-01 -1.909638345241546631e-01 -2.938661277294158936e-01 -1.269420504570007324e+00 -4.531880617141723633e-01 -2.915989160537719727e-01 -1.967853009700775146e-01 2.833772897720336914e-01 -6.878930926322937012e-01 6.389991194009780884e-02 3.219111263751983643e-01 -7.420390844345092773e-01 -1.447791159152984619e-01 2.420060783624649048e-01 4.670180380344390869e-02 1.491500288248062134e-01 -4.055536985397338867e-01 -1.065724492073059082e-01 -3.093991875648498535e-01 -2.105893790721893311e-01 -1.160209298133850098e+00 -4.521391391754150391e-01 -5.473201274871826172e-01 -1.182708367705345154e-01 -5.605285167694091797e-01 -2.869476675987243652e-01 -8.001058697700500488e-01 4.400288164615631104e-01 -5.272361040115356445e-01 3.948014229536056519e-02 2.422910779714584351e-01 -1.540440022945404053e-01 1.738011837005615234e+00 -4.265728294849395752e-01 -2.133576422929763794e-01 -1.132520809769630432e-01 -2.431278526782989502e-01 -1.811961084604263306e-01 -1.276953935623168945e+00 -4.143850207328796387e-01
-4.854915738105773926e-01 -4.173563122749328613e-01 -5.605146884918212891e-01 -6.066465377807617188e-01 -1.496267765760421753e-01 2.309138774871826172e-01 1.579431593418121338e-01 -3.503669798374176025e-01 2.830756604671478271e-01 -7.077832818031311035e-01 -5.971612334251403809e-01 -1.984604075551033020e-02 -6.426134109497070312e-01 -4.544817209243774414e-01 -6.801024079322814941e-01 -4.946326017379760742e-01 -4.610335454344749451e-02 2.449371963739395142e-01 5.489693954586982727e-02 -3.412365317344665527e-01 -3.876499235630035400e-01 -7.274644970893859863e-01 3.108557164669036865e-01 -4.845169186592102051e-01 -5.791896581649780273e-02 9.260658919811248779e-02 3.896430730819702148e-01 -3.480177000164985657e-02 -4.751521348953247070e-01 -6.462134122848510742e-01 -5.720671638846397400e-02 2.661712467670440674e-02 1.174375042319297791e-01 -1.201670989394187927e-01 -3.425070345401763916e-01 -1.142431125044822693e-01 -2.455685883760452271e-01 -6.621168851852416992e-01 -1.732386201620101929e-01 -3.595509827136993408e-01 3.751689195632934570e-01 -3.627960979938507080e-01 -1.641115248203277588e-01 -3.702193200588226318e-01 4.792422056198120117e-02 -2.148118019104003906e-01 -1.690701767802238464e-02 -1.939891427755355835e-01 -7.619111537933349609e-01 -7.626211047172546387e-01
-9.634667038917541504e-01 -3.478329777717590332e-01 -6.720100045204162598e-01 6.929364800453186035e-01 -2.206148654222488403e-01 -1.286000013351440430e-01 -5.601002275943756104e-02 -2.590988874435424805e-01 -3.012005984783172607e-01 -1.153292059898376465e+00 -2.243097573518753052e-01 -3.741481304168701172e-01 -7.026115655899047852e-01 -8.955525755882263184e-01 -3.859623372554779053e-01 -9.295142441987991333e-02 -2.535459399223327637e-01 3.192578852176666260e-01 -3.705127537250518799e-01 -2.226418703794479370e-01 -5.430179461836814880e-02 -7.065546512603759766e-01 -3.273730874061584473e-01 -3.052988648414611816e-01 -2.158552557229995728e-01 8.618843555450439453e-02 -2.514271438121795654e-01 -4.698398709297180176e-01 -5.817576050758361816e-01 -5.821959972381591797e-01 -1.381154179573059082e+00 -4.126739501953125000e-01 -3.328226804733276367e-01 -3.586665391921997070e-01 -3.154428899288177490e-01 -2.050585001707077026e-01 -4.261139035224914551e-01 -2.558477818965911865e-01 -3.989408016204833984e-01 -2.939921915531158447e-01 -1.121257320046424866e-01 -2.667391300201416016e-01 2.077634483575820923e-01 -3.262235820293426514e-01 -3.434965908527374268e-01 -4.148850142955780029e-01 -2.312875092029571533e-01 -4.090588986873626709e-01 -9.890764951705932617e-01 -5.784464478492736816e-01
-1.854152977466583252e-01 5.505236983299255371e-01 -2.206222340464591980e-02 1.231108680367469788e-01 -4.535876810550689697e-01 -8.860034495592117310e-02 -3.712403476238250732e-01 -9.404274821281433105e-02 -2.773596346378326416e-01 -5.488681793212890625e-01 6.004844903945922852e-01 -3.118737936019897461e-01 -2.299855500459671021e-01 2.096166908740997314e-01 1.546389013528823853e-01 3.216533660888671875e-01 -1.540188789367675781e-01 5.505575984716415405e-02 -5.368243455886840820e-01 -3.480190932750701904e-01 1.877679228782653809e-01 -6.031997799873352051e-01 -1.896580010652542114e-01 4.845220446586608887e-01 3.758278191089630127e-01 -4.156662151217460632e-02 1.410408760420978069e-03 -3.282301127910614014e-01 7.413076162338256836e-01 -4.797971844673156738e-01 9.452071189880371094e-01 -4.007793962955474854e-01 -6.920447945594787598e-02 -5.789466500282287598e-01 -3.884705901145935059e-01 -2.894497215747833252e-01 -2.056310176849365234e-01 6.773926615715026855e-01 -6.758252978324890137e-01 7.647652626037597656e-01 1.379264239221811295e-02 6.111974120140075684e-01 -1.618201658129692078e-02 -2.087837755680084229e-01 -5.332909226417541504e-01 -7.155729085206985474e-02 -2.096891254186630249e-01 -1.270525753498077393e-01 -2.876058220863342285e-01 4.836552143096923828e-01
-7.773089408874511719e-01 -3.375196754932403564e-01 -7.173832654953002930e-01 -3.713755905628204346e-01 -2.889776229858398438e-02 -2.089379876852035522e-01 -1.453197188675403595e-02 -2.673656046390533447e-01 1.691905260086059570e-01 -5.013114809989929199e-01 -4.305300712585449219e-01 -3.969950079917907715e-01 -8.342304825782775879e-01 -7.185470461845397949e-01 -4.357890784740447998e-01 -2.770564258098602295e-01 2.021570317447185516e-02 5.896501615643501282e-02 -2.882533073425292969e-01 -3.048904538154602051e-01 -4.485272765159606934e-01 -8.187409043312072754e-01 -6.064976565539836884e-03 -5.174640566110610962e-02 -7.966142147779464722e-02 -2.052558660507202148e-01 -9.403406828641891479e-02 -2.110134959220886230e-01 -5.716252923011779785e-01 -7.007931470870971680e-01 -8.735347390174865723e-01 -5.504538491368293762e-02 -4.471043944358825684e-01 -2.375198453664779663e-01 -5.046330094337463379e-01 -1.575513184070587158e-01 -9.293950796127319336e-01 -2.528479397296905518e-01 -4.548061788082122803e-01 -4.019560217857360840e-01 9.733887761831283569e-02 -4.330646693706512451e-01 -3.382075950503349304e-02 -5.082363486289978027e-01 -1.351808011531829834e-01 8.710362017154693604e-02 -9.199202805757522583e-02 -8.199723064899444580e-02 -7.895200252532958984e-01 -6.339797973632812500e-01
-7.106810808181762695e-01 -2.383745312690734863e-01 -6.524688601493835449e-01 -4.105355218052864075e-02 -3.361486196517944336e-01 -1.402628868818283081e-01 3.158229291439056396e-01 2.311573773622512817e-01 1.678412258625030518e-01 -5.355097055435180664e-01 -3.307000398635864258e-01 -2.520182430744171143e-01 -2.633186578750610352e-01 -1.980012059211730957e-01 -5.225570201873779297e-01 -6.039337515830993652e-01 1.864864379167556763e-01 4.658346772193908691e-01 -2.951549887657165527e-01 -2.003982067108154297e-01 -6.082530617713928223e-01 -7.825798988342285156e-01 5.927086621522903442e-02 -5.220887660980224609e-01 -2.236164063215255737e-01 3.010084629058837891e-01 2.623367011547088623e-01 1.160000562667846680e-01 -3.895808458328247070e-01 -1.520748287439346313e-01 2.149927020072937012e-01 -3.926872909069061279e-01 -1.620204448699951172e-01 -2.460793256759643555e-01 -1.112355589866638184e-01 -3.454605350270867348e-03 4.275269061326980591e-02 -1.688531935214996338e-01 -4.969604611396789551e-01 -4.618324339389801025e-01 4.032981395721435547e-02 -2.498158067464828491e-01 2.965545058250427246e-01 -1.067116335034370422e-01 8.331720530986785889e-02 1.672590970993041992e-01 -9.784100204706192017e-02 -1.778748035430908203e-01 -5.684059858322143555e-01 -7.430158257484436035e-01
-3.464310169219970703e-01 -5.242344141006469727e-01 -7.246761918067932129e-01 -6.620559692382812500e-01 -3.738057613372802734e-01 -2.399768829345703125e-01 -3.044536113739013672e-01 -2.782689034938812256e-01 7.444160431623458862e-02 -7.598494887351989746e-01 -6.485750675201416016e-01 1.434182375669479370e-01 -3.477271497249603271e-01 -6.271288990974426270e-01 -5.746942758560180664e-01 -5.259588360786437988e-01 1.792502105236053467e-01 -2.565549015998840332e-01 2.046616747975349426e-02 -3.195615708827972412e-01 -3.950216770172119141e-01 -5.414940714836120605e-01 -3.546359241008758545e-01 -1.733096092939376831e-01 -1.680007576942443848e-01 -6.941632926464080811e-02 6.347119063138961792e-02 -2.471097111701965332e-01 -6.596537828445434570e-01 -6.988889575004577637e-01 -4.884822666645050049e-01 1.079956740140914917e-01 -9.824734926223754883e-02 8.477744460105895996e-02 -3.297913670539855957e-01 -3.442670684307813644e-03 -4.900846481323242188e-01 -7.482271790504455566e-01 9.975814074277877808e-02 -8.683584928512573242e-01 -9.879505634307861328e-02 -7.298272848129272461e-01 -4.773839414119720459e-01 -3.880115449428558350e-01 -1.483069807291030884e-01 1.502925902605056763e-01 1.339918375015258789e-01 -2.932291328907012939e-01 -6.994336843490600586e-01 -6.115409135818481445e-01
-8.277748823165893555e-01 -5.917109251022338867e-01 -9.627088308334350586e-01 5.203481316566467285e-01 -3.644791543483734131e-01 -9.421474486589431763e-02 -8.935608714818954468e-02 7.004561275243759155e-02 1.078059226274490356e-01 -1.014572024345397949e+00 -1.536797732114791870e-01 8.521918207406997681e-03 -5.452731847763061523e-01 -8.113973140716552734e-01 -4.968213438987731934e-01 -6.953275203704833984e-01 -1.773399710655212402e-01 2.453940063714981079e-01 -5.232650637626647949e-01 -1.577758938074111938e-01 -5.218756794929504395e-01 -7.707269787788391113e-01 1.827011704444885254e-01 -3.278631567955017090e-01 2.677074447274208069e-02 9.167556464672088623e-02 3.013374209403991699e-01 -4.654029607772827148e-01 -4.143795073032379150e-01 -6.546676754951477051e-01 -3.356651589274406433e-02 -6.401594281196594238e-01 -1.804381012916564941e-01 -7.495103776454925537e-02 -6.532351970672607422e-01 -2.169317305088043213e-01 -4.544399976730346680e-01 -3.355069160461425781e-01 -9.791477769613265991e-02 -4.479947984218597412e-01 1.334657073020935059e-01 -2.754806578159332275e-01 -7.180269807577133179e-02 -4.198201894760131836e-01 -2.717681229114532471e-01 -1.653042435646057129e-02 -5.094552412629127502e-02 -2.917006909847259521e-01 -1.122083425521850586e+00 -6.041696071624755859e-01
-1.413995325565338135e-01 -2.485701441764831543e-01 1.543726623058319092e-01 -1.274600327014923096e-01 -3.695029616355895996e-01 -4.070153236389160156e-01 -8.042385429143905640e-02 -4.632567763328552246e-01 -9.779126942157745361e-02 -1.188911199569702148e-01 -1.064630448818206787e-01 -1.797877848148345947e-01 -4.940502047538757324e-01 -5.372288227081298828e-01 4.644223451614379883e-01 1.153298914432525635e-01 -2.705277204513549805e-01 1.718998700380325317e-01 -1.936029493808746338e-01 -4.363969266414642334e-01 3.102182447910308838e-01 -3.830931335687637329e-02 -3.891273140907287598e-01 2.042265832424163818e-01 -4.861485958099365234e-02 -1.187512725591659546e-01 -1.750761866569519043e-01 -3.716205358505249023e-01 7.723438739776611328e-02 -7.051453590393066406e-01 -3.627615869045257568e-01 -4.586628824472427368e-02 -2.326151877641677856e-01 -3.113924860954284668e-01 -1.447651088237762451e-01 -1.989135444164276123e-01 -3.456162810325622559e-01 -3.676658868789672852e-01 -1.586190611124038696e-01 -1.978981792926788330e-01 2.428620494902133942e-02 1.110611632466316223e-01 -4.467948377132415771e-01 -2.162941843271255493e-01 -3.295120894908905029e-01 -1.008941158652305603e-01 1.859159953892230988e-02 -3.306840360164642334e-02 -3.934388458728790283e-01 4.029287397861480713e-02
-1.793501019477844238e+00 1.216841578483581543e+00 -1.815505743026733398e+00 2.125566720962524414e+00 -8.462856411933898926e-01 -6.455751657485961914e-01 -3.822111189365386963e-01 3.668748140335083008e-01 -6.140738725662231445e-01 -1.867877125740051270e+00 1.244177579879760742e+00 -2.061170339584350586e+00 -1.517798185348510742e+00 -6.774940490722656250e-01 6.752461194992065430e-01 2.654982805252075195e-01 -5.059466958045959473e-01 -1.830316185951232910e-01 -1.722436785697937012e+00 -1.009711474180221558e-01 8.990101814270019531e-01 -1.453112483024597168e+00 -6.775317788124084473e-01 7.651972174644470215e-01 2.257127314805984497e-01 -6.794116497039794922e-01 -8.702859878540039062e-01 -5.513926744461059570e-01 9.363083243370056152e-01 3.877987563610076904e-01 -2.681791186332702637e-01 -1.386079668998718262e+00 -1.569422245025634766e+00 -9.496760964393615723e-01 -8.161065578460693359e-01 -3.750638663768768311e-01 -1.427300930023193359e+00 1.532659649848937988e+00 -1.819536924362182617e+00 1.462754726409912109e+00 -6.711363792419433594e-01 7.070169448852539062e-01 1.535297155380249023e+00 -3.754256665706634521e-01 -8.508256077766418457e-01 -3.549395501613616943e-01 -5.131004452705383301e-01 -7.562263011932373047e-01 -1.347844243049621582e+00 3.723132312297821045e-01
-1.317843049764633179e-01 -1.103434860706329346e-01 1.697534471750259399e-01 -5.203385949134826660e-01 -6.968177109956741333e-02 -1.852068603038787842e-01 -3.313611149787902832e-01 -2.454776763916015625e-01 -2.556505054235458374e-02 -2.544685602188110352e-01 -4.037866592407226562e-01 -1.482403576374053955e-01 -7.229130268096923828e-01 -6.710933446884155273e-01 -7.501432299613952637e-02 1.258961856365203857e-01 3.569753840565681458e-02 -5.521121621131896973e-01 -1.990319639444351196e-01 -4.330462589859962463e-02 -1.346131712198257446e-01 -5.100768804550170898e-01 -3.095612227916717529e-01 1.109939292073249817e-01 1.374268531799316406e-01 -1.808267980813980103e-01 -1.986059695482254028e-01 -2.053791433572769165e-01 -2.018951773643493652e-01 -9.175448417663574219e-01 -7.569909691810607910e-01 -6.926127523183822632e-02 -4.849156141281127930e-01 -2.015320658683776855e-01 -4.465188980102539062e-01 -4.198361039161682129e-01 -5.592415928840637207e-01 -6.022083759307861328e-01 -2.910286188125610352e-01 -4.069435000419616699e-01 -6.864059567451477051e-01 -3.877874910831451416e-01 -6.262577176094055176e-01 -3.999734520912170410e-01 -3.990878760814666748e-01 -6.038925424218177795e-02 -2.641803920269012451e-01 -1.751159876585006714e-01 -6.478735208511352539e-01 -3.347470164299011230e-01
1.254220772534608841e-02 4.171548783779144287e-02 5.306001305580139160e-01 -3.209756910800933838e-01 2.524154074490070343e-02 -2.717595696449279785e-01 -1.889082640409469604e-01 -4.484967887401580811e-01 -3.113057315349578857e-01 1.804593652486801147e-01 1.534779369831085205e-01 3.477078080177307129e-01 5.351047590374946594e-02 -5.149952769279479980e-01 1.387350261211395264e-01 5.161611437797546387e-01 -4.171085655689239502e-01 6.911707669496536255e-02 1.069241687655448914e-01 -4.140749275684356689e-01 -4.748818650841712952e-02 -7.139630150049924850e-03 -2.463418245315551758e-01 5.599812418222427368e-02 3.178580105304718018e-01 -1.665384769439697266e-01 -3.364782929420471191e-01 -4.337601363658905029e-01 3.244205191731452942e-02 -4.503066837787628174e-01 1.345231831073760986e-01 -1.050198897719383240e-01 7.326097227632999420e-03 -2.474459446966648102e-02 -4.718527495861053467e-01 -3.298488557338714600e-01 -9.159292676486074924e-04 3.588974848389625549e-02 2.049665302038192749e-01 -1.418834775686264038e-01 1.682807505130767822e-01 2.382385879755020142e-01 -5.615603327751159668e-01 -2.334397137165069580e-01 -3.952539991587400436e-03 -3.241433799266815186e-01 -3.740442693233489990e-01 -8.045607060194015503e-02 4.688543081283569336e-02 8.479443192481994629e-02
-4.276508092880249023e-01 -4.217140376567840576e-01 -2.897864282131195068e-01 3.775296360254287720e-02 7.963719218969345093e-02 2.658218145370483398e-01 4.448209106922149658e-01 1.767015755176544189e-01 4.373719394207000732e-01 -4.737604558467864990e-01 -5.428251624107360840e-01 -1.100168228149414062e-01 1.495214551687240601e-02 -6.076042652130126953e-01 -5.128650069236755371e-01 -5.005275011062622070e-01 2.145346552133560181e-01 -4.354467988014221191e-02 -2.661682069301605225e-01 3.534496724605560303e-01 -5.168529152870178223e-01 -5.155754089355468750e-01 2.432484924793243408e-01 -2.531264424324035645e-01 -4.265873134136199951e-01 5.087453722953796387e-01 1.020139604806900024e-01 8.590457588434219360e-02 -1.929937899112701416e-01 -3.762149214744567871e-01 4.714540839195251465e-01 -1.622894257307052612e-01 -8.944709599018096924e-02 1.967473179101943970e-01 -1.402797698974609375e-01 1.463710218667984009e-01 5.752705782651901245e-02 -5.583385229110717773e-01 4.786401614546775818e-02 -3.946194648742675781e-01 9.826079010963439941e-02 -2.391859143972396851e-01 2.161805331707000732e-01 -2.590328752994537354e-01 2.410154342651367188e-01 7.807234674692153931e-02 3.032194674015045166e-01 1.065212413668632507e-01 -7.785851359367370605e-01 -6.128475666046142578e-01
-5.125012993812561035e-02 -3.441352844238281250e-01 4.328944981098175049e-01 -5.170901417732238770e-01 -3.924466967582702637e-01 -2.757861614227294922e-01 -2.603406906127929688e-01 -3.401679992675781250e-01 -1.694234758615493774e-01 2.028140276670455933e-01 -3.043646514415740967e-01 -4.635306820273399353e-02 -3.429554700851440430e-01 -4.093977212905883789e-01 2.381589636206626892e-02 1.112305372953414917e-01 -3.884020447731018066e-01 -5.484063029289245605e-01 -1.409200429916381836e-01 -2.081214189529418945e-01 4.603947978466749191e-03 -3.985517024993896484e-01 -2.189671695232391357e-01 8.635474741458892822e-02 1.749250143766403198e-01 -1.798377186059951782e-01 -2.985458672046661377e-01 -5.078380107879638672e-01 -3.322104811668395996e-01 -5.497973561286926270e-01 -2.160961925983428955e-02 7.034449279308319092e-02 -9.819269925355911255e-02 -3.249453604221343994e-01 -4.390456974506378174e-01 -3.111328184604644775e-01 -2.152529507875442505e-01 -5.420417785644531250e-01 -1.696495413780212402e-01 -4.297041594982147217e-01 -6.195313334465026855e-01 -4.646176099777221680e-02 -1.941240578889846802e-01 -4.988991916179656982e-01 -3.451449573040008545e-01 -2.412107586860656738e-02 -2.235161215066909790e-01 -1.573783308267593384e-01 1.403452903032302856e-01 -9.924001246690750122e-02
-1.337414979934692383e-01 -2.151655219495296478e-02 1.005877330899238586e-01 -4.598846435546875000e-01 -3.134263753890991211e-01 -3.038432002067565918e-01 -2.264575660228729248e-01 -4.104247987270355225e-01 -1.186328679323196411e-01 6.232621893286705017e-02 -6.084638833999633789e-02 -3.182703852653503418e-01 -6.378003358840942383e-01 -6.396546363830566406e-01 1.352733075618743896e-01 1.614675521850585938e-01 1.227935589849948883e-02 -4.633988738059997559e-01 -2.939685583114624023e-01 -5.548608303070068359e-01 1.363283842802047729e-01 -4.831910431385040283e-01 -2.110446095466613770e-01 8.103486150503158569e-02 -1.821629852056503296e-01 -3.819766640663146973e-01 -3.023107945919036865e-01 -4.531992673873901367e-01 -4.123798012733459473e-01 -7.221831083297729492e-01 -6.582838296890258789e-02 -6.163899302482604980e-01 -3.514953851699829102e-01 -4.934458732604980469e-01 -4.308047890663146973e-01 -1.921799480915069580e-01 -5.477852225303649902e-01 -3.121148049831390381e-01 -2.149201780557632446e-01 -2.835820913314819336e-01 -3.137247860431671143e-01 -1.346079856157302856e-01 -7.814043164253234863e-01 -4.122439622879028320e-01 -4.525420367717742920e-01 -1.633055806159973145e-01 -4.571909606456756592e-01 -4.519007354974746704e-02 -5.017504468560218811e-02 8.293656259775161743e-02
1.156054809689521790e-01 2.140322774648666382e-01 3.647445738315582275e-01 -7.889027893543243408e-02 -3.438805341720581055e-01 -3.378454148769378662e-01 -2.597810626029968262e-01 -5.366967916488647461e-01 -3.840658664703369141e-01 -1.289005577564239502e-01 2.089925482869148254e-02 -3.580596745014190674e-01 -1.666314452886581421e-01 -1.253924220800399780e-01 1.453195661306381226e-01 2.512722015380859375e-01 -6.125368475914001465e-01 -2.132660150527954102e-01 -3.387869149446487427e-02 -4.281368255615234375e-01 -7.837428129278123379e-04 -1.392665877938270569e-02 -2.471558302640914917e-01 2.515751495957374573e-02 2.052706032991409302e-01 -4.418200626969337463e-02 -1.997945308685302734e-01 -2.416316419839859009e-01 1.045727357268333435e-01 -6.082736253738403320e-01 2.655267715454101562e-01 1.065851449966430664e-01 -1.575160324573516846e-01 -2.465797513723373413e-01 -4.398311972618103027e-01 -3.918626606464385986e-01 -1.500777453184127808e-01 1.761653870344161987e-01 -3.227649629116058350e-02 -1.114029064774513245e-01 4.277275800704956055e-01 1.501510292291641235e-01 2.017774619162082672e-02 -2.787539064884185791e-01 -4.986227452754974365e-01 -5.564737319946289062e-01 -5.112857818603515625e-01 -1.576860547065734863e-01 -1.566632837057113647e-01 8.054614067077636719e-02
2.421422898769378662e-01 -4.263210296630859375e-01 6.403548717498779297e-01 -7.952926158905029297e-01 -2.401527166366577148e-01 -1.167641058564186096e-01 -3.681596815586090088e-01 -1.305281966924667358e-01 -6.907391548156738281e-01 2.734916806221008301e-01 -1.773640215396881104e-01 -2.764689028263092041e-01 -4.242070019245147705e-01 -2.004035264253616333e-01 7.896594703197479248e-02 1.724123358726501465e-01 -1.815683580935001373e-02 -9.030465483665466309e-01 -3.753027021884918213e-01 -1.830290555953979492e-01 1.971779912710189819e-01 -4.260344505310058594e-01 -3.109494149684906006e-01 1.278625279664993286e-01 -8.794884383678436279e-02 -5.688331723213195801e-01 -1.890962421894073486e-01 -4.031689763069152832e-01 -1.448651701211929321e-01 -1.060705304145812988e+00 6.571570634841918945e-01 -1.917882710695266724e-01 -4.268539249897003174e-01 -3.750444054603576660e-01 -3.803177177906036377e-01 -2.678543925285339355e-01 -4.666896462440490723e-01 -5.696280598640441895e-01 -1.725160032510757446e-01 -3.984043300151824951e-01 -1.377814412117004395e+00 -3.092440664768218994e-01 -9.492605924606323242e-01 -7.291241288185119629e-01 -4.979769587516784668e-01 -4.209198057651519775e-01 -5.945081114768981934e-01 -2.809170782566070557e-01 1.285716742277145386e-01 5.143228918313980103e-02
-1.352623105049133301e-01 6.557968258857727051e-01 3.510199785232543945e-01 -2.509908080101013184e-01 -2.028080523014068604e-01 -4.189027845859527588e-01 -4.740052223205566406e-01 -4.035903811454772949e-01 -1.857242435216903687e-01 2.232999950647354126e-01 5.170300006866455078e-01 2.931388616561889648e-01 -1.286387741565704346e-01 2.556810677051544189e-01 3.957750201225280762e-01 5.363578796386718750e-01 -4.476892948150634766e-01 -2.868648171424865723e-01 -5.709770484827458858e-04 -4.465968012809753418e-01 2.984762489795684814e-01 4.529261495918035507e-03 -4.116949141025543213e-01 3.896259069442749023e-01 3.278582096099853516e-01 -3.252330124378204346e-01 -3.713328540325164795e-01 -3.561109006404876709e-01 4.611408114433288574e-01 -7.115321755409240723e-01 4.620120227336883545e-01 4.639199376106262207e-02 -3.529534339904785156e-01 -3.276475071907043457e-01 -5.063439607620239258e-01 -5.751643180847167969e-01 5.547051876783370972e-02 1.999682933092117310e-01 2.174547314643859863e-02 7.315144538879394531e-01 1.936127245426177979e-01 6.233007311820983887e-01 1.542234420776367188e-01 -3.688788712024688721e-01 -4.854919016361236572e-01 -1.521555781364440918e-01 -7.193652540445327759e-02 -5.250006914138793945e-01 7.790381461381912231e-02 5.849966406822204590e-01
7.008214481174945831e-03 -2.934391200542449951e-01 2.532325088977813721e-01 -4.574927985668182373e-01 -3.209885582327842712e-02 -1.936476081609725952e-01 -3.657183349132537842e-01 -3.826345503330230713e-01 -3.026798069477081299e-01 -2.867439389228820801e-01 -1.821047365665435791e-01 -2.738136351108551025e-01 -2.999792098999023438e-01 -7.547916173934936523e-01 -2.191733717918395996e-01 2.535985708236694336e-01 -2.267204374074935913e-01 -4.977727234363555908e-01 -1.280697286128997803e-01 -4.472828507423400879e-01 -2.698438465595245361e-01 -2.732287645339965820e-01 -2.505156099796295166e-01 -2.277923375368118286e-01 1.119144335389137268e-01 -2.616954743862152100e-01 -1.567999869585037231e-01 -4.588455855846405029e-01 -1.567728519439697266e-01 -9.030019640922546387e-01 -3.175200223922729492e-01 -2.651577889919281006e-01 -8.968652039766311646e-02 -2.911895513534545898e-01 -5.725197792053222656e-01 -8.168543130159378052e-02 -7.946895360946655273e-01 -1.899643689393997192e-01 -6.530364602804183960e-02 -2.407853007316589355e-01 -2.318767309188842773e-01 4.103070497512817383e-02 -2.289300262928009033e-01 -2.249669432640075684e-01 -1.873476989567279816e-02 -2.980887591838836670e-01 -4.180618524551391602e-01 -3.143503665924072266e-01 -3.131648302078247070e-01 -3.394269347190856934e-01
2.472431212663650513e-01 -1.575089395046234131e-01 7.666990160942077637e-01 -1.176555156707763672e+00 2.023271098732948303e-02 -1.281630247831344604e-01 2.243003109470009804e-03 -9.449844062328338623e-02 -1.358749866485595703e-01 2.477719783782958984e-01 -1.666014492511749268e-01 2.508915066719055176e-01 -6.786372661590576172e-01 -2.488036267459392548e-02 9.777608513832092285e-02 2.753199636936187744e-02 1.597157120704650879e-01 -1.106523513793945312e+00 -5.377182736992835999e-02 -3.477037847042083740e-01 -3.641704916954040527e-01 -6.358187198638916016e-01 -2.433652877807617188e-01 -3.079398572444915771e-01 -3.319983780384063721e-01 -1.468800101429224014e-02 6.004317104816436768e-02 -1.255616694688796997e-01 3.366173505783081055e-01 -6.863339543342590332e-01 3.843750357627868652e-01 -3.243496119976043701e-01 8.600901812314987183e-02 -1.317083239555358887e-01 -7.720824480056762695e-01 -1.175555679947137833e-02 -3.473222851753234863e-01 -3.572899699211120605e-01 -3.772944957017898560e-02 -9.208876639604568481e-02 -6.580207943916320801e-01 1.185508370399475098e-01 -1.045796990394592285e+00 -5.677744150161743164e-01 -1.329938918352127075e-01 8.546200394630432129e-02 -2.939425408840179443e-01 -2.502385973930358887e-01 -3.290038704872131348e-01 1.135917529463768005e-01
-4.049085080623626709e-02 -1.629027873277664185e-01 3.135271668434143066e-01 -1.927056610584259033e-01 -4.197595417499542236e-01 -5.180431529879570007e-02 -4.790532961487770081e-02 -3.733308613300323486e-01 7.329605519771575928e-02 -2.834995388984680176e-01 -3.359282314777374268e-01 -2.180695682764053345e-01 -5.483673214912414551e-01 -7.583350539207458496e-01 3.833025395870208740e-01 2.488725185394287109e-01 -4.858537316322326660e-01 -6.391796469688415527e-02 -1.271198838949203491e-01 -3.192445039749145508e-01 -8.046820759773254395e-02 -3.142771720886230469e-01 -4.570740759372711182e-01 1.368529200553894043e-01 1.268475055694580078e-01 -2.839684784412384033e-01 -1.015286967158317566e-01 -1.738477498292922974e-01 -1.348322331905364990e-01 -4.941466152667999268e-01 -5.246492028236389160e-01 7.829237729310989380e-02 -2.322036959230899811e-02 -1.309573929756879807e-02 -3.795197606086730957e-01 -2.735554873943328857e-01 -5.138860344886779785e-01 -2.150525301694869995e-01 -2.349093556404113770e-01 -2.490116506814956665e-01 2.099595367908477783e-01 2.091386765241622925e-01 -3.840799331665039062e-01 -3.887915015220642090e-01 -9.743678569793701172e-02 -1.051885411143302917e-01 -3.429698348045349121e-01 -3.053359091281890869e-01 -4.346271455287933350e-01 2.968620359897613525e-01
-6.607857942581176758e-01 -4.457909762859344482e-01 3.752029314637184143e-02 -8.573141694068908691e-01 -2.960178256034851074e-01 -1.211740449070930481e-01 -3.633932769298553467e-01 1.638361215591430664e-01 -5.086812973022460938e-01 -3.912729620933532715e-01 -2.978775501251220703e-01 -1.021241068840026855e+00 -9.889729022979736328e-01 -5.506113171577453613e-01 -3.383580148220062256e-01 -3.798008263111114502e-01 1.658701598644256592e-01 -4.631412923336029053e-01 -1.294202685356140137e+00 -6.067276597023010254e-01 -9.097736328840255737e-02 -7.734264731407165527e-01 -4.115104377269744873e-01 -3.574790954589843750e-01 -2.703124284744262695e-01 -2.600615322589874268e-01 -4.970356523990631104e-01 -5.586607456207275391e-01 -1.009786725044250488e-01 -1.063893318176269531e+00 -5.850552320480346680e-01 -1.136461257934570312e+00 -8.640828728675842285e-01 -3.949685096740722656e-01 -9.484275579452514648e-01 -4.045706689357757568e-01 -1.090874195098876953e+00 -5.911122560501098633e-01 -1.050671339035034180e+00 -5.930933356285095215e-01 -6.568499207496643066e-01 -5.629079341888427734e-01 3.550978377461433411e-02 -8.523659110069274902e-01 -7.809928059577941895e-01 -2.757229208946228027e-01 -4.693580269813537598e-01 -5.574702024459838867e-01 -6.191007494926452637e-01 -1.344169080257415771e-01
-8.634852170944213867e-01 -9.197553992271423340e-02 -4.322995841503143311e-01 7.606135010719299316e-01 -7.794122695922851562e-01 -5.386736989021301270e-01 -4.994435310363769531e-01 -2.704893350601196289e-01 -5.803271383047103882e-02 -7.015079855918884277e-01 -3.585733473300933838e-02 -1.012778401374816895e+00 -1.345788478851318359e+00 -8.275608420372009277e-01 7.897874712944030762e-02 -2.800888419151306152e-01 -4.657690227031707764e-01 3.691937327384948730e-01 -8.878924250602722168e-01 -3.411817252635955811e-01 2.289163470268249512e-01 -8.118302822113037109e-01 -1.789818257093429565e-01 -1.416141539812088013e-01 3.838200867176055908e-01 -8.737790584564208984e-02 -7.047647982835769653e-02 -4.393522441387176514e-01 -1.604019105434417725e-01 -6.153472065925598145e-01 -9.428385496139526367e-01 -9.160802364349365234e-01 -4.651023745536804199e-01 -4.883151054382324219e-01 -7.067301869392395020e-01 -4.280736446380615234e-01 -1.335077404975891113e+00 -6.861377507448196411e-02 -8.989062905311584473e-01 -4.824432730674743652e-01 5.334532856941223145e-01 -3.056524395942687988e-01 -2.710423171520233154e-01 -4.675768017768859863e-01 -5.797206163406372070e-01 -2.510388791561126709e-01 -4.978113472461700439e-01 -5.663317441940307617e-01 -5.691986680030822754e-01 -4.693927615880966187e-02
-6.101576089859008789e-01 -3.213262856006622314e-01 7.228518277406692505e-02 -5.017743110656738281e-01 -5.456955432891845703e-01 -5.295709371566772461e-01 -5.442564487457275391e-01 -2.942235767841339111e-01 -5.663403868675231934e-01 -3.686640262603759766e-01 -2.388294786214828491e-01 -7.239942550659179688e-01 -5.950546860694885254e-01 -7.756102681159973145e-01 1.118937209248542786e-01 3.732750117778778076e-01 -1.508069634437561035e-01 -8.143853545188903809e-01 -7.215310931205749512e-01 -4.069224894046783447e-01 1.072002481669187546e-02 -3.330852687358856201e-01 -2.973626852035522461e-01 6.849428266286849976e-02 1.761466711759567261e-01 -6.409807205200195312e-01 -4.776769876480102539e-01 -3.906238973140716553e-01 -2.300765216350555420e-01 -8.391576409339904785e-01 -1.264888405799865723e+00 -7.632588148117065430e-01 -6.778032183647155762e-01 -4.638108015060424805e-01 -5.781962275505065918e-01 -1.499881446361541748e-01 -6.138870716094970703e-01 -4.306980073451995850e-01 -5.586102008819580078e-01 -5.878665447235107422e-01 -1.205269575119018555e+00 -6.964982300996780396e-02 -8.613409996032714844e-01 -7.465207576751708984e-01 -2.848929464817047119e-01 -1.675866842269897461e-01 -5.742715001106262207e-01 -4.022699594497680664e-01 -5.245763659477233887e-01 1.997197978198528290e-03
-1.044986605644226074e+00 -1.000185087323188782e-01 -1.398220062255859375e+00 1.466054320335388184e+00 -5.103838443756103516e-01 -2.040360420942306519e-01 -4.255825281143188477e-02 -1.305760294198989868e-01 -5.909028276801109314e-02 -1.129093408584594727e+00 -4.417625069618225098e-01 -6.351849436759948730e-01 -4.666825234889984131e-01 -1.046475052833557129e+00 -5.740585327148437500e-01 -1.993068158626556396e-01 3.426593914628028870e-02 1.253581762313842773e+00 -6.370026469230651855e-01 -7.752064615488052368e-02 -3.400115966796875000e-01 -7.294527888298034668e-01 -2.734707891941070557e-01 1.054021194577217102e-01 2.117786742746829987e-02 2.440290153026580811e-02 -3.569543361663818359e-01 -7.456754148006439209e-02 -5.454672574996948242e-01 -5.979931950569152832e-01 -1.680679559707641602e+00 -2.677160799503326416e-01 -5.900427103042602539e-01 -4.015913978219032288e-02 -1.806290447711944580e-01 7.992777973413467407e-02 -7.817794680595397949e-01 -2.157293409109115601e-01 -4.505384266376495361e-01 -4.445924758911132812e-01 2.636018991470336914e-01 -4.487448930740356445e-01 4.222119450569152832e-01 4.784503951668739319e-02 -3.970526903867721558e-02 1.386086493730545044e-01 -1.289608180522918701e-01 -2.574620246887207031e-01 -1.120155930519104004e+00 -5.833892226219177246e-01
-8.797532916069030762e-01 -8.155408501625061035e-02 -1.238267064094543457e+00 1.468285679817199707e+00 -3.548118472099304199e-01 -5.048862695693969727e-01 -7.845268398523330688e-02 5.246146768331527710e-02 -1.132986173033714294e-01 -1.032145500183105469e+00 5.528843402862548828e-02 -9.150518178939819336e-01 -1.018862009048461914e+00 -1.266794204711914062e+00 -5.341344475746154785e-01 -3.078774213790893555e-01 -1.857622116804122925e-01 1.043324828147888184e+00 -6.439064145088195801e-01 -3.617731630802154541e-01 -2.334514111280441284e-01 -6.207289695739746094e-01 -2.243461608886718750e-01 -6.588339805603027344e-02 1.168837770819664001e-01 2.860606415197253227e-03 -6.185045838356018066e-02 -4.463596045970916748e-01 -4.802986383438110352e-01 -6.733374595642089844e-01 -1.254974007606506348e+00 -9.381964206695556641e-01 -7.321454286575317383e-01 -5.489216446876525879e-01 -6.861861348152160645e-01 -9.167630970478057861e-02 -1.316399931907653809e+00 2.842616438865661621e-01 -7.148832082748413086e-01 -2.513803839683532715e-01 4.125498235225677490e-01 -3.430268466472625732e-01 5.335466265678405762e-01 -1.977996379137039185e-01 -2.888993918895721436e-01 -1.613986194133758545e-01 -3.656841814517974854e-01 -3.896645307540893555e-01 -1.238048315048217773e+00 -4.184599816799163818e-01
-3.032694756984710693e-01 -5.029202103614807129e-01 -5.658485889434814453e-01 -1.312746167182922363e+00 -1.569782197475433350e-01 -1.403919905424118042e-01 -1.138197034597396851e-01 -3.285429477691650391e-01 -2.547706663608551025e-02 -3.697967231273651123e-01 -4.991047084331512451e-01 5.862366408109664917e-02 -9.196013808250427246e-01 -5.541593432426452637e-01 -4.268275499343872070e-01 -2.109601646661758423e-01 2.635964155197143555e-01 -3.244005739688873291e-01 -3.413376957178115845e-02 -2.561719417572021484e-01 -6.054559350013732910e-01 -9.466394186019897461e-01 1.868389397859573364e-01 -6.306859850883483887e-01 -7.083573727868497372e-04 2.803460508584976196e-02 2.349314838647842407e-01 -1.970378905534744263e-01 -4.713141322135925293e-01 -6.029026508331298828e-01 -3.561559021472930908e-01 -6.740104556083679199e-01 -1.801043003797531128e-01 -1.997880637645721436e-01 -5.128157138824462891e-01 -8.421800285577774048e-02 -6.725971698760986328e-01 -6.324371099472045898e-01 -1.363280266523361206e-01 -4.886174499988555908e-01 -6.331374645233154297e-01 -7.159360051155090332e-01 -4.998224079608917236e-01 -4.678962826728820801e-01 -1.016755625605583191e-01 -2.047362625598907471e-01 -3.058086037635803223e-01 1.588131636381149292e-01 -6.192787885665893555e-01 -3.590382933616638184e-01
-2.736105024814605713e-01 2.737930119037628174e-01 2.437091171741485596e-01 6.400287747383117676e-01 -6.984220743179321289e-01 -5.394509434700012207e-01 -5.490899085998535156e-01 -4.883943796157836914e-01 -2.248517125844955444e-01 -4.100180566310882568e-01 1.854808479547500610e-01 -3.189512491226196289e-01 -8.869944810867309570e-01 -6.630699038505554199e-01 4.055231213569641113e-01 2.831113636493682861e-01 -4.959296882152557373e-01 -2.127709984779357910e-01 -6.313765048980712891e-01 -5.510312318801879883e-01 5.593128204345703125e-01 -4.389559030532836914e-01 -2.603319585323333740e-01 2.825171053409576416e-01 4.482564628124237061e-01 -3.954349458217620850e-01 -2.544584870338439941e-01 -2.845513522624969482e-01 6.848605722188949585e-02 -6.054857969284057617e-01 -6.477615237236022949e-01 -3.502533137798309326e-01 -5.638902783393859863e-01 -5.761340260505676270e-01 -7.955155968666076660e-01 -5.956383943557739258e-01 -7.970755100250244141e-01 2.515229880809783936e-01 -5.580540299415588379e-01 -2.249767035245895386e-01 -1.896830350160598755e-01 5.787411704659461975e-02 -3.431630134582519531e-01 -6.102713346481323242e-01 -3.643300235271453857e-01 -5.119492411613464355e-01 -1.531165689229965210e-01 -5.705127120018005371e-01 -3.688958287239074707e-01 5.125146508216857910e-01
5.401649698615074158e-02 -3.191735148429870605e-01 1.916336566209793091e-01 -7.313230633735656738e-01 -6.556649506092071533e-02 -1.445737574249505997e-02 2.761926129460334778e-02 -3.213448449969291687e-02 2.397770881652832031e-01 -3.694151341915130615e-01 -5.984703302383422852e-01 1.620281189680099487e-01 -4.583991765975952148e-01 -3.765525817871093750e-01 -6.238044500350952148e-01 -3.700066208839416504e-01 3.444202989339828491e-02 3.264235258102416992e-01 1.360955834388732910e-01 8.332995325326919556e-02 -2.743354737758636475e-01 -7.459903955459594727e-01 -3.915728628635406494e-02 -4.686868786811828613e-01 -3.475535809993743896e-01 1.856461167335510254e-02 3.741834163665771484e-01 -2.694652080535888672e-01 -2.003308385610580444e-01 -7.571067214012145996e-01 2.397325336933135986e-01 -7.549868524074554443e-02 -1.964208036661148071e-01 -1.036474108695983887e-01 -5.221729278564453125e-01 -7.301592081785202026e-02 -3.925667703151702881e-01 -8.840209245681762695e-01 6.219330057501792908e-02 -5.959514975547790527e-01 1.266630589962005615e-01 -4.220545887947082520e-01 -2.943656146526336670e-01 -2.193026393651962280e-01 -1.951318681240081787e-01 1.685492694377899170e-01 -5.840684287250041962e-03 -1.627114117145538330e-01 -4.458506405353546143e-01 -4.203496575355529785e-01
5.947799980640411377e-02 -1.217124611139297485e-01 6.352970004081726074e-01 -6.179022192955017090e-01 -1.326298713684082031e-01 -3.414903283119201660e-01 -3.142624795436859131e-01 -4.214541912078857422e-01 -2.700078189373016357e-01 2.573773264884948730e-01 -1.158453226089477539e-01 -1.903957128524780273e-01 -3.967799842357635498e-01 -2.285677343606948853e-01 1.327686458826065063e-01 3.740504086017608643e-01 -1.877629160881042480e-01 -4.560145139694213867e-01 -2.017757594585418701e-01 -1.634987443685531616e-01 -1.928913891315460205e-01 -2.752300202846527100e-01 -3.185904026031494141e-01 1.227558851242065430e-01 3.051550686359405518e-01 -1.617662259377539158e-03 -1.608841866254806519e-01 -5.032730102539062500e-01 3.066760487854480743e-02 -6.914645433425903320e-01 3.431652188301086426e-01 -8.026897162199020386e-02 -1.861978024244308472e-01 -6.728968024253845215e-02 -4.006632864475250244e-01 -3.304385840892791748e-01 -6.249167919158935547e-01 -4.057304859161376953e-01 6.803907454013824463e-02 -3.424227237701416016e-02 -2.426499426364898682e-01 -1.743286550045013428e-01 -7.360814809799194336e-01 -4.353907108306884766e-01 -4.186054468154907227e-01 -4.784454703330993652e-01 -1.139659807085990906e-01 -4.052485823631286621e-01 2.157727926969528198e-01 -9.388661384582519531e-02
-7.647526860237121582e-01 2.910688146948814392e-02 -4.503057897090911865e-01 1.338619351387023926e+00 -6.545748710632324219e-01 -1.543269753456115723e-01 -8.846563845872879028e-02 -5.037068724632263184e-01 4.820726811885833740e-02 -4.818155765533447266e-01 1.839255839586257935e-01 -5.459876656532287598e-01 -7.719503045082092285e-01 -7.404091358184814453e-01 -3.569931432139128447e-04 -1.379627436399459839e-01 -3.439656198024749756e-01 3.784716427326202393e-01 -4.725961387157440186e-01 -4.907748401165008545e-01 1.625029593706130981e-01 -1.744552552700042725e-01 -1.727302521467208862e-01 7.336638867855072021e-02 1.935285478830337524e-01 -1.179368142038583755e-02 -3.503240644931793213e-01 -4.977706968784332275e-01 -3.072731196880340576e-01 -7.822222709655761719e-01 -4.792684912681579590e-01 -4.416666924953460693e-01 -2.234056740999221802e-01 -4.232690930366516113e-01 -5.631066560745239258e-01 -6.140865087509155273e-01 -9.371623396873474121e-01 3.035990297794342041e-01 -5.040814876556396484e-01 -7.774688303470611572e-02 5.643544793128967285e-01 -2.383532077074050903e-01 4.215936660766601562e-01 -5.795911550521850586e-01 -6.082009673118591309e-01 -3.805363774299621582e-01 -3.002061247825622559e-01 -2.009702920913696289e-01 -5.908445715904235840e-01 1.524104028940200806e-01
