-5.595527887344360352e-01 -8.470348715782165527e-01 2.961529254913330078e+00 8.405272960662841797e-01 4.997692108154296875e-01 -9.212398529052734375e-02 6.683089137077331543e-01 -6.470459699630737305e-01 -5.617440342903137207e-01 2.137951254844665527e-01 -1.333437412977218628e-01 2.073406130075454712e-01 -3.422538042068481445e-01 8.466529846191406250e-01 -1.023697778582572937e-01 5.745124220848083496e-01 4.344221949577331543e-01 4.380182623863220215e-01 -6.455097794532775879e-01 -1.281726598739624023e+00 3.414923548698425293e-01 -1.954557895660400391e+00 1.984095722436904907e-01 1.207667589187622070e+00 1.032234057784080505e-01 -1.430392563343048096e-01 -9.604591876268386841e-02 1.110582113265991211e+00 1.483966588973999023e+00 -3.556004762649536133e-01 2.999845147132873535e-01 8.965791463851928711e-01 5.825976133346557617e-01 -2.216297149658203125e+00 9.312261939048767090e-01 -2.081337273120880127e-01 -6.567203402519226074e-01 -3.619397878646850586e-01 -7.622275948524475098e-01 3.895950913429260254e-01 1.350129365921020508e+00 -1.169851660728454590e+00 -1.458578705787658691e+00 4.535947144031524658e-01 5.751857757568359375e-01 -1.275304555892944336e-01 -1.805575847625732422e+00 6.324040293693542480e-01 -1.112600326538085938e+00 -8.827408552169799805e-01
-2.061272710561752319e-01 -2.099271714687347412e-01 4.399621784687042236e-01 5.931636691093444824e-01 6.246647834777832031e-01 6.573976278305053711e-01 -8.883608132600784302e-02 -4.436056911945343018e-01 2.590899765491485596e-01 -1.429064106196165085e-02 -2.451312541961669922e-01 -2.391102956607937813e-03 7.289324700832366943e-02 -2.989254951477050781e+00 1.764284819364547729e-01 -1.644910871982574463e-01 -8.942922353744506836e-01 2.290718257427215576e-01 -4.017328619956970215e-01 -1.016494035720825195e+00 1.149826765060424805e+00 2.706651389598846436e-01 -2.128686457872390747e-01 2.520155310630798340e-01 4.847602546215057373e-01 -8.338663578033447266e-01 -4.433537423610687256e-01 3.332404047250747681e-02 -3.663721084594726562e+00 -5.939405560493469238e-01 -4.324932023882865906e-02 3.232890665531158447e-01 7.279326915740966797e-01 -4.061504900455474854e-01 -7.808154821395874023e-02 -1.705286651849746704e-01 -4.261977970600128174e-01 3.223632276058197021e-01 -2.155433446168899536e-01 2.047874778509140015e-01 -4.869430661201477051e-01 -5.615649819374084473e-01 -1.002670764923095703e+00 2.624150598421692848e-03 -7.628212571144104004e-01 2.448038570582866669e-02 1.942485868930816650e-01 -1.278795301914215088e-02 -2.967866182327270508e+00 -5.036296248435974121e-01
-1.130318492650985718e-01 7.252166979014873505e-03 2.920142114162445068e-01 -3.752054646611213684e-02 -3.184210509061813354e-02 -1.392743349075317383e+00 3.187834471464157104e-02 5.703431367874145508e-02 -6.747730374336242676e-01 3.742801845073699951e-01 -1.461944937705993652e+00 -4.554226696491241455e-01 -4.188759922981262207e-01 -1.482016891241073608e-01 5.378181487321853638e-02 -2.164770960807800293e-01 5.551758408546447754e-01 2.508022189140319824e-01 -8.926773071289062500e-02 -9.259899705648422241e-02 -6.280754208564758301e-01 1.849725693464279175e-01 -4.025201201438903809e-01 -1.104816198348999023e-01 -2.921874225139617920e-01 6.448952108621597290e-02 2.225530147552490234e-01 -2.616495192050933838e-01 2.364856004714965820e-01 9.412984363734722137e-03 -2.415776997804641724e-01 -2.863071858882904053e-01 4.603970050811767578e-01 5.566783547401428223e-01 7.928228378295898438e-02 -2.995541691780090332e-01 9.610753059387207031e-01 2.185375541448593140e-01 4.863962829113006592e-01 1.905560940504074097e-01 9.652423858642578125e-01 -4.670002460479736328e-01 -1.341801583766937256e-01 1.069906726479530334e-01 5.730199813842773438e-01 7.275391370058059692e-02 -1.838536411523818970e-01 5.194420926272869110e-03 2.470489591360092163e-01 7.291488051414489746e-01
-4.781632423400878906e-01 -3.920814990997314453e-01 6.855938434600830078e-01 -1.859542876482009888e-01 -2.278203070163726807e-01 -1.017635092139244080e-01 4.132266938686370850e-01 -2.441388219594955444e-01 -7.790570855140686035e-01 -9.125111252069473267e-02 -5.047507584095001221e-02 1.163619384169578552e-01 -3.272944092750549316e-01 -1.378447413444519043e+00 -2.025457173585891724e-01 5.402659624814987183e-02 8.995167613029479980e-01 -2.732944786548614502e-01 1.459276080131530762e-01 1.183341220021247864e-01 4.177358150482177734e-01 -7.784436643123626709e-02 4.931413531303405762e-01 3.494752049446105957e-01 6.209416985511779785e-01 -5.227449536323547363e-01 -1.049068212509155273e+00 -7.728728652000427246e-01 3.590790927410125732e-01 2.124643325805664062e-01 4.173515141010284424e-01 1.948352158069610596e-01 2.925788760185241699e-01 4.518640041351318359e-01 -4.540353119373321533e-01 -4.675829783082008362e-02 -1.683088541030883789e+00 -9.264678955078125000e-01 -7.652533054351806641e-01 4.364907741546630859e-01 -4.302371293306350708e-02 -3.963282108306884766e-01 1.101252913475036621e+00 4.137398302555084229e-01 -2.358597517013549805e-01 -1.010969132184982300e-01 -3.649443984031677246e-01 1.382058411836624146e-01 -1.712745785713195801e+00 4.536793231964111328e-01
9.933164715766906738e-01 1.691685080528259277e+00 5.072181820869445801e-01 -1.565028548240661621e+00 -9.173843860626220703e-01 -1.515694856643676758e+00 -1.317678928375244141e+00 1.097329139709472656e+00 8.091969490051269531e-01 -8.327130675315856934e-01 -1.114522576332092285e+00 -9.966943860054016113e-01 -1.018216967582702637e+00 -1.063627600669860840e+00 -1.459973096847534180e+00 -1.308060884475708008e+00 -9.741101264953613281e-01 -1.298723816871643066e+00 1.639223575592041016e+00 4.845695018768310547e+00 -8.493556976318359375e-01 7.772896289825439453e-01 -1.418503642082214355e+00 -1.100640892982482910e+00 -1.154716014862060547e+00 1.177882671356201172e+00 7.429153919219970703e-01 -9.237741231918334961e-01 -3.063942193984985352e-01 2.056370496749877930e+00 -9.524866342544555664e-01 -1.113250374794006348e+00 -8.741279244422912598e-01 -2.475845098495483398e+00 -1.321296453475952148e+00 -1.058154463768005371e+00 -2.802517712116241455e-01 1.312638998031616211e+00 1.066273093223571777e+00 -1.136950135231018066e+00 -1.085265994071960449e+00 2.058543443679809570e+00 1.220582485198974609e+00 -4.352527558803558350e-01 1.058201670646667480e+00 1.022768735885620117e+00 2.767648220062255859e+00 1.819129824638366699e+00 2.502492666244506836e+00 4.702044725418090820e-01
1.432632952928543091e-01 -2.203744351863861084e-01 -3.238362073898315430e-01 7.772887349128723145e-01 6.989106535911560059e-02 -7.382810115814208984e-01 -4.053172767162322998e-01 3.242168128490447998e-01 5.331943035125732422e-01 -2.537706792354583740e-01 -8.276072740554809570e-01 -3.562273085117340088e-01 -3.046852946281433105e-01 4.317624270915985107e-01 -2.829656898975372314e-01 -1.958739459514617920e-01 -5.915031433105468750e-01 3.944728076457977295e-01 5.215878784656524658e-02 3.101812005043029785e-01 -5.948076248168945312e-01 3.377489745616912842e-01 -1.596702635288238525e-01 -1.016531825065612793e+00 -3.644627630710601807e-01 1.216258704662322998e-01 -5.005159378051757812e-01 -2.182531058788299561e-01 4.520883783698081970e-02 2.526406385004520416e-02 -4.592588543891906738e-01 -1.005923390388488770e+00 -4.332795143127441406e-01 1.394896805286407471e-01 -2.591070830821990967e-01 -7.018756270408630371e-01 5.198952555656433105e-01 2.244881689548492432e-01 4.496728479862213135e-01 -3.439849019050598145e-01 -2.309649884700775146e-01 -5.697501301765441895e-01 -3.261164724826812744e-01 -4.500745832920074463e-01 6.176495552062988281e-01 3.265217840671539307e-01 -6.905595064163208008e-01 4.037573039531707764e-01 3.310385644435882568e-01 4.256365597248077393e-01
-1.926357671618461609e-02 1.294607818126678467e-01 -5.152699947357177734e-01 -8.940518498420715332e-01 8.837730288505554199e-01 1.312155127525329590e-01 4.848735630512237549e-01 6.920212879776954651e-03 -5.251499414443969727e-01 -2.775100469589233398e-01 6.052927970886230469e-01 2.339158654212951660e-01 4.826279878616333008e-01 1.612553119659423828e+00 7.852551341056823730e-02 -1.286073923110961914e-01 1.376224756240844727e-01 -5.128079056739807129e-01 -5.543827414512634277e-01 -2.047828137874603271e-01 1.153851270675659180e+00 -3.843028247356414795e-01 9.519769251346588135e-02 4.231322109699249268e-01 1.027828097343444824e+00 -6.636675596237182617e-01 -1.903236657381057739e-02 1.305544734001159668e+00 7.621926665306091309e-01 -2.393275052309036255e-01 -2.238163203001022339e-01 9.897217154502868652e-01 -8.367452621459960938e-01 8.434974551200866699e-01 -5.508124232292175293e-01 1.828007549047470093e-01 -4.799688458442687988e-01 -4.619485139846801758e-01 -4.474538564682006836e-01 -5.667076110839843750e-01 -1.101084113121032715e+00 -9.646849036216735840e-01 -1.250868082046508789e+00 7.355951666831970215e-01 -3.077111840248107910e-01 -5.850240588188171387e-01 -2.765679061412811279e-01 4.293645322322845459e-01 3.058950603008270264e-01 -1.306880354881286621e+00
2.269382715225219727e+00 -2.739830017089843750e-01 6.605921387672424316e-01 -1.893241047859191895e+00 -1.430394411087036133e+00 -1.877198100090026855e+00 -2.338042020797729492e+00 2.548245906829833984e+00 -1.314744591712951660e+00 -1.492580056190490723e+00 -1.294862508773803711e+00 -2.256562709808349609e+00 -2.041737079620361328e+00 -1.578661799430847168e+00 -2.348297834396362305e+00 -2.641864061355590820e+00 -2.937302827835083008e+00 4.552602767944335938e-01 1.630068659782409668e+00 4.609542489051818848e-01 -6.048604249954223633e-01 -2.647613763809204102e+00 -2.342448472976684570e+00 -9.242704510688781738e-01 -1.815406560897827148e+00 1.614049434661865234e+00 1.869103550910949707e+00 -1.191725850105285645e+00 -3.778704166412353516e+00 2.746031045913696289e+00 -2.836547851562500000e+00 -1.075340032577514648e+00 -2.367390632629394531e+00 -2.030281066894531250e+00 -1.980276584625244141e+00 -2.204171657562255859e+00 1.861894011497497559e+00 2.273706197738647461e+00 2.040820837020874023e+00 -2.834368705749511719e+00 -2.835332751274108887e-01 6.350880265235900879e-01 6.518382430076599121e-01 -2.249260902404785156e+00 1.172757267951965332e+00 1.941083908081054688e+00 1.807719767093658447e-01 2.880538403987884521e-01 3.860508799552917480e-01 6.580734848976135254e-01
1.153584197163581848e-02 1.002323985099792480e+00 3.475280702114105225e-01 1.013771295547485352e+00 -8.900067210197448730e-01 -2.159276157617568970e-01 -4.593259189277887344e-03 -7.372888922691345215e-02 5.302914381027221680e-01 -3.579623103141784668e-01 5.764061212539672852e-01 -5.170002579689025879e-02 1.591405123472213745e-01 -1.013085126876831055e+00 2.056452482938766479e-01 -1.599714742042124271e-04 2.706235051155090332e-01 8.959897607564926147e-02 3.516117809340357780e-03 2.852702140808105469e-01 -7.929053902626037598e-01 7.797343134880065918e-01 -4.054463803768157959e-01 -6.832302361726760864e-02 -1.112927675247192383e+00 -2.007487118244171143e-01 2.569832801818847656e-01 -8.108510971069335938e-01 1.044144034385681152e+00 6.508206725120544434e-01 -2.289555221796035767e-01 -5.485925450921058655e-02 9.330812096595764160e-02 1.019263148307800293e+00 -4.088270366191864014e-01 -2.120279939845204353e-03 -6.131727099418640137e-01 8.776575326919555664e-01 1.062998548150062561e-01 -7.567442208528518677e-02 -6.034582257270812988e-01 8.153449296951293945e-01 1.091598629951477051e+00 -5.885263085365295410e-01 2.384251803159713745e-01 1.282675117254257202e-01 -5.314336419105529785e-01 5.693637132644653320e-01 -1.416601300239562988e+00 2.287530899047851562e-01
2.432126998901367188e-01 3.406528830528259277e-01 3.578970730304718018e-01 4.301651418209075928e-01 -5.641378164291381836e-01 -4.162052273750305176e-01 -3.593268990516662598e-01 5.924444179981946945e-03 7.144389748573303223e-01 4.442139267921447754e-01 -3.341487348079681396e-01 -1.248729750514030457e-01 -7.070739269256591797e-01 -1.443285346031188965e+00 3.848559856414794922e-01 -3.639165163040161133e-01 2.751372456550598145e-01 5.571413636207580566e-01 2.032073289155960083e-01 2.996721267700195312e-01 -9.925440549850463867e-01 1.821515113115310669e-01 -3.113742470741271973e-01 -8.240757584571838379e-01 -4.557635486125946045e-01 4.964073896408081055e-01 4.133235812187194824e-01 -1.251493573188781738e+00 -8.887280225753784180e-01 5.630113184452056885e-02 -1.230903565883636475e-01 -1.343519091606140137e-01 5.400109887123107910e-01 -1.020002365112304688e+00 1.988759636878967285e-01 -2.364729195833206177e-01 3.749233484268188477e-01 5.551260113716125488e-01 1.171458438038825989e-01 -4.070104956626892090e-01 1.003442525863647461e+00 8.600578904151916504e-01 7.619746923446655273e-01 -4.914021193981170654e-01 3.165711164474487305e-01 3.114652335643768311e-01 2.607233822345733643e-01 1.300660371780395508e-01 2.967250347137451172e-01 1.335541486740112305e+00
3.360819444060325623e-02 8.939858078956604004e-01 1.486761808395385742e+00 -6.514407992362976074e-01 1.162765979766845703e+00 -4.022331833839416504e-01 2.972334437072277069e-02 -1.181183010339736938e-01 2.213382571935653687e-01 1.502693891525268555e-01 2.794742882251739502e-01 3.603132069110870361e-01 6.318603157997131348e-01 1.637497663497924805e+00 -1.408676624298095703e+00 3.270677924156188965e-01 1.392553001642227173e-01 -6.306728720664978027e-01 -2.518140375614166260e-01 2.180996686220169067e-01 7.003290653228759766e-01 -2.316411256790161133e+00 2.908706106245517731e-02 5.034804940223693848e-01 8.285986185073852539e-01 -6.662778258323669434e-01 -3.457520306110382080e-01 1.444041252136230469e+00 7.540474534034729004e-01 -1.590202599763870239e-01 1.315196305513381958e-01 5.514863133430480957e-01 -7.057472467422485352e-01 -3.153991699218750000e+00 5.437630414962768555e-01 -4.038819372653961182e-01 -5.459925532341003418e-01 -6.198313832283020020e-01 9.871464222669601440e-02 -7.331637740135192871e-01 -2.254704385995864868e-01 -4.856315553188323975e-01 -1.183012962341308594e+00 6.991416215896606445e-01 -3.673703968524932861e-02 -3.683889508247375488e-01 1.736714601516723633e+00 -9.892009496688842773e-01 8.571550250053405762e-01 -8.570011854171752930e-01
4.883171916007995605e-01 -7.990077883005142212e-02 2.216040641069412231e-01 -1.272046208381652832e+00 -1.016780138015747070e+00 -7.859447002410888672e-01 -2.667537033557891846e-01 4.791880548000335693e-01 8.170546591281890869e-02 -4.341565370559692383e-01 -5.325509700924158096e-03 -3.407082259654998779e-01 -7.318798303604125977e-01 -9.734386801719665527e-01 -2.556368350982666016e+00 -7.309579849243164062e-01 -3.509601950645446777e-01 8.630726933479309082e-01 6.500030755996704102e-01 -8.943066000938415527e-01 -8.271893858909606934e-01 -1.412005662918090820e+00 -5.639044642448425293e-01 -6.542624235153198242e-01 -5.328224301338195801e-01 5.644159913063049316e-01 6.207903027534484863e-01 -4.917590618133544922e-01 1.103831455111503601e-01 7.047999501228332520e-01 -5.444092154502868652e-01 -2.467891424894332886e-01 -1.340274333953857422e+00 -1.229286909103393555e+00 -8.941766023635864258e-01 -4.240725636482238770e-01 -1.108145248144865036e-02 4.623699933290481567e-02 1.655662357807159424e-01 -4.957866072654724121e-01 -3.188723027706146240e-01 1.357066780328750610e-01 7.474501729011535645e-01 -5.162721872329711914e-01 1.771132469177246094e+00 2.886006236076354980e-01 -8.733435869216918945e-01 2.223829746246337891e+00 -2.372733354568481445e-01 4.129354357719421387e-01
-2.978892065584659576e-02 4.562494754791259766e-01 -5.422315001487731934e-01 -1.135296344757080078e+00 2.540091425180435181e-02 -1.982378482818603516e+00 7.216761708259582520e-01 -5.352097563445568085e-03 2.607754170894622803e-01 -8.600792884826660156e-01 2.837241291999816895e-01 -2.389531284570693970e-01 2.668657340109348297e-02 4.791194573044776917e-02 2.728726148605346680e+00 2.449069619178771973e-01 8.910337090492248535e-01 -9.352113008499145508e-01 -7.692979276180267334e-02 1.007895112037658691e+00 1.518808603286743164e-01 6.389976143836975098e-01 -2.276839017868041992e-01 1.189579442143440247e-01 1.092671304941177368e-01 -5.603518486022949219e-01 -5.709366127848625183e-02 -5.511813983321189880e-02 -7.367552518844604492e-01 -5.015784502029418945e-02 2.956988513469696045e-01 4.537449181079864502e-01 -5.171491503715515137e-01 3.273623287677764893e-01 -3.834638595581054688e-01 3.900741338729858398e-01 -8.990719914436340332e-01 5.211517214775085449e-01 2.575811743736267090e-01 -9.773784875869750977e-02 -5.939235538244247437e-02 6.440529227256774902e-01 1.697081886231899261e-02 1.077595651149749756e-01 -8.765861988067626953e-01 -3.562130033969879150e-01 2.617030739784240723e-01 -7.478310912847518921e-02 -4.433157667517662048e-02 -3.832027688622474670e-02
-1.777297407388687134e-01 8.858945965766906738e-02 -5.838152170181274414e-01 3.400763124227523804e-02 1.883502751588821411e-01 -8.014292120933532715e-01 4.031067192554473877e-01 -5.733202099800109863e-01 -7.607831954956054688e-01 -2.582407593727111816e-01 -1.200739860534667969e+00 -8.226349204778671265e-02 2.915939390659332275e-01 3.202541768550872803e-01 1.157618284225463867e+00 -3.316103219985961914e-01 -4.141246378421783447e-01 -1.662408709526062012e-01 -3.430373668670654297e-01 -4.156310856342315674e-01 4.861253201961517334e-01 1.725242100656032562e-02 -4.213630259037017822e-01 2.103189826011657715e-01 5.028919782489538193e-03 -5.648028850555419922e-01 -2.787349820137023926e-01 3.718956112861633301e-01 8.357454538345336914e-01 -7.453731298446655273e-01 4.696376621723175049e-02 -7.415575385093688965e-01 7.189319133758544922e-01 1.264235019683837891e+00 -4.342971444129943848e-01 -1.070818454027175903e-01 1.089347839355468750e+00 1.951014846563339233e-01 3.629324138164520264e-01 -5.930843353271484375e-01 -1.952694505453109741e-01 1.861843466758728027e-01 -6.881028413772583008e-01 1.899950802326202393e-01 4.503029286861419678e-01 1.585528552532196045e-01 1.403405547142028809e+00 3.832020461559295654e-01 4.556498229503631592e-01 -9.507963657379150391e-01
-1.511390060186386108e-01 -4.178626835346221924e-01 -4.466079175472259521e-01 -5.582638382911682129e-01 -3.024646639823913574e-01 3.435136005282402039e-02 -5.074801445007324219e-01 1.208788007497787476e-01 -4.023725092411041260e-01 -1.534759998321533203e-01 -1.654140830039978027e+00 -3.015491366386413574e-01 -5.098637342453002930e-01 4.948512911796569824e-01 9.084581732749938965e-01 -1.223385632038116455e-01 -4.365881681442260742e-01 -4.294355213642120361e-01 1.873678565025329590e-01 6.011008843779563904e-02 -8.876834064722061157e-02 -2.314194142818450928e-01 -3.608815968036651611e-01 -1.026367783546447754e+00 1.844256967306137085e-01 -6.323074549436569214e-02 -6.092363595962524414e-01 -2.092820703983306885e-01 -9.858760982751846313e-02 -5.219056829810142517e-02 1.197202727198600769e-01 -3.918772339820861816e-01 3.567253947257995605e-01 -5.061877965927124023e-01 -1.863121837377548218e-01 -4.538043141365051270e-01 1.524133235216140747e-02 2.342417389154434204e-01 -9.044419974088668823e-02 -1.334417760372161865e-01 2.051865011453628540e-01 1.983954906463623047e-01 -2.596870660781860352e-01 -1.545072719454765320e-02 -4.540936648845672607e-02 -3.395521938800811768e-01 3.763771951198577881e-01 -6.077336668968200684e-01 6.761736273765563965e-01 -1.409785151481628418e-01
-2.846011817455291748e-01 -1.278099656105041504e+00 4.143421649932861328e-01 5.072823166847229004e-01 7.455689311027526855e-01 4.065113961696624756e-01 2.392928749322891235e-01 -5.003831982612609863e-01 1.063355445861816406e+00 3.908337950706481934e-01 5.022163391113281250e-01 6.550050973892211914e-01 1.316711157560348511e-01 -1.421874612569808960e-01 -2.171547412872314453e+00 6.940425038337707520e-01 1.020558953285217285e+00 -1.266117691993713379e-01 -8.255665302276611328e-01 -3.291598856449127197e-01 9.951086640357971191e-01 1.564351916313171387e+00 5.846637487411499023e-01 4.210641980171203613e-01 9.944950342178344727e-01 -1.010329127311706543e+00 -1.024181008338928223e+00 4.979301393032073975e-01 -1.574316978454589844e+00 -2.490683943033218384e-01 2.539898157119750977e-01 9.217913746833801270e-01 -8.380836248397827148e-01 5.814971923828125000e-01 7.283232361078262329e-02 1.977156251668930054e-01 -1.427428841590881348e+00 -1.087629079818725586e+00 -7.324209809303283691e-01 8.321737647056579590e-01 -2.238050401210784912e-01 -8.623931407928466797e-01 -9.055848121643066406e-01 8.917534947395324707e-01 -8.313342332839965820e-01 -4.315159916877746582e-01 -4.216580688953399658e-01 -6.186187863349914551e-01 -8.689342141151428223e-01 -9.084023237228393555e-01
-6.282445788383483887e-01 -9.445117712020874023e-01 1.136600375175476074e+00 -3.740791678428649902e-01 2.383456230163574219e-01 3.944492638111114502e-01 4.829508066177368164e-01 -6.642631292343139648e-01 -1.564556479454040527e+00 7.749534249305725098e-01 9.039491415023803711e-01 6.123608350753784180e-01 8.009858131408691406e-01 -1.663802713155746460e-01 5.288135409355163574e-01 4.640111327171325684e-01 4.336245656013488770e-01 -5.884035229682922363e-01 -3.141943514347076416e-01 -3.249733448028564453e-01 3.329693526029586792e-02 -5.553501844406127930e-01 4.142817854881286621e-01 1.573540270328521729e-01 2.047570347785949707e-01 -5.653584003448486328e-01 -7.392148375511169434e-01 1.694272458553314209e-02 3.799349665641784668e-01 -5.229452252388000488e-01 5.883121490478515625e-01 -7.934163212776184082e-01 1.281775951385498047e+00 1.716110855340957642e-01 2.413558810949325562e-01 5.940681695938110352e-01 -3.678995966911315918e-01 3.124174894765019417e-03 -1.435678154230117798e-01 1.084487605839967728e-02 1.119278669357299805e+00 2.425284534692764282e-01 -3.733830526471138000e-02 5.513790845870971680e-01 -2.706779912114143372e-02 -2.973769903182983398e-01 -3.620215952396392822e-01 -3.377242684364318848e-01 -6.177914738655090332e-01 2.396401017904281616e-02
-4.912620782852172852e-01 -8.116474747657775879e-01 1.029328465461730957e+00 1.112397193908691406e+00 1.774759411811828613e+00 -5.202070474624633789e-01 6.429026722908020020e-01 -3.549627065658569336e-01 -9.374662041664123535e-01 -9.208716154098510742e-01 -4.860016107559204102e-01 6.688060760498046875e-01 1.295306563377380371e+00 -1.647315621376037598e+00 -4.285770893096923828e+00 -2.521959543228149414e-01 -1.473746418952941895e+00 1.829966157674789429e-01 -1.513918876647949219e+00 7.179574966430664062e-01 1.475328564643859863e+00 8.149178624153137207e-01 2.176136225461959839e-01 2.031884908676147461e+00 1.267983913421630859e+00 -1.729835391044616699e+00 -3.286855816841125488e-01 1.028507590293884277e+00 -1.104260563850402832e+00 3.458456099033355713e-01 -9.781019687652587891e-01 2.054413557052612305e+00 -1.496773362159729004e+00 -1.134612038731575012e-01 -3.624432563781738281e+00 1.509552299976348877e-01 -2.693127989768981934e-01 -1.452083706855773926e+00 -4.706933200359344482e-01 -1.770455718040466309e+00 -2.890990495681762695e+00 -1.647985726594924927e-01 -1.482646465301513672e+00 1.501053094863891602e+00 -3.116011917591094971e-01 -7.279165387153625488e-01 -2.831970751285552979e-01 6.197435036301612854e-02 -1.575185060501098633e-01 -2.195641040802001953e+00
1.086121648550033569e-01 5.763922929763793945e-01 -5.730908513069152832e-01 -5.561165213584899902e-01 -4.776603356003761292e-02 -3.580037653446197510e-01 -4.822951853275299072e-01 -5.216408893465995789e-02 -1.986325532197952271e-01 -5.251816511154174805e-01 -2.500388622283935547e-01 -3.077026903629302979e-01 5.393813550472259521e-02 -2.494841814041137695e-01 1.084200263023376465e+00 -4.414139389991760254e-01 -3.857743740081787109e-01 -3.191858828067779541e-01 -1.545852869749069214e-01 6.581690907478332520e-01 -2.107773423194885254e-01 3.359956145286560059e-01 -3.681927025318145752e-01 -1.864513754844665527e-01 1.648824661970138550e-01 -1.687099412083625793e-02 -3.742611035704612732e-02 -1.964463144540786743e-01 -2.673670947551727295e-01 2.610029578208923340e-01 -4.847832918167114258e-01 -4.523245990276336670e-01 -4.835090637207031250e-01 -1.125438660383224487e-01 -7.505883276462554932e-02 -2.076592147350311279e-01 -2.388430982828140259e-01 -3.332059085369110107e-01 2.460911422967910767e-01 -2.302666604518890381e-01 -5.133527517318725586e-01 -7.253229618072509766e-02 2.710754983127117157e-02 -5.093267932534217834e-02 -5.147944688796997070e-01 -8.164381980895996094e-02 4.721699357032775879e-01 -2.406862527132034302e-01 6.071086972951889038e-02 2.379471249878406525e-02
-1.061934113502502441e+00 -1.187267065048217773e+00 -1.599555313587188721e-01 1.387691199779510498e-01 6.260721683502197266e-01 6.375631690025329590e-01 5.402445793151855469e-01 -9.643737673759460449e-01 -3.611075580120086670e-01 2.297362685203552246e-01 9.090031981468200684e-01 4.353509247303009033e-01 3.878420293331146240e-01 1.384265422821044922e-01 1.680503129959106445e+00 8.656000494956970215e-01 6.721269488334655762e-01 -1.450563430786132812e+00 -9.747766852378845215e-01 -6.114780902862548828e-01 5.208717584609985352e-01 -5.129866003990173340e-01 6.669542789459228516e-01 3.537280857563018799e-01 1.567116975784301758e+00 -8.143201470375061035e-01 -6.023008227348327637e-01 5.978279709815979004e-01 -4.846935868263244629e-01 -1.619195818901062012e+00 4.102289080619812012e-01 1.254984021186828613e+00 3.598046004772186279e-01 1.011652424931526184e-01 1.037190318107604980e+00 8.211562037467956543e-01 -4.130426645278930664e-01 -1.718982815742492676e+00 -9.755832552909851074e-01 4.742831885814666748e-01 4.806953668594360352e-01 -7.885698080062866211e-01 -1.004488229751586914e+00 5.275709629058837891e-01 -1.646052718162536621e+00 -1.423810720443725586e+00 -8.700860738754272461e-01 -2.180795669555664062e+00 -3.013904690742492676e-01 -3.659418523311614990e-01
-1.795219630002975464e-01 2.609947025775909424e-01 -2.899089157581329346e-01 1.615774035453796387e-01 1.818681359291076660e-01 -3.547018766403198242e-01 -1.197657883167266846e-01 1.798539161682128906e-01 -1.744073033332824707e-01 -4.534777104854583740e-01 7.448604702949523926e-01 1.919200122356414795e-01 4.677386283874511719e-01 3.832140862941741943e-01 2.757971286773681641e-01 -6.106113642454147339e-02 -1.121485754847526550e-01 1.293190866708755493e-01 -2.648236453533172607e-01 3.037574291229248047e-01 4.210088029503822327e-02 4.035153687000274658e-01 2.864432334899902344e-01 3.490592539310455322e-01 3.518624603748321533e-01 -7.231978327035903931e-02 -5.901845544576644897e-02 4.558842182159423828e-01 -3.561393618583679199e-01 3.577279150485992432e-01 -2.049561291933059692e-01 2.260006777942180634e-02 -8.552178740501403809e-01 -1.211415976285934448e-02 1.138211786746978760e-01 5.596259608864784241e-02 -7.642109990119934082e-01 -6.839498877525329590e-01 -5.910796523094177246e-01 -3.253137767314910889e-01 -5.934759378433227539e-01 -8.509804606437683105e-01 -4.627591669559478760e-01 4.317450225353240967e-01 -4.020973443984985352e-01 -3.144829273223876953e-01 -2.023930102586746216e-01 3.540462553501129150e-01 5.314237475395202637e-01 -4.473631381988525391e-01
-1.309732049703598022e-01 -5.612725615501403809e-01 -4.460962712764739990e-01 8.571092486381530762e-01 4.527679458260536194e-02 -7.479160428047180176e-01 9.221863932907581329e-03 1.144674047827720642e-01 2.183615863323211670e-01 -7.133759558200836182e-02 -1.322073936462402344e+00 -4.006972908973693848e-01 8.832484483718872070e-02 4.295809566974639893e-01 7.536437511444091797e-01 -1.948801130056381226e-01 -2.435548603534698486e-01 7.220550775527954102e-01 3.437983989715576172e-01 1.763191819190979004e-01 -3.518911600112915039e-01 3.609924912452697754e-01 -5.196889042854309082e-01 -3.027892410755157471e-01 -3.576466143131256104e-01 -1.372945308685302734e-01 -2.029750645160675049e-01 -1.787213832139968872e-01 4.259947836399078369e-01 -4.635998979210853577e-02 -4.056796431541442871e-01 -9.865397810935974121e-01 3.830064237117767334e-01 2.985036969184875488e-01 -2.407184056937694550e-02 -6.021915674209594727e-01 5.197412371635437012e-01 4.036166369915008545e-01 4.785974919795989990e-01 -5.989474058151245117e-01 2.049158960580825806e-01 -9.660906344652175903e-02 -2.076247036457061768e-01 -8.173132687807083130e-02 7.228627800941467285e-01 2.785863876342773438e-01 -2.704572677612304688e-01 2.548430860042572021e-01 -6.240836977958679199e-01 2.133227884769439697e-01
-5.142601132392883301e-01 -5.126818418502807617e-01 -5.989154800772666931e-02 1.982830762863159180e-01 -1.516002863645553589e-01 7.629027962684631348e-02 -4.453036189079284668e-01 -2.762421965599060059e-01 5.954494699835777283e-02 -3.217023909091949463e-01 -2.055964060127735138e-02 -4.877932965755462646e-01 -4.426717758178710938e-01 4.822368919849395752e-02 7.738983631134033203e-01 -4.640272557735443115e-01 -4.070764482021331787e-01 -4.157732725143432617e-01 1.991813331842422485e-01 3.962274491786956787e-01 2.863068282604217529e-01 4.037421643733978271e-01 -9.121080487966537476e-02 -2.641906961798667908e-02 4.311681166291236877e-02 -1.171787306666374207e-01 -2.529312670230865479e-01 2.602870464324951172e-01 3.734003305435180664e-01 -2.807995676994323730e-01 -2.572735846042633057e-01 -3.430982828140258789e-01 -1.076017543673515320e-01 4.268976449966430664e-01 -2.384026199579238892e-01 -3.195302188396453857e-01 -5.213227495551109314e-02 -2.070001214742660522e-01 6.854929774999618530e-02 -4.503133296966552734e-01 2.446663230657577515e-01 2.630834877490997314e-01 -2.775206267833709717e-01 -3.583380877971649170e-01 -1.005269587039947510e-01 -4.492178186774253845e-02 -1.810670793056488037e-01 -7.794183492660522461e-01 -1.335785239934921265e-01 7.100196927785873413e-02
-2.731475830078125000e-01 -3.791004419326782227e-01 2.031328231096267700e-01 2.559219300746917725e-01 -2.852668464183807373e-01 7.076687365770339966e-02 -8.184030652046203613e-02 -9.777933359146118164e-02 9.688106924295425415e-02 -2.288554012775421143e-01 -2.176331132650375366e-01 -1.687526106834411621e-01 -3.697728514671325684e-01 -4.659218788146972656e-01 7.930967211723327637e-01 -1.252774149179458618e-01 -3.793641030788421631e-01 -1.464518010616302490e-01 -2.184763550758361816e-01 1.089762523770332336e-01 -3.302327394485473633e-01 1.804465502500534058e-01 -4.510045424103736877e-02 1.163272783160209656e-01 -2.175075262784957886e-01 5.314874649047851562e-02 -5.405935272574424744e-02 -3.009888827800750732e-01 -1.080188304185867310e-01 -2.094697505235671997e-01 -2.942581772804260254e-01 -9.890007972717285156e-01 3.247198462486267090e-01 1.460502892732620239e-01 2.740679122507572174e-02 -3.909011483192443848e-01 -7.470614463090896606e-02 2.157325446605682373e-01 -2.680723667144775391e-01 -3.665730059146881104e-01 -1.235118880867958069e-02 2.508040964603424072e-01 6.951542198657989502e-02 -5.054491758346557617e-01 1.401193588972091675e-01 5.748915672302246094e-02 -2.694174051284790039e-01 -2.186652123928070068e-01 -7.178406417369842529e-02 2.661530077457427979e-01
3.843904435634613037e-01 -1.186740472912788391e-01 -7.237761467695236206e-02 -2.228171378374099731e-02 -4.449022114276885986e-01 -5.162678956985473633e-01 -1.212630122900009155e-01 3.705784678459167480e-01 -2.372010469436645508e+00 -9.899741411209106445e-01 -2.402717173099517822e-01 -1.377964764833450317e-01 -6.972641944885253906e-01 -2.630295753479003906e-01 2.803238108754158020e-02 -1.947560459375381470e-01 -5.540077686309814453e-01 2.679375372827053070e-02 2.351076751947402954e-01 3.966471254825592041e-01 3.122007250785827637e-01 6.396313905715942383e-01 1.535802781581878662e-01 1.588198393583297729e-01 4.969691038131713867e-01 2.137306779623031616e-01 4.178919792175292969e-01 -3.097874820232391357e-01 -5.423208475112915039e-01 2.779267728328704834e-01 -6.453440785408020020e-01 -4.408026486635208130e-02 -2.230431884527206421e-01 -1.036992222070693970e-01 -2.909954190254211426e-01 -9.179689735174179077e-02 6.485029309988021851e-02 -3.074838221073150635e-01 3.192838430404663086e-01 -1.144174486398696899e-01 -2.454387545585632324e-01 -6.875293850898742676e-01 -2.810652256011962891e-01 1.396219581365585327e-01 -1.440071314573287964e-01 2.280940711498260498e-01 -1.036743149161338806e-01 5.064272880554199219e-02 2.519677877426147461e-01 2.035232819616794586e-02
-9.395701438188552856e-02 -1.026791483163833618e-01 2.285784929990768433e-01 -5.431292951107025146e-02 -6.967768073081970215e-03 1.208249032497406006e-01 -2.785906791687011719e-01 -2.510390579700469971e-01 -1.989870220422744751e-01 1.821242123842239380e-01 6.759518384933471680e-01 -4.119544848799705505e-02 8.486658334732055664e-02 -2.035799473524093628e-01 -6.034906953573226929e-02 1.204125806689262390e-01 4.348303079605102539e-01 -1.791437268257141113e-01 -1.147681251168251038e-01 -1.944283246994018555e-01 6.583292782306671143e-02 -2.958699464797973633e-01 2.519543468952178955e-01 6.470043957233428955e-02 1.360208243131637573e-01 -8.008698374032974243e-02 -4.761567711830139160e-01 5.959015339612960815e-02 3.983996063470840454e-02 1.121501773595809937e-01 7.264132797718048096e-02 -4.094999656081199646e-02 1.832324415445327759e-01 -1.868152469396591187e-01 3.442177176475524902e-01 -9.565837681293487549e-02 -5.122935771942138672e-01 -5.653868913650512695e-01 -4.832829833030700684e-01 -1.410275101661682129e-01 1.516993790864944458e-01 -1.621304154396057129e-01 -2.475559562444686890e-01 4.618950188159942627e-02 2.234870940446853638e-01 -1.393317729234695435e-01 -1.303376555442810059e+00 3.583525121212005615e-01 -1.107639789581298828e+00 3.788978978991508484e-02
-4.167443215847015381e-01 -4.029966890811920166e-01 1.785039305686950684e-01 9.265699386596679688e-01 -1.079167947173118591e-01 2.984163463115692139e-01 -5.030150711536407471e-02 -4.101515710353851318e-01 1.250293970108032227e+00 -1.467094421386718750e-01 -7.729719877243041992e-01 -5.485041141510009766e-01 -6.514128446578979492e-01 -1.616611003875732422e+00 6.589286774396896362e-02 -1.604701727628707886e-01 -3.264621496200561523e-01 6.621769070625305176e-01 2.677591692190617323e-04 -3.474096059799194336e-01 -2.891154587268829346e-01 2.230706363916397095e-01 -4.312561154365539551e-01 4.060370922088623047e-01 -3.707131445407867432e-01 -3.602400124073028564e-01 -2.775833308696746826e-01 -8.067117333412170410e-01 -4.874467849731445312e-01 -3.436660161241889000e-03 -2.781322896480560303e-01 3.320576623082160950e-02 6.167505979537963867e-01 -1.482272386550903320e+00 -1.036474555730819702e-01 -6.114232540130615234e-01 1.270110458135604858e-01 -9.251558780670166016e-02 -2.436463832855224609e-01 -1.342391073703765869e-01 5.641110539436340332e-01 1.234875991940498352e-01 -4.285491108894348145e-01 -9.052865505218505859e-01 2.229286581277847290e-01 -1.617041677236557007e-01 -1.091869831085205078e+00 -4.436289668083190918e-01 -1.256858110427856445e+00 2.442833334207534790e-01
-2.951426804065704346e-01 -9.918376803398132324e-01 1.287087917327880859e+00 3.887851163744926453e-02 -1.256776005029678345e-01 6.712929159402847290e-02 4.235714972019195557e-01 -1.897069811820983887e-01 -8.494682312011718750e-01 1.943026669323444366e-03 1.591698229312896729e-01 3.760937452316284180e-01 -5.883120298385620117e-01 -6.577789187431335449e-01 -2.668933868408203125e-01 4.107511341571807861e-01 -1.262118369340896606e-01 1.015426889061927795e-01 -3.425979614257812500e-01 -5.048828125000000000e-01 3.791454732418060303e-01 -9.251799583435058594e-01 3.411946594715118408e-01 2.753717303276062012e-01 2.798722386360168457e-01 3.210492432117462158e-01 -4.724491015076637268e-02 -2.288212031126022339e-01 2.091298401355743408e-01 -4.828569591045379639e-01 1.810393780469894409e-01 1.443517059087753296e-01 -3.628321290016174316e-01 -5.425956726074218750e+00 6.839381456375122070e-01 2.962595522403717041e-01 6.176829934120178223e-01 -4.057074487209320068e-01 -1.844726204872131348e-01 3.190922737121582031e-01 1.535664439201354980e+00 -6.653269529342651367e-01 -2.474514693021774292e-01 -5.448894202709197998e-02 9.891777038574218750e-01 3.352442756295204163e-02 -1.835523724555969238e+00 6.530237793922424316e-01 -3.509191572666168213e-01 5.914846807718276978e-02
-1.900807023048400879e-01 2.849254012107849121e-01 2.394820004701614380e-01 1.356037855148315430e-01 -4.979480504989624023e-01 -3.783468604087829590e-01 -4.442335665225982666e-01 -1.692229509353637695e-01 6.188811063766479492e-01 2.511849403381347656e-01 -2.625978887081146240e-01 -3.454703986644744873e-01 -2.488851249217987061e-01 -9.557207114994525909e-03 1.610014200210571289e+00 -5.064956545829772949e-01 -2.650806903839111328e-01 -9.781997650861740112e-02 3.180500864982604980e-01 3.402923047542572021e-01 -2.664015889167785645e-01 1.311157792806625366e-01 -2.708060145378112793e-01 -7.506596297025680542e-02 -4.289768338203430176e-01 4.208852946758270264e-01 -6.911675631999969482e-02 -2.428396493196487427e-01 -1.647691726684570312e-01 5.983431935310363770e-01 -4.902490675449371338e-01 -4.065354466438293457e-01 1.307400763034820557e-01 -2.856985032558441162e-01 -1.795087605714797974e-01 -3.861221671104431152e-01 -1.626274138689041138e-01 -2.443154109641909599e-03 -2.206535637378692627e-01 -7.508445978164672852e-01 -1.416087746620178223e-01 -1.477342993021011353e-01 1.288525909185409546e-01 -3.255257010459899902e-01 -2.021473646163940430e-01 2.430721819400787354e-01 -4.305087029933929443e-02 -1.258205920457839966e-01 -6.253563612699508667e-02 -6.624726206064224243e-02
1.633071154356002808e-01 9.013658855110406876e-04 3.004296720027923584e-01 -1.422905325889587402e-01 -9.631218910217285156e-01 -2.389344125986099243e-01 -5.348130464553833008e-01 3.871040791273117065e-02 3.283370435237884521e-01 1.363131105899810791e-01 -6.424480676651000977e-01 -5.527871251106262207e-01 -9.337649345397949219e-01 -1.649535179138183594e+00 3.265466392040252686e-01 -2.117976397275924683e-01 -3.100290596485137939e-01 1.691573262214660645e-01 1.200899183750152588e-01 4.666785299777984619e-01 -9.954999089241027832e-01 2.704483270645141602e-01 -3.236537277698516846e-01 -8.036269545555114746e-01 -5.971852540969848633e-01 5.632156729698181152e-01 -1.861432194709777832e-01 -1.305554986000061035e+00 -1.067438602447509766e+00 2.008848264813423157e-02 -1.846321225166320801e-01 -4.521549046039581299e-01 3.717540800571441650e-01 -1.261993646621704102e+00 2.132106125354766846e-01 -5.492061972618103027e-01 -1.474599540233612061e-01 3.489065766334533691e-01 1.052883714437484741e-01 -1.609517484903335571e-01 4.955099225044250488e-01 7.196506261825561523e-01 4.290413856506347656e-01 -7.112048268318176270e-01 1.802797168493270874e-01 -3.625667467713356018e-02 1.453132033348083496e-01 -8.614387363195419312e-02 -1.992005556821823120e-01 1.008293867111206055e+00
2.872984409332275391e-01 1.877464801073074341e-01 -6.162603199481964111e-02 -3.383522033691406250e-01 -4.905284941196441650e-01 -5.261238217353820801e-01 -1.622921973466873169e-01 1.437207907438278198e-01 3.843151628971099854e-01 4.922940954566001892e-02 -3.500090837478637695e-01 -3.911187946796417236e-01 -5.167666077613830566e-01 -3.837177157402038574e-01 6.089323163032531738e-01 -4.647036194801330566e-01 -4.096084833145141602e-02 2.141813337802886963e-01 -2.399702928960323334e-02 -1.512801349163055420e-01 -4.971382319927215576e-01 2.086944431066513062e-01 -4.939293265342712402e-01 -5.385380387306213379e-01 -1.921391636133193970e-01 -7.005839049816131592e-02 6.675610691308975220e-02 -3.609507381916046143e-01 -5.352394580841064453e-01 3.717616796493530273e-01 -1.089411377906799316e-01 -6.393341422080993652e-01 4.439867436885833740e-01 -2.245505005121231079e-01 -2.741954028606414795e-01 -1.029086932539939880e-01 1.579517573118209839e-01 2.215430140495300293e-01 3.139023184776306152e-01 -3.381637930870056152e-01 1.463664323091506958e-01 -3.174179196357727051e-01 1.902459114789962769e-01 -2.344505935907363892e-01 5.360469818115234375e-01 7.790114730596542358e-02 -1.880772262811660767e-01 7.047777771949768066e-01 1.101708933711051941e-01 3.918537124991416931e-02
3.503245860338211060e-02 3.111791424453258514e-02 1.777019143104553223e+00 3.602489531040191650e-01 6.443167924880981445e-01 2.722636163234710693e-01 3.587337732315063477e-01 1.077959537506103516e-01 -8.653633594512939453e-01 2.916316390037536621e-01 -9.373384714126586914e-02 4.164274632930755615e-01 4.603120088577270508e-01 1.491637229919433594e+00 -2.716692924499511719e+00 2.378162890672683716e-01 6.425762176513671875e-01 3.281766176223754883e-01 -2.244218587875366211e-01 -1.681767106056213379e+00 8.082858324050903320e-01 -2.090154647827148438e+00 3.690076768398284912e-01 4.519069194793701172e-01 6.303490996360778809e-01 -6.435778141021728516e-01 -3.629416525363922119e-01 7.353681325912475586e-01 5.628677010536193848e-01 -1.749554723501205444e-01 1.182330697774887085e-01 5.907765030860900879e-01 -8.241747617721557617e-01 -3.054956674575805664e+00 -1.703337579965591431e-01 3.993692994117736816e-01 -6.789413690567016602e-01 -7.819666862487792969e-01 -2.559793591499328613e-01 2.463962733745574951e-01 1.105498820543289185e-01 -1.710742831230163574e+00 -9.412241578102111816e-01 7.829904556274414062e-01 1.757167726755142212e-01 -6.246497035026550293e-01 -3.506149649620056152e-01 7.632256150245666504e-01 -2.963167428970336914e-01 -7.782651782035827637e-01
-6.336227655410766602e-01 -7.500149607658386230e-01 -3.677991032600402832e-02 -2.756091058254241943e-01 4.653798043727874756e-01 4.199582934379577637e-01 5.611774325370788574e-01 -3.175574243068695068e-01 -1.734244227409362793e+00 3.077412545680999756e-01 5.006877183914184570e-01 6.767469644546508789e-01 6.452901959419250488e-01 3.797099292278289795e-01 1.524548828601837158e-01 4.337587654590606689e-01 -2.981417775154113770e-01 -9.001426696777343750e-01 -4.360580742359161377e-01 -3.605587780475616455e-01 6.037014126777648926e-01 1.847100853919982910e-01 5.864565372467041016e-01 4.358342662453651428e-02 4.615256488323211670e-01 -4.043393433094024658e-01 -1.166678190231323242e+00 1.718550175428390503e-01 8.927394747734069824e-01 -7.780476212501525879e-01 3.428151309490203857e-01 -2.867573499679565430e-02 -1.531049311161041260e-01 5.443875193595886230e-01 -1.070279404520988464e-01 6.501070857048034668e-01 -4.351364374160766602e-01 -5.837593078613281250e-01 -4.156761169433593750e-01 1.463028937578201294e-01 5.206142067909240723e-01 -8.090187311172485352e-01 -1.475731730461120605e-01 5.682482719421386719e-01 -7.815288901329040527e-01 -4.987437725067138672e-01 -2.919029593467712402e-01 -6.855196356773376465e-01 -5.997303724288940430e-01 -7.631739377975463867e-01
2.071177586913108826e-02 4.482533037662506104e-01 -7.922242879867553711e-01 -1.240580797195434570e+00 -3.928999900817871094e-01 -2.352926582098007202e-01 -8.524351716041564941e-01 4.311057329177856445e-01 4.429569840431213379e-01 -7.373005747795104980e-01 4.413722157478332520e-01 -3.955798149108886719e-01 -1.643764972686767578e-01 4.284999966621398926e-01 2.382545948028564453e+00 -2.468422204256057739e-01 -5.341114997863769531e-01 6.477948278188705444e-02 5.532195046544075012e-02 8.569973707199096680e-01 -5.324365496635437012e-01 5.211532711982727051e-01 -5.741748809814453125e-01 -5.342401862144470215e-01 -4.411342144012451172e-01 4.431655630469322205e-02 7.659956812858581543e-02 -2.782080769538879395e-01 7.990226745605468750e-01 1.136944964528083801e-01 -4.289287030696868896e-01 -2.040067464113235474e-01 -8.324757218360900879e-01 -2.153901010751724243e-01 -1.600112617015838623e-01 -7.089962363243103027e-01 -2.555454075336456299e-01 -2.885342836380004883e-01 -7.567914575338363647e-02 -5.040791630744934082e-01 -1.006403207778930664e+00 -5.619471892714500427e-02 2.345544993877410889e-01 -4.156914651393890381e-01 -6.648880243301391602e-01 -3.216158151626586914e-01 6.057337522506713867e-01 -8.323153257369995117e-01 5.630536079406738281e-01 2.966507077217102051e-01
5.180433988571166992e-01 4.425776004791259766e-01 -1.201397061347961426e+00 7.150033712387084961e-01 -4.069470167160034180e-01 -1.150143668055534363e-01 -9.257225692272186279e-02 1.780315786600112915e-01 -6.095390915870666504e-01 -1.071940302848815918e+00 -7.686243653297424316e-01 -3.439942896366119385e-01 -1.140545010566711426e+00 -1.059958577156066895e+00 -1.189494729042053223e+00 -6.505857110023498535e-01 -2.886132895946502686e-01 8.315976262092590332e-01 1.407711058855056763e-01 -1.898094564676284790e-01 3.560768663883209229e-01 -4.957844018936157227e-01 -2.505734264850616455e-01 -8.724950253963470459e-02 6.379154324531555176e-02 -1.586135476827621460e-01 7.650480866432189941e-01 -1.880198568105697632e-01 -2.207330226898193359e+00 7.338466644287109375e-01 -2.737433314323425293e-01 -1.412133127450942993e-01 -9.951493740081787109e-01 2.322149753570556641e+00 -8.177864551544189453e-01 2.819549664855003357e-02 6.486724019050598145e-01 -8.833090215921401978e-02 5.015531182289123535e-01 -5.457016825675964355e-01 -1.125034809112548828e+00 -9.180511236190795898e-01 -1.166768837720155716e-02 1.930060535669326782e-01 1.429007798433303833e-01 6.239331960678100586e-01 2.010949134826660156e+00 -9.883841499686241150e-03 1.200110793113708496e+00 -3.801794648170471191e-01
1.793298521079123020e-03 -2.532290220260620117e-01 -2.396291820332407951e-03 4.204364120960235596e-01 2.278186827898025513e-01 2.243424532935023308e-04 -1.659094840288162231e-01 -4.317917823791503906e-01 4.767400622367858887e-01 4.665798246860504150e-01 5.138063430786132812e-01 2.867877483367919922e-02 1.705663800239562988e-01 -1.579792946577072144e-01 7.207167148590087891e-02 9.988472610712051392e-02 5.423347353935241699e-01 5.956971272826194763e-02 -4.902459084987640381e-01 -3.778704404830932617e-01 1.167069748044013977e-01 4.612803086638450623e-02 1.204992160201072693e-01 -2.767618596553802490e-01 -9.794400073587894440e-03 -5.782827138900756836e-01 -2.133015170693397522e-02 -8.812320232391357422e-02 -9.148638695478439331e-02 -1.490055117756128311e-02 1.413175314664840698e-01 3.636997342109680176e-01 3.085117042064666748e-01 4.672760069370269775e-01 -6.230338290333747864e-02 1.570044308900833130e-01 -4.973918497562408447e-01 -1.014832630753517151e-01 -5.800991654396057129e-01 9.903212636709213257e-02 3.683463931083679199e-01 -3.110016286373138428e-01 -1.857746243476867676e-01 2.063378691673278809e-01 -1.289180815219879150e-01 1.981990039348602295e-01 -6.189817786216735840e-01 2.881529629230499268e-01 -3.663430809974670410e-01 -1.288080364465713501e-01
-3.992024064064025879e-01 -4.208012819290161133e-01 5.486980080604553223e-01 -2.846407145261764526e-02 -3.632363304495811462e-02 2.617850005626678467e-01 1.928508430719375610e-01 -2.179062962532043457e-01 9.872193634510040283e-02 8.162433505058288574e-01 2.366267442703247070e-01 2.764057517051696777e-01 3.025228343904018402e-02 -9.287220984697341919e-02 5.628605484962463379e-01 -1.924691163003444672e-02 3.380893468856811523e-01 5.728456974029541016e-01 -2.961565554141998291e-01 -4.606633186340332031e-01 1.238186061382293701e-01 -3.315163776278495789e-02 6.160062551498413086e-02 3.718244843184947968e-03 3.962655663490295410e-01 9.452009946107864380e-02 -3.738255798816680908e-01 1.768522113561630249e-01 8.459259569644927979e-02 7.595995068550109863e-02 -6.962444633245468140e-02 1.649914532899856567e-01 5.443679541349411011e-02 -1.232503280043601990e-01 9.655267745256423950e-02 -1.221094951033592224e-01 -2.439565807580947876e-01 -3.472073376178741455e-01 -8.426442146301269531e-01 1.030369009822607040e-02 5.130372643470764160e-01 -4.222825169563293457e-01 -6.335358321666717529e-02 2.492986768484115601e-01 1.907179355621337891e-01 1.558325886726379395e-01 -7.415978312492370605e-01 1.596751064062118530e-01 -1.047211050987243652e+00 -3.022699356079101562e-01
-4.266829788684844971e-02 9.737960994243621826e-02 1.581556349992752075e-01 -3.388276696205139160e-01 -3.543096184730529785e-01 -1.218064874410629272e-01 -9.278649091720581055e-02 -7.355795800685882568e-02 2.358341403305530548e-02 -1.670793630182743073e-02 -4.210020005702972412e-01 -3.745749294757843018e-01 -1.950720250606536865e-01 -2.732654511928558350e-01 1.000546693801879883e+00 -3.226470947265625000e-01 -5.125641822814941406e-01 -1.001512855291366577e-01 -3.847489506006240845e-02 4.205138981342315674e-01 -7.561747729778289795e-02 1.254392564296722412e-01 3.391539677977561951e-02 -3.395874202251434326e-01 -3.390387296676635742e-01 -2.005444653332233429e-02 -3.222858533263206482e-02 -2.572394907474517822e-01 -3.032969236373901367e-01 -6.914050877094268799e-02 -4.632035642862319946e-02 -3.071925938129425049e-01 2.882071137428283691e-01 -1.639966666698455811e-01 -3.146472573280334473e-02 -2.495083063840866089e-01 -1.781364083290100098e-01 2.811525389552116394e-02 -7.321058958768844604e-02 -3.944142758846282959e-01 -1.144834794104099274e-02 2.907002866268157959e-01 2.712188065052032471e-01 -1.832190454006195068e-01 -4.097034335136413574e-01 -1.317064464092254639e-01 -2.087415307760238647e-01 -4.081273674964904785e-01 -2.020934224128723145e-01 2.286596894264221191e-01
-8.524288535118103027e-01 -2.722816467285156250e-01 6.406326591968536377e-02 1.081190466880798340e+00 2.886421978473663330e-01 5.712371468544006348e-01 3.366996943950653076e-01 -1.055937170982360840e+00 -1.207331195473670959e-01 1.972160488367080688e-01 -2.785752415657043457e-01 5.609953403472900391e-01 4.584027081727981567e-02 -1.974153332412242889e-02 3.573535978794097900e-01 5.096225142478942871e-01 1.085616499185562134e-01 -6.228500604629516602e-01 -5.338345170021057129e-01 -5.945927649736404419e-02 -2.168051153421401978e-02 2.895552515983581543e-01 2.927147746086120605e-01 5.268437862396240234e-01 6.894556879997253418e-01 -3.559136688709259033e-01 -7.579280138015747070e-01 3.520388901233673096e-02 1.533428132534027100e-01 -1.079713582992553711e+00 4.731350541114807129e-01 -1.561155170202255249e-02 -1.098738331347703934e-02 1.366762220859527588e-01 7.025272250175476074e-01 2.550012171268463135e-01 -6.832197904586791992e-01 -1.256513357162475586e+00 -5.987933278083801270e-01 3.236341178417205811e-01 2.851598858833312988e-01 -1.484991014003753662e-01 -1.091624423861503601e-01 1.874058395624160767e-01 -1.033700704574584961e+00 -1.040588259696960449e+00 1.608081758022308350e-01 -4.954438209533691406e-01 3.013577125966548920e-02 1.066461801528930664e-01
2.727675139904022217e-01 -1.110135093331336975e-01 -1.378694325685501099e-01 5.824174880981445312e-01 2.380508929491043091e-01 -6.856831908226013184e-01 -3.231911063194274902e-01 -2.429047785699367523e-02 1.575026512145996094e-01 2.236561626195907593e-01 1.151043102145195007e-01 -3.342224657535552979e-01 -1.121347304433584213e-02 2.607855945825576782e-02 2.062317132949829102e+00 -2.055001556873321533e-01 7.746177911758422852e-02 3.690506815910339355e-01 -1.171950250864028931e-01 3.332702070474624634e-02 -2.471273243427276611e-01 -1.452503800392150879e-01 -4.289029240608215332e-01 -4.485286772251129150e-01 -4.569158554077148438e-01 -2.799795269966125488e-01 -1.469341367483139038e-01 2.685722708702087402e-01 3.224251866340637207e-01 6.733577847480773926e-01 1.748022288084030151e-01 -4.717203229665756226e-02 -4.291774332523345947e-01 1.294325590133666992e-01 -8.902665227651596069e-02 9.020783938467502594e-03 -4.343248307704925537e-01 5.072675943374633789e-01 -7.159931212663650513e-02 -4.408992826938629150e-01 -2.156462967395782471e-01 -1.779909580945968628e-01 6.880064606666564941e-01 4.828585684299468994e-01 5.329965353012084961e-01 2.073558866977691650e-01 4.530155956745147705e-01 4.167138040065765381e-01 3.141196817159652710e-02 9.157014638185501099e-02
6.327343638986349106e-03 -1.144719272851943970e-01 -2.532744646072387695e+00 -4.393426477909088135e-01 -1.280009627342224121e+00 -5.280661582946777344e-01 -4.514803290367126465e-01 3.126713931560516357e-01 5.307331681251525879e-01 -7.498613595962524414e-01 -5.407329201698303223e-01 -4.613032341003417969e-01 -1.037968039512634277e+00 -8.296191096305847168e-01 -5.986044406890869141e-01 -9.293184615671634674e-03 2.266606092453002930e-01 -3.484881520271301270e-01 9.263184666633605957e-01 1.353788852691650391e+00 -2.700627446174621582e-01 2.707136392593383789e+00 -2.466261684894561768e-01 -7.980854511260986328e-01 -8.882514238357543945e-01 5.144440531730651855e-01 2.269475460052490234e-01 -1.106186151504516602e+00 -1.951619744300842285e+00 -1.625281870365142822e-01 -1.292640902101993561e-02 -4.843934476375579834e-01 -4.003423452377319336e-01 4.671844959259033203e+00 -5.681325793266296387e-01 -8.315861821174621582e-01 4.549540951848030090e-02 1.050601720809936523e+00 3.246541023254394531e-01 5.651286616921424866e-02 -1.281360983848571777e+00 1.323491811752319336e+00 4.055069088935852051e-01 -9.385806918144226074e-01 2.634361982345581055e-01 -2.417414262890815735e-02 1.914750695228576660e+00 -3.147375583648681641e-02 -1.701504349708557129e+00 2.381034940481185913e-01
-4.543644785881042480e-01 -1.405756235122680664e+00 1.121821999549865723e+00 9.217701554298400879e-01 -3.179402649402618408e-01 2.614748477935791016e-01 -5.885001737624406815e-03 -6.089327391237020493e-03 -8.680257201194763184e-01 3.991943299770355225e-01 2.325930744409561157e-01 3.422693610191345215e-01 -1.333133876323699951e-01 -1.873257607221603394e-01 -4.233959674835205078e+00 1.288432478904724121e-01 6.629815697669982910e-01 -1.262950943782925606e-03 -6.974690407514572144e-02 -3.179182767868041992e+00 4.305447936058044434e-01 -3.523766279220581055e+00 -1.501309126615524292e-01 8.542566001415252686e-02 1.644594669342041016e-01 -4.456315934658050537e-01 -2.416765093803405762e-01 -4.468922913074493408e-01 8.451572656631469727e-01 -1.696850508451461792e-01 1.609439849853515625e-01 -2.953275144100189209e-01 8.019426465034484863e-02 -2.507511973381042480e-01 4.739639163017272949e-01 3.642280101776123047e-01 -8.786721825599670410e-01 -5.181245207786560059e-01 -7.540524601936340332e-01 4.045525491237640381e-01 5.755717158317565918e-01 -1.145249724388122559e+00 8.192064166069030762e-01 4.218676388263702393e-01 2.831652462482452393e-01 -2.080966383218765259e-01 -1.535205006599426270e+00 -2.865449488162994385e-01 -6.722165346145629883e-01 5.669756233692169189e-02
-1.904682219028472900e-01 -3.181381821632385254e-01 -5.447904467582702637e-01 -1.536848783493041992e+00 9.692826271057128906e-01 -1.827043145895004272e-01 1.082123592495918274e-01 -3.938331902027130127e-01 2.368989229202270508e+00 3.954174518585205078e-01 1.285157799720764160e-01 2.005903869867324829e-01 8.198453783988952637e-01 1.488296151161193848e+00 -6.355707049369812012e-01 8.103605508804321289e-01 2.357153892517089844e-01 -1.737995505332946777e+00 -7.139397859573364258e-01 -3.123169243335723877e-01 8.306091427803039551e-01 -6.954364180564880371e-01 6.454137563705444336e-01 5.755452513694763184e-01 1.196280241012573242e+00 -1.164692640304565430e+00 -3.963116705417633057e-01 6.864566802978515625e-01 9.294034838676452637e-01 -1.266584038734436035e+00 8.611049056053161621e-01 2.111356735229492188e+00 -1.643264740705490112e-01 2.014268785715103149e-01 1.343643903732299805e+00 9.915773570537567139e-02 -1.036114573478698730e+00 -8.660134673118591309e-02 -3.317447602748870850e-01 8.879762142896652222e-02 -1.063787698745727539e+00 6.671537160873413086e-01 -1.706107139587402344e+00 4.512720108032226562e-01 -9.098653793334960938e-01 -1.161571145057678223e+00 1.889629364013671875e-01 1.325189948081970215e+00 5.732261538505554199e-01 -1.244171977043151855e+00
-6.506143808364868164e-01 -6.732252240180969238e-01 3.547147750854492188e+00 -2.392488569021224976e-01 7.540349960327148438e-01 -1.342639178037643433e-01 6.654782295227050781e-01 -2.291895449161529541e-01 1.471721101552248001e-02 1.897851347923278809e+00 -4.041065275669097900e-02 5.541585087776184082e-01 6.795752644538879395e-01 2.058093100786209106e-01 -3.607640787959098816e-02 1.023027896881103516e+00 1.183665156364440918e+00 2.648582458496093750e-01 -8.825820684432983398e-01 -1.068587064743041992e+00 -3.699297606945037842e-01 -2.010331153869628906e+00 8.513166904449462891e-01 -3.486126288771629333e-02 5.111949443817138672e-01 -4.949649572372436523e-01 -7.799620032310485840e-01 1.012404412031173706e-01 -2.099373340606689453e+00 2.851332426071166992e-01 8.599739670753479004e-01 6.102473735809326172e-01 1.321307539939880371e+00 -5.070182800292968750e+00 7.449748516082763672e-01 4.713794589042663574e-01 -8.934823870658874512e-01 -2.517473101615905762e-01 -9.550759196281433105e-01 8.824552297592163086e-01 1.267454624176025391e+00 2.687334716320037842e-01 -1.633229255676269531e-01 5.294574499130249023e-01 3.392395377159118652e-01 -3.899898529052734375e-01 1.878252476453781128e-01 6.958859562873840332e-01 -6.008505821228027344e-01 1.999848932027816772e-01
1.430599391460418701e-01 -3.081608414649963379e-01 9.381975978612899780e-02 -7.157841324806213379e-02 -4.566950500011444092e-01 -2.548885047435760498e-01 -2.810997366905212402e-01 2.736788615584373474e-02 -1.617194414138793945e-01 -1.843711137771606445e-01 -4.658921957015991211e-01 -2.344835549592971802e-01 -3.386877775192260742e-01 -4.286315441131591797e-01 7.571921944618225098e-01 -1.652662456035614014e-01 -3.268783092498779297e-01 -3.533320128917694092e-01 -2.975297272205352783e-01 2.743142843246459961e-01 -2.504701614379882812e-01 3.466359153389930725e-02 -2.173256129026412964e-02 -1.394267380237579346e-01 -2.203644663095474243e-01 7.791201584041118622e-03 -3.148630261421203613e-01 -4.623446241021156311e-02 -3.594659864902496338e-01 -1.267543584108352661e-01 -2.481146156787872314e-01 -1.863448321819305420e-01 -1.009874325245618820e-02 -2.869458496570587158e-01 -1.535218358039855957e-01 -6.695575267076492310e-02 -1.130163744091987610e-01 8.038491755723953247e-02 -3.141122758388519287e-01 -1.637303978204727173e-01 -1.012079864740371704e-01 3.037596344947814941e-01 3.468120694160461426e-01 -5.245943069458007812e-01 -1.574084907770156860e-01 -1.705119907855987549e-01 -4.090737402439117432e-01 1.248396635055541992e-01 -2.863271534442901611e-01 9.648388624191284180e-02
5.863662436604499817e-02 -1.051517248153686523e+00 1.426409006118774414e+00 4.033248722553253174e-01 6.908879280090332031e-01 -6.182742714881896973e-01 1.558509916067123413e-01 2.046922743320465088e-01 1.267117261886596680e-02 -2.127643078565597534e-01 -3.030509650707244873e-01 4.373223707079887390e-02 2.265852130949497223e-02 -1.173403859138488770e+00 -4.072622776031494141e+00 -6.550624370574951172e-01 -7.130540609359741211e-01 -1.214488968253135681e-01 -4.306770861148834229e-01 5.653866529464721680e-01 1.063201904296875000e+00 1.558248758316040039e+00 -3.432019352912902832e-01 1.427947282791137695e+00 1.027926564216613770e+00 -7.021425366401672363e-01 -6.201573461294174194e-02 9.578664302825927734e-01 -1.621446371078491211e+00 6.654553413391113281e-01 -1.058052420616149902e+00 1.070547938346862793e+00 -2.174409151077270508e+00 -1.386248588562011719e+00 -1.698193788528442383e+00 -5.307025313377380371e-01 5.969895720481872559e-01 -9.770931005477905273e-01 1.508636623620986938e-01 -5.624944567680358887e-01 -5.322716236114501953e-01 -5.928262136876583099e-03 -1.169915080070495605e+00 4.284451901912689209e-01 -3.325930535793304443e-01 -1.362132281064987183e-01 -5.516270175576210022e-02 1.000387191772460938e+00 -8.008915781974792480e-01 -1.689407467842102051e+00
-1.415457278490066528e-01 -4.415170550346374512e-01 -2.902581095695495605e-01 -9.032696485519409180e-02 4.076748192310333252e-01 1.512088067829608917e-02 -3.493238985538482666e-02 -4.902780428528785706e-02 -3.794662058353424072e-01 -1.241755322553217411e-03 1.862207949161529541e-01 -7.115878909826278687e-02 1.604735106229782104e-01 5.985802412033081055e-01 -1.559661794453859329e-02 -6.028580665588378906e-02 -1.055623963475227356e-01 7.414781022816896439e-03 -1.195818036794662476e-01 1.422073990106582642e-01 6.056578755378723145e-01 -1.539607644081115723e-01 -2.354718931019306183e-02 3.041921854019165039e-01 2.179221361875534058e-01 -3.572124838829040527e-01 -1.168350279331207275e-01 2.476455122232437134e-01 1.009414792060852051e+00 3.788504377007484436e-02 -9.732113033533096313e-02 -1.310575902462005615e-01 -3.584557771682739258e-02 6.618381738662719727e-01 -3.531790673732757568e-01 -2.881372570991516113e-01 2.831645607948303223e-01 -7.370475679636001587e-02 1.303728073835372925e-01 -2.098418176174163818e-01 -3.785867989063262939e-01 -5.828210711479187012e-01 -3.848169445991516113e-01 3.487302958965301514e-01 2.571081519126892090e-01 -4.583204165101051331e-02 -8.342286348342895508e-01 9.570398181676864624e-02 -2.565653324127197266e-01 -2.336469292640686035e-01
-2.902627550065517426e-02 -1.505181789398193359e-01 2.896048426628112793e-01 4.149064719676971436e-01 -6.490702629089355469e-01 -1.523732244968414307e-01 -2.482033967971801758e-01 1.089361086487770081e-01 5.123147964477539062e-01 -9.809271246194839478e-02 -1.055499434471130371e+00 -4.715236723423004150e-01 -6.003040671348571777e-01 -1.689653158187866211e+00 5.993666648864746094e-01 -1.136097908020019531e-01 -5.179318189620971680e-01 -6.793127954006195068e-02 2.246060818433761597e-01 4.793267324566841125e-02 -7.964914441108703613e-01 5.458105206489562988e-01 -1.266045719385147095e-01 -3.706412017345428467e-01 -6.731966137886047363e-01 4.930806457996368408e-01 4.344721883535385132e-02 -9.715866446495056152e-01 -7.677495479583740234e-01 6.623086333274841309e-02 -5.148711800575256348e-01 -6.372741460800170898e-01 1.668567955493927002e-01 -1.237702131271362305e+00 -1.544390432536602020e-02 -6.399970650672912598e-01 4.698497802019119263e-02 3.448047339916229248e-01 2.983081340789794922e-01 -4.053906202316284180e-01 3.021332025527954102e-01 5.303192138671875000e-01 2.843359708786010742e-01 -6.108122467994689941e-01 -1.462740302085876465e-01 -2.014980614185333252e-01 3.101226985454559326e-01 -3.481431901454925537e-01 1.136327832937240601e-01 9.927743077278137207e-01
1.820167601108551025e-01 -1.212452352046966553e-02 2.996121048927307129e-01 1.285883635282516479e-01 -6.398029327392578125e-01 -1.186919510364532471e-01 -3.064222037792205811e-01 5.664100870490074158e-02 8.654766716063022614e-03 -5.400245264172554016e-02 -7.725068926811218262e-01 -1.751827448606491089e-01 -1.523694694042205811e-01 -1.132581532001495361e-01 3.387638926506042480e-01 -2.053372412919998169e-01 3.186517208814620972e-02 -1.131756603717803955e-01 2.087085694074630737e-01 -1.387687772512435913e-01 -1.746183186769485474e-01 -4.859666898846626282e-02 4.873605910688638687e-03 -4.952097535133361816e-01 -9.158021211624145508e-02 3.165652155876159668e-01 1.135233864188194275e-01 -4.141414463520050049e-01 -1.251960396766662598e-01 -1.663049012422561646e-01 -9.030776470899581909e-02 -4.822373688220977783e-01 1.625774502754211426e-01 -2.563428282737731934e-01 -9.412802010774612427e-02 -1.994650065898895264e-02 2.120918482542037964e-01 3.001265525817871094e-01 -9.222288429737091064e-02 -8.547514677047729492e-02 7.386998832225799561e-02 3.426982164382934570e-01 2.929436266422271729e-01 -1.509192585945129395e-01 -2.207933217287063599e-01 2.201076000928878784e-01 -3.696836903691291809e-02 2.260262966156005859e-01 -1.654930710792541504e-01 5.474759936332702637e-01
1.037751212716102600e-01 -3.897139728069305420e-01 -2.679903991520404816e-02 -4.106851220130920410e-01 -4.769336283206939697e-01 7.905178070068359375e-01 2.379041761159896851e-01 -2.042163163423538208e-01 -1.360651850700378418e+00 -5.129326879978179932e-02 -1.979095697402954102e+00 1.317497193813323975e-01 -9.986813068389892578e-01 -3.235794305801391602e-01 -2.459666430950164795e-01 3.341622352600097656e-01 -1.919515989720821381e-02 -2.988638281822204590e-01 -1.055340394377708435e-01 -4.779783189296722412e-01 -3.443545997142791748e-01 -9.058772325515747070e-01 2.225138992071151733e-01 -7.021965831518173218e-02 -5.841650366783142090e-01 -7.192054390907287598e-02 -2.038728594779968262e-01 -6.565509438514709473e-01 -6.773493885993957520e-01 -8.630728125572204590e-01 2.118219286203384399e-01 -8.846367597579956055e-01 5.482243895530700684e-01 -1.812960952520370483e-02 1.846749037504196167e-01 4.397361278533935547e-01 7.113321423530578613e-01 2.724445052444934845e-02 4.730699956417083740e-01 3.616330623626708984e-01 7.443855404853820801e-01 -2.634495198726654053e-01 6.884927153587341309e-01 -6.416880339384078979e-02 6.450868844985961914e-01 -6.106610894203186035e-01 -2.295451313257217407e-01 -3.024323880672454834e-01 9.501977562904357910e-01 4.131473302841186523e-01
