-2.414484173059463501e-01
-1.262496560811996460e-01
-4.607740044593811035e-01
-1.675927937030792236e-01
-2.124186754226684570e-01
3.917365521192550659e-02
-4.733096361160278320e-01
-3.032625019550323486e-01
2.065780758857727051e-01
-1.897295862436294556e-01
-8.579989075660705566e-01
-4.057884514331817627e-01
-3.118172101676464081e-02
-4.417302906513214111e-01
-1.314122229814529419e-02
-3.299423456192016602e-01
-9.966061264276504517e-02
8.318798989057540894e-02
-2.120034247636795044e-01
2.616044282913208008e-01
-1.601071059703826904e-01
1.255938857793807983e-01
-3.889587223529815674e-01
-8.870560675859451294e-02
-5.155922770500183105e-01
1.860850118100643158e-02
-1.449078917503356934e-01
-3.440850675106048584e-01
8.219597488641738892e-02
-2.062981724739074707e-01
-2.846907675266265869e-01
-6.158497333526611328e-01
-2.147276103496551514e-01
-9.940624237060546875e-02
-2.328261137008666992e-01
5.060746520757675171e-02
-2.958067357540130615e-01
-1.712714433670043945e-01
-3.091332316398620605e-01
-3.410866558551788330e-01
2.223320007324218750e-01
2.508286759257316589e-02
-9.473826736211776733e-02
2.547400891780853271e-01
4.618599712848663330e-01
-5.239206925034523010e-02
-1.045296937227249146e-01
-1.910707056522369385e-01
-1.538731455802917480e-01
1.137322410941123962e-01
