2.395524233579635620e-01
-1.069669052958488464e-01
2.750942707061767578e-01
4.098597764968872070e-01
-7.767630368471145630e-02
8.894993364810943604e-02
-7.094222307205200195e-01
4.380525648593902588e-01
2.968165837228298187e-02
5.078064203262329102e-01
4.311786592006683350e-02
9.391706585884094238e-01
-8.081767559051513672e-01
-9.906818866729736328e-01
-1.008458957076072693e-01
5.688219666481018066e-01
3.125934004783630371e-01
2.149827331304550171e-01
-8.262973427772521973e-01
-2.430058002471923828e+00
-4.303794503211975098e-01
-2.128682881593704224e-01
-5.567790269851684570e-01
-4.559828042984008789e-01
-5.919149518013000488e-01
1.128078937530517578e+00
1.222607046365737915e-01
2.827619910240173340e-01
-7.120509743690490723e-01
5.946365594863891602e-01
2.264832332730293274e-02
1.007362008094787598e+00
9.003099203109741211e-01
-8.913877010345458984e-01
-1.975834667682647705e-01
5.590201616287231445e-01
2.829740056768059731e-03
-4.637085199356079102e-01
-2.729456424713134766e+00
-1.646073609590530396e-01
2.371160387992858887e-01
1.157793402671813965e+00
-5.373481512069702148e-01
1.769121885299682617e+00
-5.614203810691833496e-01
1.827297806739807129e-01
-3.566853106021881104e-01
4.218300282955169678e-01
-7.306294441223144531e-01
1.845114864408969879e-02
