-5.859144330024719238e-01 -4.311966896057128906e-01 -1.468118280172348022e-01 -5.560590624809265137e-01 -2.659258842468261719e-01 1.167908981442451477e-01 -5.911894440650939941e-01 3.198630809783935547e-01 -4.454469680786132812e-02 4.760331287980079651e-02 -3.286783397197723389e-01 -8.962772488594055176e-01 -7.173230499029159546e-02 -1.071794033050537109e+00 2.396797537803649902e-01 -4.379588365554809570e-01 5.200537294149398804e-02 -1.934321671724319458e-01 -3.337484002113342285e-01 5.532897636294364929e-02 -4.729239046573638916e-01 -6.163321733474731445e-01 -3.178073465824127197e-01 -4.049884155392646790e-02 -6.546847820281982422e-01 3.387754783034324646e-02 -7.317851781845092773e-01 -4.290477931499481201e-01 2.356622964143753052e-01 -2.103081792593002319e-01 -3.435870110988616943e-01 -8.620597124099731445e-01 -4.031536877155303955e-01 -1.659994274377822876e-01 -2.972315549850463867e-01 -6.372963190078735352e-01 -9.235411137342453003e-02 8.035057783126831055e-02 -5.583574771881103516e-01 -2.090415656566619873e-01 -1.180011034011840820e+00 -5.774859189987182617e-01 -3.238696232438087463e-02 -7.548732161521911621e-01 -3.751751482486724854e-01 -5.234867930412292480e-01 -4.825659990310668945e-01 -7.063560485839843750e-01 -8.293866366147994995e-02 -1.696849018335342407e-01
-6.196740083396434784e-03 -2.493354678153991699e-01 -2.197528928518295288e-01 3.756931424140930176e-01 1.379705071449279785e-01 2.257657945156097412e-01 -5.010498687624931335e-02 2.976139485836029053e-01 -3.075381517410278320e-01 -2.394003719091415405e-01 -3.203779458999633789e-01 -3.525702282786369324e-02 9.560996666550636292e-03 1.683392673730850220e-01 1.256255712360143661e-02 -9.577950090169906616e-02 -2.135936617851257324e-01 -4.951414093375205994e-02 6.317722797393798828e-02 5.832770466804504395e-01 5.492127537727355957e-01 1.385088413953781128e-01 -1.059118211269378662e-01 -4.205170571804046631e-01 9.082311391830444336e-02 -3.731098473072052002e-01 -1.406144723296165466e-02 9.976303577423095703e-02 4.134005308151245117e-01 5.621222779154777527e-02 2.206499278545379639e-01 -1.310113370418548584e-01 4.143738374114036560e-02 2.855890989303588867e-01 1.891048401594161987e-01 -2.796764969825744629e-01 1.442257314920425415e-01 -2.083991467952728271e-02 2.733663022518157959e-01 1.008857339620590210e-01 -7.473461627960205078e-01 3.778017163276672363e-01 3.043465688824653625e-02 -3.583636283874511719e-01 3.808096349239349365e-01 5.998901724815368652e-01 3.752814233303070068e-01 1.915445774793624878e-01 -1.113582104444503784e-01 7.830396294593811035e-01
-2.016309946775436401e-01 1.334244012832641602e-01 -8.996816873550415039e-01 -3.862988948822021484e-02 -6.009920835494995117e-01 -1.080108880996704102e-01 -6.766735315322875977e-01 -8.563486933708190918e-01 5.063630938529968262e-01 -7.422753572463989258e-01 -9.451176524162292480e-01 -4.617702960968017578e-01 1.408607363700866699e-01 -9.201025962829589844e-01 -8.200562000274658203e-02 -6.458860635757446289e-01 1.088207811117172241e-01 -2.647913396358489990e-01 4.551765974611043930e-03 2.086637765169143677e-01 -2.108306735754013062e-01 4.371896982192993164e-01 -8.381562232971191406e-01 2.263307273387908936e-01 -3.936087787151336670e-01 2.320232056081295013e-02 1.642589457333087921e-02 -5.213108062744140625e-01 -4.878434538841247559e-01 -4.788785874843597412e-01 -5.537232756614685059e-01 -7.370477318763732910e-01 -4.821262955665588379e-01 -6.447421014308929443e-02 -2.361873090267181396e-01 -1.744748204946517944e-01 -7.902547121047973633e-01 -3.958653509616851807e-01 -7.772924304008483887e-01 -3.186567127704620361e-01 1.479066461324691772e-01 -8.440165966749191284e-02 6.147091463208198547e-02 9.576849341392517090e-01 5.408735275268554688e-01 3.956040018238127232e-04 8.580782264471054077e-02 -3.200389742851257324e-01 -3.351980447769165039e-01 5.637080222368240356e-02
4.292942583560943604e-01 4.254935681819915771e-01 6.251170635223388672e-01 2.022486031055450439e-01 -1.163599193096160889e-01 5.731500983238220215e-01 -2.665591835975646973e-01 5.314232707023620605e-01 7.676693145185709000e-03 -2.272978425025939941e-02 -2.085415571928024292e-01 3.441036492586135864e-02 3.038343489170074463e-01 3.516275584697723389e-01 1.033230721950531006e-01 2.845388054847717285e-01 -3.037810623645782471e-01 2.529915273189544678e-01 4.569446295499801636e-02 1.344769477844238281e+00 6.002910137176513672e-01 3.554202020168304443e-01 2.287069708108901978e-01 -2.788600325584411621e-01 -2.082002013921737671e-01 -3.985431194305419922e-01 3.250952661037445068e-01 2.207428216934204102e-02 1.385234236717224121e+00 -2.773255109786987305e-01 -2.462485730648040771e-01 2.794921398162841797e-01 -2.755695767700672150e-02 2.577808499336242676e-01 -1.135360077023506165e-02 -4.114840328693389893e-01 1.610041260719299316e-01 1.774694472551345825e-01 3.109810948371887207e-01 2.357855252921581268e-02 -4.064081907272338867e-01 5.596979260444641113e-01 -3.224382102489471436e-01 2.880382835865020752e-01 9.589953422546386719e-01 9.730501770973205566e-01 1.331303715705871582e-01 4.071332812309265137e-01 -7.124717347323894501e-03 1.022181272506713867e+00
-2.796761691570281982e-01 -3.793387115001678467e-01 3.944506049156188965e-01 -4.418677091598510742e-01 -6.629842519760131836e-02 -1.151386648416519165e-01 -8.516908884048461914e-01 4.824771285057067871e-01 -1.811457723379135132e-01 -8.149273693561553955e-02 -3.835089802742004395e-01 -6.362931132316589355e-01 2.198013709858059883e-03 -5.300239920616149902e-01 3.628420233726501465e-01 -1.370067149400711060e-02 -2.357663810253143311e-01 -1.041571870446205139e-01 -1.047391965985298157e-01 -2.360961884260177612e-01 -5.032275319099426270e-01 -7.049331665039062500e-01 1.347889541648328304e-03 -8.192944526672363281e-02 -6.490741968154907227e-01 8.869648911058902740e-03 -2.074951678514480591e-01 -3.595484793186187744e-01 -2.217031121253967285e-01 -1.575882732868194580e-01 -4.665873050689697266e-01 -9.129871129989624023e-01 -4.933261275291442871e-01 -1.006387695670127869e-01 -5.180360674858093262e-01 -5.704297423362731934e-01 -1.875497847795486450e-01 -8.603795617818832397e-02 -7.030870914459228516e-01 -3.434001207351684570e-01 -1.709297418594360352e+00 6.790437102317810059e-01 -9.381119012832641602e-01 -1.539394021034240723e+00 -5.419321060180664062e-01 -3.485979139804840088e-01 -1.918611228466033936e-01 -2.680231332778930664e-01 4.221262410283088684e-02 -3.066585361957550049e-01
-4.178292453289031982e-01 -3.455067276954650879e-01 -3.923969864845275879e-01 2.968387007713317871e-01 7.368433475494384766e-02 5.358296632766723633e-01 2.000971697270870209e-02 -2.419938743114471436e-01 2.087856382131576538e-01 -9.314991533756256104e-02 -7.109082341194152832e-01 -5.367455482482910156e-01 4.489501416683197021e-01 -8.001305162906646729e-02 -2.151412218809127808e-01 -2.180587314069271088e-02 -2.169463634490966797e-01 2.664916217327117920e-01 2.460349500179290771e-01 6.555405855178833008e-01 -1.363557726144790649e-01 5.094401836395263672e-01 -3.502659201622009277e-01 -4.035748541355133057e-01 -6.541917324066162109e-01 -5.089857578277587891e-01 1.300672255456447601e-02 7.184805721044540405e-02 9.033191949129104614e-02 5.216204002499580383e-02 -3.444422408938407898e-02 -4.037298858165740967e-01 3.564881086349487305e-01 -4.893875122070312500e-02 2.644338011741638184e-01 5.664201378822326660e-01 5.518093705177307129e-02 2.119189798831939697e-01 -6.060573831200599670e-02 1.076639592647552490e-01 9.873529076576232910e-01 -2.054898738861083984e-01 -1.984929740428924561e-01 -2.865949869155883789e-01 8.331207633018493652e-01 -1.632884889841079712e-02 1.390879601240158081e-01 2.367740683257579803e-02 7.288413494825363159e-02 3.252941966056823730e-01
-2.136349529027938843e-01 -2.245260179042816162e-01 -1.150812864303588867e+00 -4.120605587959289551e-01 -5.046749114990234375e-01 -1.631154567003250122e-01 -4.252612292766571045e-01 -6.711757779121398926e-01 -8.221460878849029541e-02 -5.847711563110351562e-01 -5.875000953674316406e-01 -3.898407518863677979e-01 7.123365532606840134e-03 -5.847855210304260254e-01 9.363492578268051147e-02 -6.337573528289794922e-01 -8.662994951009750366e-02 -2.685500085353851318e-01 -1.949054151773452759e-01 -1.246311590075492859e-01 -1.440115123987197876e-01 2.342613190412521362e-01 -1.042618513107299805e+00 1.012033671140670776e-01 -3.915082514286041260e-01 7.817406952381134033e-02 -3.336419537663459778e-02 -6.475262045860290527e-01 -6.084010004997253418e-01 -1.472202390432357788e-01 -6.601048707962036133e-01 -5.324987173080444336e-01 -6.727417707443237305e-01 -3.577488958835601807e-01 -7.216061949729919434e-01 -3.091402053833007812e-01 -6.935858726501464844e-01 -5.063552260398864746e-01 -3.760808706283569336e-01 -7.397339344024658203e-01 -2.325177639722824097e-01 1.026145145297050476e-01 -1.240803301334381104e-01 4.803066253662109375e-01 5.826280117034912109e-01 -1.387379765510559082e-01 -4.917428195476531982e-01 1.091650351881980896e-01 -5.793272256851196289e-01 1.232830435037612915e-01
-2.014997303485870361e-01 2.789407968521118164e-02 1.479856371879577637e+00 -1.705698370933532715e-01 4.845410585403442383e-01 6.097899675369262695e-01 -1.518823802471160889e-01 1.155373454093933105e+00 1.393881812691688538e-02 9.039229154586791992e-01 -2.047201991081237793e-01 -3.725232928991317749e-02 5.866445973515510559e-02 5.777975320816040039e-01 1.635090708732604980e-01 7.556845545768737793e-01 -2.622397541999816895e-01 1.017525434494018555e+00 2.368971891701221466e-02 1.163227438926696777e+00 2.627568244934082031e-01 -1.065661851316690445e-02 1.006738185882568359e+00 -1.687210798263549805e-01 -7.197286188602447510e-02 -4.184223115444183350e-01 7.747342437505722046e-02 1.060627922415733337e-01 1.972445726394653320e+00 -3.330812230706214905e-02 -3.845335915684700012e-02 -2.641337551176548004e-02 2.787549793720245361e-01 2.203399688005447388e-01 1.214884072542190552e-01 -2.465270757675170898e-01 4.702847301959991455e-01 2.382711172103881836e-01 9.293575286865234375e-01 1.881556808948516846e-01 -1.078625023365020752e-01 4.923999011516571045e-01 -9.293957948684692383e-01 4.291351735591888428e-01 9.618976116180419922e-01 9.770056009292602539e-01 6.557809710502624512e-01 2.438274472951889038e-01 2.106008380651473999e-01 9.318107366561889648e-01
-1.296610683202743530e-01 -6.043801084160804749e-02 7.182972431182861328e-01 1.869065761566162109e-01 6.058696508407592773e-01 4.271228611469268799e-01 -6.331913173198699951e-03 2.590576112270355225e-01 5.419428944587707520e-01 7.286354303359985352e-01 -5.379011631011962891e-01 7.953848689794540405e-02 3.039957284927368164e-01 -2.327330112457275391e-01 -2.057649344205856323e-01 5.751850008964538574e-01 -1.020594090223312378e-01 1.448335289955139160e+00 -1.267665922641754150e-01 8.097131848335266113e-01 -3.468319028615951538e-02 2.114770114421844482e-01 4.702693521976470947e-01 -1.086621135473251343e-01 -1.019408628344535828e-01 -5.116510987281799316e-01 -1.263286769390106201e-01 1.518115103244781494e-01 1.113345026969909668e+00 3.728324770927429199e-01 3.390199840068817139e-01 -3.857673406600952148e-01 1.670928597450256348e-01 6.392526626586914062e-02 5.046039223670959473e-01 5.329995751380920410e-01 3.977933824062347412e-01 3.097946643829345703e-01 3.564109504222869873e-01 4.456567764282226562e-01 9.819470643997192383e-01 -2.044782042503356934e-01 -1.073495373129844666e-01 -6.313130259513854980e-02 7.562228441238403320e-01 1.114863753318786621e-01 6.224058270454406738e-01 2.809219956398010254e-01 4.250306487083435059e-01 1.375518590211868286e-01
-4.476108253002166748e-01 2.279887720942497253e-02 1.767337173223495483e-01 -1.946570128202438354e-01 -4.468024969100952148e-01 6.028997153043746948e-02 -5.635694265365600586e-01 4.246736168861389160e-01 -6.315003335475921631e-02 -3.984807729721069336e-01 -8.265098333358764648e-01 -4.099065065383911133e-01 -3.725850284099578857e-01 -7.502878904342651367e-01 7.397081255912780762e-01 -1.908640563488006592e-01 5.238373875617980957e-01 -1.497422009706497192e-01 -2.733923196792602539e-01 -4.378311038017272949e-01 -4.482423067092895508e-01 -3.140714168548583984e-01 -2.444854751229286194e-02 2.603231966495513916e-01 -3.509925603866577148e-01 6.566079854965209961e-01 -4.120825603604316711e-02 -6.951977014541625977e-01 -9.077609777450561523e-01 -3.063788712024688721e-01 -4.213398396968841553e-01 -5.005105137825012207e-01 -6.201601028442382812e-01 -1.983005702495574951e-01 -1.140605062246322632e-01 -1.214510202407836914e+00 -4.518127739429473877e-01 -5.151710510253906250e-01 -3.820867538452148438e-01 -7.247441411018371582e-01 -1.546916127204895020e+00 6.638000011444091797e-01 -7.659410834312438965e-01 -5.696572661399841309e-01 -4.145500659942626953e-01 -5.581324696540832520e-01 -1.784076690673828125e-01 -3.696706593036651611e-01 -4.332271814346313477e-01 -4.823856949806213379e-01
2.500392869114875793e-02 -1.477291062474250793e-02 8.199022412300109863e-01 -9.466097503900527954e-02 -1.025282293558120728e-01 4.099108874797821045e-01 -3.307137191295623779e-01 4.547219872474670410e-01 5.916153639554977417e-02 4.035442173480987549e-01 -3.862855434417724609e-01 -7.901741564273834229e-02 1.034913733601570129e-01 -3.318571746349334717e-01 -1.875507533550262451e-01 1.717237979173660278e-01 -2.852019667625427246e-01 5.535761117935180664e-01 -2.013765275478363037e-02 6.771262288093566895e-01 1.959660798311233521e-01 1.233833059668540955e-01 3.463222384452819824e-01 -3.495394587516784668e-01 -5.482873320579528809e-01 -3.073220551013946533e-01 1.274903267621994019e-01 -2.889017760753631592e-01 5.061553716659545898e-01 2.572780549526214600e-01 -1.447337418794631958e-01 -4.927678406238555908e-01 2.217640429735183716e-01 4.806186854839324951e-01 2.972503602504730225e-01 -1.330921053886413574e-01 3.837703913450241089e-02 2.893487215042114258e-01 -3.042398095130920410e-01 -7.355716824531555176e-02 3.117800131440162659e-02 4.409489035606384277e-02 -9.059026092290878296e-02 -3.479281365871429443e-01 3.621244430541992188e-01 8.070414662361145020e-01 -2.757874727249145508e-01 2.424559444189071655e-01 3.785117268562316895e-01 1.137320883572101593e-02
-3.145793378353118896e-01 6.286786496639251709e-02 -4.584529995918273926e-01 -2.581817507743835449e-01 -1.553201228380203247e-01 -2.060450017452239990e-01 -6.188929677009582520e-01 -2.932096421718597412e-01 -4.789715632796287537e-02 -1.137510538101196289e-01 -9.660152196884155273e-01 -8.648810386657714844e-01 -3.243633210659027100e-01 -7.390399575233459473e-01 -1.006647199392318726e-02 -5.292805433273315430e-01 2.911762893199920654e-01 3.341917097568511963e-01 -4.919591844081878662e-01 5.744784474372863770e-01 -2.801074385643005371e-01 3.021892011165618896e-01 -3.640851378440856934e-01 1.672189496457576752e-02 -7.504779100418090820e-01 3.232608139514923096e-01 -3.613297045230865479e-01 -5.824092030525207520e-01 7.667714357376098633e-01 -3.817564547061920166e-01 -2.791354358196258545e-01 -4.182457923889160156e-01 -2.910268604755401611e-01 -3.254380524158477783e-01 -5.439167022705078125e-01 -1.701812297105789185e-01 -3.488295972347259521e-01 -5.075445771217346191e-01 -6.673793196678161621e-01 -6.693464517593383789e-01 1.225181147456169128e-01 -1.718188971281051636e-01 5.881647765636444092e-02 7.518204450607299805e-01 7.139337658882141113e-01 -1.504682600498199463e-01 -7.263342291116714478e-02 -7.169720530509948730e-01 -3.841763734817504883e-01 -7.990481704473495483e-02
-6.874376535415649414e-01 -8.245384693145751953e-01 7.232048511505126953e-01 -4.463148415088653564e-01 -3.403687179088592529e-01 2.055728435516357422e-01 -7.633938789367675781e-01 2.853259146213531494e-01 -5.641184449195861816e-01 2.630893886089324951e-01 -6.609918475151062012e-01 -3.383559882640838623e-01 -2.892796099185943604e-01 -8.123491704463958740e-02 4.616141319274902344e-01 1.499348580837249756e-01 -1.892017386853694916e-02 -4.513145685195922852e-01 -3.501963317394256592e-01 -1.136562108993530273e+00 -4.592716395854949951e-01 -1.040166854858398438e+00 4.741400480270385742e-01 1.393071860074996948e-01 -3.465166985988616943e-01 3.665689826011657715e-01 -4.314136207103729248e-01 -5.728293061256408691e-01 -1.586576581001281738e+00 -3.823827505111694336e-01 -4.276055693626403809e-01 -7.053832411766052246e-01 -3.205011039972305298e-02 9.457626193761825562e-02 -8.906991779804229736e-02 -6.358428597450256348e-01 -9.461320936679840088e-02 -1.286860257387161255e-01 -1.503110677003860474e-01 -7.128991484642028809e-01 -1.570183515548706055e+00 -1.992645561695098877e-01 -7.578386664390563965e-01 -2.248679399490356445e+00 -2.157203912734985352e+00 -3.089662492275238037e-01 -1.087591767311096191e+00 -5.165947675704956055e-01 1.152662858366966248e-01 -1.534649848937988281e+00
-3.997777998447418213e-01 7.846494019031524658e-02 -6.376357674598693848e-01 -2.546492516994476318e-01 -1.328934580087661743e-01 -5.986176058650016785e-02 -6.875005960464477539e-01 -2.889204621315002441e-01 -1.411307454109191895e-01 4.491182416677474976e-02 -6.169635653495788574e-01 -7.755653858184814453e-01 -3.379084169864654541e-01 -9.485981464385986328e-01 1.384558081626892090e-01 -3.556703031063079834e-01 -2.152934819459915161e-01 -3.510185182094573975e-01 -4.341385960578918457e-01 -6.528872251510620117e-02 -6.508168578147888184e-01 -2.044318318367004395e-01 -4.001228213310241699e-01 1.712209135293960571e-01 -4.372271001338958740e-01 4.165168479084968567e-02 -5.252558588981628418e-01 -6.650258302688598633e-01 -2.160142064094543457e-01 -2.958395481109619141e-01 -4.696741104125976562e-01 -9.265756607055664062e-01 -4.152508378028869629e-01 -7.759026437997817993e-02 -3.385968804359436035e-01 2.323309928178787231e-01 -5.039424300193786621e-01 -2.520596086978912354e-01 -8.267508745193481445e-01 -3.289824128150939941e-01 2.148404121398925781e-01 -2.742611467838287354e-01 -1.091543212532997131e-01 -6.273706257343292236e-02 5.734841688536107540e-04 -2.994306981563568115e-01 -5.118777155876159668e-01 -5.290395617485046387e-01 -2.248061299324035645e-01 -4.253533780574798584e-01
-5.750089883804321289e-01 -2.136530131101608276e-01 -4.612762033939361572e-01 -5.943780541419982910e-01 -5.334800481796264648e-01 -5.181580316275358200e-03 -8.197522759437561035e-01 -9.391918182373046875e-01 -1.233014836907386780e-01 -2.491704076528549194e-01 -8.014581203460693359e-01 -3.975337147712707520e-01 -9.528636187314987183e-02 -9.045802354812622070e-01 4.247319325804710388e-02 -5.966731309890747070e-01 3.235770761966705322e-02 2.361345142126083374e-01 -1.786887943744659424e-01 3.810531795024871826e-01 -3.760169446468353271e-01 -3.916330635547637939e-01 -7.679856419563293457e-01 -1.215395703911781311e-01 -5.854680538177490234e-01 4.778446629643440247e-02 -4.889289736747741699e-01 -3.399538099765777588e-01 6.452235579490661621e-01 -6.573369354009628296e-02 -1.901668906211853027e-01 -3.106971383094787598e-01 -3.719438314437866211e-01 -2.135235518217086792e-01 -7.124155163764953613e-01 1.673261821269989014e-01 -2.498418986797332764e-01 5.295834690332412720e-02 -8.313161730766296387e-01 -5.765022039413452148e-01 3.440286815166473389e-01 -7.491816878318786621e-01 2.425113618373870850e-01 1.177336350083351135e-01 4.534932374954223633e-01 -1.935077011585235596e-01 -2.167041450738906860e-01 -2.587535977363586426e-01 -3.850532770156860352e-01 2.083210200071334839e-01
-4.981720745563507080e-01 -5.634565949440002441e-01 -2.463715076446533203e-01 -4.883991181850433350e-01 -4.773063361644744873e-01 -6.392471492290496826e-02 -6.203109025955200195e-01 -9.593864083290100098e-01 -3.389609158039093018e-01 2.244735658168792725e-01 -6.977919340133666992e-01 -7.059677243232727051e-01 -3.313714563846588135e-01 -8.310968875885009766e-01 2.013925313949584961e-01 -3.410157933831214905e-02 3.503512963652610779e-02 -1.122092530131340027e-01 -1.822309345006942749e-01 -1.009141802787780762e+00 -7.510306835174560547e-01 -4.259616434574127197e-01 -5.076518058776855469e-01 -1.346091032028198242e-01 -8.140498399734497070e-01 3.904409706592559814e-01 -5.071036219596862793e-01 -2.652659714221954346e-01 -8.742066621780395508e-01 8.071711286902427673e-03 -1.980325207114219666e-02 -8.168555498123168945e-01 8.759150654077529907e-02 -3.668767511844635010e-01 -2.188512310385704041e-02 3.898596763610839844e-01 -3.828533366322517395e-02 -2.571486830711364746e-01 -1.536572337150573730e+00 -2.848936021327972412e-01 -1.985511630773544312e-01 -6.427871584892272949e-01 3.217376396059989929e-02 -4.126949906349182129e-01 -1.105830907821655273e+00 -6.001797318458557129e-01 -6.814273595809936523e-01 -8.111215233802795410e-01 -3.259513080120086670e-01 -8.675802350044250488e-01
-5.638142228126525879e-01 -3.886032402515411377e-01 3.089080154895782471e-01 2.043682150542736053e-02 5.643523856997489929e-02 4.615407586097717285e-01 -1.142186969518661499e-01 8.423131108283996582e-01 4.274243414402008057e-01 7.186167240142822266e-01 -2.623278498649597168e-01 -3.150497376918792725e-01 4.131703376770019531e-01 5.289242863655090332e-01 -3.190784454345703125e-01 5.468392968177795410e-01 -7.040665149688720703e-01 -1.066814176738262177e-02 -1.144128516316413879e-01 9.670746326446533203e-02 1.952476948499679565e-01 3.847682774066925049e-01 3.061747848987579346e-01 -6.393985748291015625e-01 -4.084304869174957275e-01 -5.419036746025085449e-01 -2.907991707324981689e-01 1.106105521321296692e-01 -2.033668607473373413e-01 -9.138707816600799561e-02 3.709527552127838135e-01 -6.520373821258544922e-01 3.444998860359191895e-01 3.352147936820983887e-01 3.427456319332122803e-01 7.617606520652770996e-01 5.861040353775024414e-01 4.762198077514767647e-04 1.089074015617370605e+00 2.587350308895111084e-01 5.530121326446533203e-01 6.340646743774414062e-02 -7.387725114822387695e-01 -4.238772094249725342e-01 1.646271795034408569e-01 7.392110824584960938e-01 -5.059502646327018738e-02 -2.381015010178089142e-02 4.381099045276641846e-01 1.464372277259826660e-01
-2.420491278171539307e-01 2.484416067600250244e-01 -3.469416141510009766e+00 1.011739253997802734e+00 3.906418681144714355e-01 4.779500365257263184e-01 1.753620356321334839e-01 -2.552369356155395508e+00 1.924426436424255371e+00 -4.155107736587524414e-01 -6.264041066169738770e-01 -5.897805094718933105e-03 6.173261404037475586e-01 -1.089678645133972168e+00 -9.095533490180969238e-01 -1.735299229621887207e-01 -8.192697167396545410e-01 1.117200776934623718e-01 5.066654086112976074e-01 5.398980975151062012e-01 -1.271092891693115234e-01 9.965390563011169434e-01 -1.186181068420410156e+00 -4.017280340194702148e-01 -5.250123739242553711e-01 -2.938992679119110107e-01 4.110478796064853668e-03 3.034428060054779053e-01 -1.604146480560302734e+00 5.285493731498718262e-01 2.158432900905609131e-01 9.683130681514739990e-02 1.189795583486557007e-01 5.843381285667419434e-01 4.118778109550476074e-01 6.495959758758544922e-01 4.360089302062988281e-01 3.059938848018646240e-01 -1.906094908714294434e+00 5.552560091018676758e-01 -8.570903539657592773e-02 1.108740806579589844e+00 1.065609812736511230e+00 1.155986309051513672e+00 1.397856950759887695e+00 -1.044447779655456543e+00 1.281493186950683594e+00 -3.816710710525512695e-01 5.503103733062744141e-01 9.925404191017150879e-01
-5.469910502433776855e-01 -7.399432063102722168e-01 -3.586345911026000977e-01 -4.689308106899261475e-01 -5.869165658950805664e-01 -1.878885626792907715e-01 -9.170055985450744629e-01 -2.591722011566162109e-01 -2.658499479293823242e-01 -4.211922883987426758e-01 -6.315922737121582031e-01 -4.167495965957641602e-01 -3.599782884120941162e-01 -7.124227285385131836e-01 2.792330980300903320e-01 -3.956264853477478027e-01 -4.095098003745079041e-02 -6.631531715393066406e-01 -3.591566979885101318e-01 -6.209480166435241699e-01 -3.202233314514160156e-01 -4.970321655273437500e-01 -5.074951648712158203e-01 -7.126595079898834229e-02 -8.579322099685668945e-01 5.177204310894012451e-02 -4.435262978076934814e-01 -6.209270954132080078e-01 -6.951696276664733887e-01 -2.151985913515090942e-01 -5.792682766914367676e-01 -8.945440053939819336e-01 -1.416454613208770752e-01 -2.708634734153747559e-01 -3.052311241626739502e-01 -8.764018118381500244e-02 -2.073905467987060547e-01 -4.032190740108489990e-01 -8.733082413673400879e-01 -5.828902721405029297e-01 -6.728157997131347656e-01 -2.890691161155700684e-01 -3.074993491172790527e-01 -5.708265304565429688e-01 -9.489742517471313477e-01 -5.242757499217987061e-02 -5.870143175125122070e-01 -2.517445981502532959e-01 -2.817596197128295898e-01 -4.989821612834930420e-01
6.798622198402881622e-03 2.598013496026396751e-03 1.231997728347778320e+00 -4.601119458675384521e-01 2.603366076946258545e-01 6.132584810256958008e-01 -1.664458066225051880e-01 7.393138408660888672e-01 -2.029695212841033936e-01 8.296047449111938477e-01 -2.188513278961181641e-01 3.271030485630035400e-01 -1.721365004777908325e-01 4.124893248081207275e-01 -3.101600706577301025e-01 4.692153632640838623e-01 -4.512246549129486084e-01 3.036663234233856201e-01 -3.986884653568267822e-01 3.069589734077453613e-01 3.089339137077331543e-01 -5.428826212882995605e-01 9.835882782936096191e-01 -6.044414043426513672e-01 -4.263401627540588379e-01 -2.566480040550231934e-01 -2.116440534591674805e-01 -2.990528047084808350e-01 9.320361614227294922e-01 -1.491753458976745605e-01 1.510418802499771118e-01 1.084081828594207764e-02 3.350195940583944321e-03 1.190501004457473755e-01 3.174111247062683105e-01 6.511165499687194824e-01 8.303093314170837402e-01 2.740088105201721191e-02 4.448414444923400879e-01 -2.339591085910797119e-01 1.124836727976799011e-01 1.810462027788162231e-01 -6.444762945175170898e-01 -5.963189601898193359e-01 4.300085902214050293e-01 5.480856299400329590e-01 2.126234173774719238e-01 4.272298514842987061e-01 4.454865455627441406e-01 3.338308036327362061e-01
-4.768105149269104004e-01 -1.728056669235229492e-01 -1.074480488896369934e-01 -9.044645726680755615e-02 -1.092493385076522827e-01 1.458866149187088013e-01 -3.169438242912292480e-01 -1.537355333566665649e-01 -3.076989054679870605e-01 -4.452385902404785156e-01 -4.916336834430694580e-01 -4.845401942729949951e-01 -2.334334403276443481e-01 -1.347116827964782715e-01 2.732422053813934326e-01 -5.752109885215759277e-01 -3.601223528385162354e-01 -5.012447237968444824e-01 -4.393135309219360352e-01 5.085084587335586548e-02 -3.006530106067657471e-01 -2.562669217586517334e-01 2.202445119619369507e-01 -3.313796818256378174e-01 -6.087047457695007324e-01 -2.038008719682693481e-02 -3.309248387813568115e-01 -6.343768835067749023e-01 -4.114812612533569336e-01 -3.276131451129913330e-01 -2.548312544822692871e-01 -9.743458628654479980e-01 -2.721821069717407227e-01 -3.862544596195220947e-01 9.150177240371704102e-02 -5.915797352790832520e-01 -3.440701365470886230e-01 -9.590585529804229736e-02 -8.455075621604919434e-01 -2.429932355880737305e-01 -1.494466185569763184e+00 3.458525538444519043e-01 -6.669969856739044189e-02 -1.384852766990661621e+00 -6.016666293144226074e-01 -9.299027919769287109e-01 1.317661255598068237e-01 -4.648160934448242188e-01 -6.332752108573913574e-02 -2.539916038513183594e-01
-6.409407258033752441e-01 -5.813401341438293457e-01 3.593274354934692383e-01 -2.363989949226379395e-01 -5.932471156120300293e-02 7.342207431793212891e-02 -5.482066273689270020e-01 1.976301670074462891e-01 -3.457522690296173096e-01 1.380863338708877563e-01 -4.095835387706756592e-01 -4.919853210449218750e-01 -4.683944880962371826e-01 -5.064064264297485352e-01 2.646307945251464844e-01 -5.542306602001190186e-02 -2.764719128608703613e-01 -1.456671059131622314e-01 -6.036186218261718750e-01 -9.427591413259506226e-02 -6.185019612312316895e-01 -9.299488663673400879e-01 5.310409069061279297e-01 -4.988747239112854004e-01 -6.313677430152893066e-01 -9.270501881837844849e-02 -5.291839838027954102e-01 -4.989925324916839600e-01 6.876303553581237793e-01 -1.354005932807922363e-01 -2.728810161352157593e-02 -7.138360738754272461e-01 1.632641404867172241e-01 8.743788301944732666e-02 6.844959408044815063e-02 -1.036187648773193359e+00 1.536998003721237183e-01 -3.391866683959960938e-01 -6.150583624839782715e-01 -3.356903791427612305e-01 -1.593097805976867676e+00 -3.848806023597717285e-01 -5.851903557777404785e-01 -1.168367862701416016e+00 -1.238070249557495117e+00 -1.000822424888610840e+00 -1.322844028472900391e-01 -5.945962071418762207e-01 4.826209694147109985e-02 -8.667360246181488037e-02
-7.114229202270507812e-01 -1.868742406368255615e-01 -5.569095015525817871e-01 -2.523155882954597473e-02 -3.451520204544067383e-01 1.808228902518749237e-02 -2.184152752161026001e-01 -7.217562198638916016e-01 3.783895634114742279e-03 -1.292908489704132080e-01 -5.708065032958984375e-01 -2.873089313507080078e-01 7.403545081615447998e-02 -6.236137747764587402e-01 -2.182974480092525482e-02 -3.030463457107543945e-01 -1.148137524724006653e-01 -5.005839467048645020e-01 -3.164477944374084473e-01 -8.486626744270324707e-01 -3.167729675769805908e-01 9.738059341907501221e-02 -2.778151929378509521e-01 -1.688206046819686890e-01 -7.836576700210571289e-01 1.558898985385894775e-01 -4.175592958927154541e-01 -2.861638069152832031e-01 -9.073514938354492188e-01 -1.892233788967132568e-01 -3.004004061222076416e-01 -3.587533533573150635e-01 -2.108242958784103394e-01 -2.409164309501647949e-01 -6.555251032114028931e-02 -8.339824527502059937e-02 -5.698277950286865234e-01 -5.217157676815986633e-02 -5.962809324264526367e-01 -1.306311786174774170e-01 2.503142654895782471e-01 3.471251949667930603e-02 1.842635311186313629e-02 6.745798587799072266e-01 -7.697746623307466507e-03 -3.946821987628936768e-01 -1.063711121678352356e-01 -1.342652887105941772e-01 -1.513797789812088013e-01 3.482658043503761292e-02
-1.227717876434326172e+00 -1.101880311965942383e+00 -7.653410434722900391e-01 -3.977033197879791260e-01 -4.543479979038238525e-01 -8.050477504730224609e-02 -6.336277723312377930e-01 -5.781650543212890625e-01 -8.220002800226211548e-02 4.240158796310424805e-01 -5.040462017059326172e-01 -1.042445778846740723e+00 1.026929244399070740e-01 -8.750249743461608887e-01 -1.041949093341827393e-01 -1.247058343142271042e-02 -4.042610526084899902e-01 -9.543207883834838867e-01 -7.313480973243713379e-02 -1.072434902191162109e+00 -8.860490322113037109e-01 -1.513237357139587402e+00 -3.425844311714172363e-01 -3.927796483039855957e-01 -9.445781707763671875e-01 4.506559669971466064e-01 -1.471063017845153809e+00 6.555973738431930542e-02 -1.072806715965270996e+00 1.556074023246765137e-01 1.331014484167098999e-01 -6.794701814651489258e-01 1.628910303115844727e-01 1.649133116006851196e-01 -3.164147138595581055e-01 1.673290371894836426e+00 4.878359660506248474e-02 -1.106627359986305237e-01 -6.825734376907348633e-01 -2.412714511156082153e-01 1.192642927169799805e+00 -1.993072032928466797e+00 3.843410909175872803e-01 -1.812610507011413574e+00 -2.510466814041137695e+00 1.142217069864273071e-01 -1.480284690856933594e+00 -8.363212943077087402e-01 2.566611170768737793e-01 -1.666931986808776855e+00
-8.152849674224853516e-01 -1.755074262619018555e-01 -4.440643489360809326e-01 -2.253580987453460693e-01 -4.223994612693786621e-01 -2.243220359086990356e-01 -8.036922812461853027e-01 -1.793237328529357910e-01 1.891614049673080444e-01 -1.456104367971420288e-01 -8.022613525390625000e-01 -9.081999659538269043e-01 -4.606325924396514893e-02 -7.127583026885986328e-01 -2.626359462738037109e-01 -5.874246358871459961e-01 1.379930973052978516e-02 -5.186387896537780762e-02 -9.740593284368515015e-02 -6.303748488426208496e-01 -3.042949736118316650e-01 1.574989408254623413e-02 -5.705012679100036621e-01 7.044369727373123169e-02 -8.147814869880676270e-01 8.972252160310745239e-02 -5.000174045562744141e-01 -4.165558516979217529e-01 -9.278700947761535645e-01 -2.797106802463531494e-01 -6.013292074203491211e-01 -8.793787956237792969e-01 -3.337090909481048584e-01 9.307040832936763763e-03 -1.651132106781005859e-01 3.001579642295837402e-01 -3.929162919521331787e-01 -3.894141614437103271e-01 -7.027521729469299316e-01 -3.134681880474090576e-01 -1.833962798118591309e-01 -5.002327561378479004e-01 -3.305809572339057922e-02 -3.885205686092376709e-01 -2.179901599884033203e-01 -8.002830296754837036e-02 -3.910419046878814697e-01 -6.424185633659362793e-01 -4.172834455966949463e-01 -4.310092926025390625e-01
1.739228069782257080e-01 3.470301628112792969e-01 4.872885644435882568e-01 -8.941593021154403687e-02 2.568145692348480225e-01 4.090076088905334473e-01 -4.695438444614410400e-01 3.977953493595123291e-01 1.981705576181411743e-01 1.218976229429244995e-01 -1.428435891866683960e-01 -3.070711195468902588e-01 3.221134245395660400e-01 -4.798821806907653809e-01 1.060759723186492920e-01 7.028390467166900635e-02 -1.429967433214187622e-01 6.520434021949768066e-01 4.777484387159347534e-02 8.860520720481872559e-01 3.656241297721862793e-01 -1.364879608154296875e-01 4.317193329334259033e-01 -1.931581795215606689e-01 -3.904099464416503906e-01 -1.084048002958297729e-01 1.497264057397842407e-01 -5.011223256587982178e-02 3.215281963348388672e-01 -8.331999927759170532e-02 -2.379856705665588379e-01 -3.618590235710144043e-01 1.601630002260208130e-01 6.964152306318283081e-02 3.587569296360015869e-01 -3.748601675033569336e-01 1.240371987223625183e-01 1.152099147439002991e-01 1.295551210641860962e-01 -7.112842798233032227e-02 -1.641625463962554932e-01 7.662527263164520264e-02 -4.352799057960510254e-01 -7.733494639396667480e-01 6.559131145477294922e-01 7.225121855735778809e-01 -2.362762540578842163e-01 2.930680289864540100e-02 2.468669116497039795e-01 3.807450532913208008e-01
-8.642866611480712891e-01 -4.766184985637664795e-01 -3.999400436878204346e-01 -2.834300100803375244e-01 -5.582140088081359863e-01 -3.630191087722778320e-01 -5.325626134872436523e-01 -3.004461526870727539e-01 1.416937261819839478e-01 -1.242216676473617554e-01 -6.159253120422363281e-01 -8.508441448211669922e-01 -2.872144281864166260e-01 -6.125849485397338867e-01 3.522291779518127441e-01 -5.778290033340454102e-01 7.742263376712799072e-02 3.965300973504781723e-03 -4.154031574726104736e-01 -8.587257266044616699e-01 -8.010017871856689453e-01 -4.856274127960205078e-01 -3.533708453178405762e-01 6.388148665428161621e-02 -6.676000952720642090e-01 4.768929779529571533e-01 -5.323485136032104492e-01 -7.078428864479064941e-01 -5.105083584785461426e-01 -4.046929776668548584e-01 -6.355445981025695801e-01 -7.707309126853942871e-01 -4.281196743249893188e-02 -4.322571158409118652e-01 -3.425455093383789062e-01 1.574817150831222534e-01 -7.433208823204040527e-01 -9.171638521365821362e-04 -5.473434925079345703e-01 -4.090117216110229492e-01 4.285834431648254395e-01 -2.155348211526870728e-01 -3.877540826797485352e-01 -4.062361717224121094e-01 -4.477310776710510254e-01 -5.023878812789916992e-01 -7.291883826255798340e-01 -9.341524839401245117e-01 -2.416615784168243408e-01 -8.605624437332153320e-01
5.856885761022567749e-02 2.209797948598861694e-01 -1.242123022675514221e-01 7.897118479013442993e-02 -4.976425468921661377e-01 8.218668699264526367e-01 -7.550176382064819336e-01 8.251381665468215942e-02 9.463876485824584961e-03 -4.792422652244567871e-01 -3.804275989532470703e-01 3.153666555881500244e-01 3.476617336273193359e-01 3.648689389228820801e-01 7.390570640563964844e-02 -6.403722167015075684e-01 1.321051716804504395e-01 -5.659924745559692383e-01 3.847190737724304199e-02 -1.856675863265991211e+00 4.811097681522369385e-01 -6.555084884166717529e-02 -2.839475572109222412e-01 -1.097807660698890686e-01 1.240377724170684814e-01 -6.968472599983215332e-01 4.764044582843780518e-01 -6.343242526054382324e-01 -1.642355799674987793e+00 6.041056662797927856e-02 -7.311187982559204102e-01 5.504515767097473145e-01 -3.387033939361572266e-01 2.714378535747528076e-01 -7.741392254829406738e-01 -6.080614328384399414e-01 -1.007127165794372559e+00 -9.686738252639770508e-02 1.575207412242889404e-01 -7.451809644699096680e-01 -4.262423515319824219e+00 1.084040403366088867e+00 -1.923700422048568726e-01 -1.481908202171325684e+00 -2.933713197708129883e-01 9.430615901947021484e-01 2.786592021584510803e-02 7.461363077163696289e-01 -1.279324144124984741e-01 -1.895007640123367310e-01
4.493143260478973389e-01 4.326313138008117676e-01 6.704541444778442383e-01 -5.009667575359344482e-02 -8.471079915761947632e-02 2.171567678451538086e-01 -9.467202425003051758e-02 4.493895769119262695e-01 -2.144992202520370483e-01 7.641730457544326782e-02 -4.353696852922439575e-02 -9.491549432277679443e-02 2.379292994737625122e-02 -2.409811168909072876e-01 -6.949786841869354248e-02 4.400632902979850769e-02 -4.287679791450500488e-01 4.264728426933288574e-01 -1.539413183927536011e-01 2.117155790328979492e+00 2.289540767669677734e-01 -3.890317082405090332e-01 1.359538137912750244e-01 -2.533596158027648926e-01 1.210480034351348877e-01 -6.555318236351013184e-01 1.910363584756851196e-01 -4.359379410743713379e-02 1.952282309532165527e+00 2.237806096673011780e-02 -9.409873932600021362e-02 -1.375689655542373657e-01 -1.712376922369003296e-01 3.303194046020507812e-01 8.791045844554901123e-02 -3.533096313476562500e-01 2.805975973606109619e-01 -6.849002838134765625e-02 4.414030015468597412e-01 -1.898217797279357910e-01 -3.344085216522216797e-01 3.111454248428344727e-01 -5.053816437721252441e-01 -2.142142355442047119e-01 2.983799874782562256e-01 2.766778171062469482e-01 5.497754216194152832e-01 3.218444287776947021e-01 3.551581203937530518e-01 1.206771254539489746e+00
-1.770776361227035522e-01 -1.198607869446277618e-02 -1.258900523185729980e+00 -8.517745882272720337e-03 -2.114817500114440918e-01 8.293556421995162964e-02 -8.153030276298522949e-01 -1.084952950477600098e+00 2.184331417083740234e-02 -6.155517697334289551e-01 -1.124386548995971680e+00 -4.289598166942596436e-01 -3.312897980213165283e-01 -1.101533889770507812e+00 -1.495391279458999634e-01 -5.627423524856567383e-01 -6.705584377050399780e-02 5.836443975567817688e-02 -2.788912355899810791e-01 -2.020657509565353394e-01 -3.095524609088897705e-01 2.937690615653991699e-01 -8.324043154716491699e-01 2.579063475131988525e-01 -6.846505999565124512e-01 4.052902758121490479e-01 -2.641400694847106934e-01 -5.130552053451538086e-01 -3.054683804512023926e-01 -7.371058315038681030e-02 -6.172102689743041992e-01 -5.913082361221313477e-01 -5.466180443763732910e-01 -2.923764586448669434e-01 -5.202043652534484863e-01 -1.334671825170516968e-01 -5.964799523353576660e-01 -1.562494188547134399e-01 -7.846325635910034180e-01 -5.836061835289001465e-01 4.144263267517089844e-01 1.107158884406089783e-01 -1.085740886628627777e-02 3.087100088596343994e-01 5.027962923049926758e-01 -4.733301103115081787e-01 -2.117311805486679077e-01 -6.518007516860961914e-01 -4.848088026046752930e-01 -9.235713630914688110e-02
-7.789047956466674805e-01 -5.601080060005187988e-01 -4.837995469570159912e-01 -4.766294956207275391e-01 -4.550759494304656982e-01 -2.650671899318695068e-01 -6.164320707321166992e-01 -3.279451727867126465e-01 4.092880487442016602e-01 -3.177545219659805298e-02 -7.169446945190429688e-01 -7.280355095863342285e-01 -8.682428300380706787e-02 -1.090469241142272949e+00 4.283919185400009155e-02 -4.252775907516479492e-01 -2.049199044704437256e-01 1.608289182186126709e-01 -4.436166286468505859e-01 -2.595240175724029541e-01 -1.002678871154785156e+00 1.830444931983947754e-01 -7.012667059898376465e-01 1.798467338085174561e-01 -8.500859737396240234e-01 3.933103978633880615e-01 -7.900010943412780762e-01 -2.295853942632675171e-02 1.281403303146362305e-01 -1.626882553100585938e-01 -4.083211719989776611e-01 -1.139287114143371582e+00 4.310129955410957336e-02 -5.418919771909713745e-02 -2.026685327291488647e-01 2.805572450160980225e-01 -4.385108053684234619e-01 -1.025530043989419937e-03 -6.608020067214965820e-01 -3.384131193161010742e-01 1.894256770610809326e-01 -3.253948688507080078e-01 1.268426477909088135e-01 2.805209457874298096e-01 3.824263513088226318e-01 -7.523300051689147949e-01 -5.129559636116027832e-01 -9.059246182441711426e-01 -4.024401605129241943e-01 -3.286024630069732666e-01
-5.227214097976684570e-01 -7.695255875587463379e-01 2.237837612628936768e-01 -3.104622960090637207e-01 -3.553165197372436523e-01 -1.238222792744636536e-01 -5.149770975112915039e-01 4.092204868793487549e-01 -3.987822234630584717e-01 -3.053309321403503418e-01 -6.247171759605407715e-01 -5.645835399627685547e-01 -3.598540127277374268e-01 -5.244376063346862793e-01 4.827510714530944824e-01 -4.569129347801208496e-01 2.528690695762634277e-01 -2.444482594728469849e-01 -4.688254594802856445e-01 -3.815112113952636719e-01 -3.124120235443115234e-01 -5.357103943824768066e-01 2.209543287754058838e-01 1.481318920850753784e-01 -4.104888737201690674e-01 4.591374993324279785e-01 -6.195636987686157227e-01 -4.621331691741943359e-01 7.954943925142288208e-02 -3.685737848281860352e-01 -5.612241625785827637e-01 -5.115333199501037598e-01 -1.915508806705474854e-01 -2.207348644733428955e-01 -2.435387521982192993e-01 -1.016303420066833496e+00 -4.202949702739715576e-01 -2.256489396095275879e-01 -2.535162568092346191e-01 -7.403479814529418945e-01 -2.267719984054565430e+00 3.797656595706939697e-01 -9.586262106895446777e-01 -1.165721654891967773e+00 -1.739840954542160034e-01 -2.721683979034423828e-01 -4.904423654079437256e-01 -3.050690293312072754e-01 -6.706660985946655273e-02 -9.654405713081359863e-02
1.579191982746124268e-01 2.896572649478912354e-01 -4.137545228004455566e-01 1.636904180049896240e-01 6.154699623584747314e-02 2.995826303958892822e-01 -3.727336823940277100e-01 9.807264804840087891e-02 9.369405359029769897e-02 -2.322611808776855469e-01 -7.848498225212097168e-01 -5.223428830504417419e-02 2.269686460494995117e-01 3.024145066738128662e-01 1.202008724212646484e-01 -3.450195193290710449e-01 -2.091474980115890503e-01 2.208586186170578003e-01 3.185942769050598145e-02 3.431964814662933350e-01 4.288051724433898926e-01 5.791245102882385254e-01 -4.280892610549926758e-01 -1.106952782720327377e-02 -3.547967970371246338e-02 -4.349364042282104492e-01 4.981823861598968506e-01 -1.739164739847183228e-01 7.988726347684860229e-02 -2.215527296066284180e-01 -1.397914588451385498e-01 1.414894610643386841e-01 -1.568654179573059082e-01 -6.116453185677528381e-02 -1.646770513616502285e-03 -4.516665637493133545e-01 6.446044892072677612e-02 4.005675762891769409e-02 6.725086271762847900e-02 -2.030173875391483307e-02 -1.713356375694274902e-01 9.742038249969482422e-01 -2.461047470569610596e-01 2.550854384899139404e-01 6.031199693679809570e-01 4.562912285327911377e-01 7.686712741851806641e-01 3.335112333297729492e-01 2.062570303678512573e-01 1.078668594360351562e+00
-9.579026699066162109e-01 -7.511957287788391113e-01 1.369156599044799805e+00 -3.365388214588165283e-01 1.636794395744800568e-02 8.152043223381042480e-01 -7.396820783615112305e-01 9.028521776199340820e-01 1.204054281115531921e-01 8.402524590492248535e-01 -5.683199763298034668e-01 -4.734040051698684692e-02 7.444977760314941406e-02 1.004163384437561035e+00 -2.189365625381469727e-01 6.543548703193664551e-01 -6.185485720634460449e-01 3.819834589958190918e-01 -1.731320917606353760e-01 -1.124279022216796875e+00 -1.018068268895149231e-01 -7.750406265258789062e-01 8.199642300605773926e-01 -6.195180416107177734e-01 -7.124475240707397461e-01 -5.045194625854492188e-01 -7.639888525009155273e-01 -1.502081602811813354e-01 -5.333257317543029785e-01 2.893834114074707031e-01 3.283896446228027344e-01 -2.721533775329589844e-01 4.410925805568695068e-01 4.173499345779418945e-01 6.245418190956115723e-01 8.256590962409973145e-01 9.896380305290222168e-01 2.041264772415161133e-01 7.247967720031738281e-01 -1.956340968608856201e-01 -3.801066875457763672e-01 -3.159010112285614014e-01 -1.041433811187744141e+00 -4.831657111644744873e-01 -6.548324227333068848e-01 6.508031487464904785e-01 -4.191662743687629700e-02 2.123996466398239136e-01 5.950276851654052734e-01 -4.641555622220039368e-02
-3.724398314952850342e-01 -5.264008641242980957e-01 -2.273377895355224609e+00 5.023590922355651855e-01 2.003124356269836426e-01 3.874923586845397949e-01 -2.986236810684204102e-01 -3.338719010353088379e-01 1.063314676284790039e+00 -4.283475875854492188e-01 -2.909018993377685547e-01 -3.002225160598754883e-01 7.251712083816528320e-01 -4.235856235027313232e-01 -1.142933726310729980e+00 -1.126456856727600098e-01 -5.822678804397583008e-01 -7.057502865791320801e-01 5.765442848205566406e-01 -5.699797272682189941e-01 1.196344718337059021e-01 -2.905814349651336670e-01 -1.318589568138122559e+00 -8.344010710716247559e-01 -5.672059059143066406e-01 -5.012108683586120605e-01 -2.052133977413177490e-01 1.112080737948417664e-01 -3.331584692001342773e+00 2.168915420770645142e-01 2.058378607034683228e-01 -6.559587121009826660e-01 2.375242710113525391e-01 5.865994095802307129e-01 7.846190780401229858e-02 2.874668538570404053e-01 -3.809847235679626465e-01 4.671451747417449951e-01 1.628026738762855530e-02 2.824308574199676514e-01 1.191765293478965759e-01 -4.371090233325958252e-01 1.770073890686035156e+00 -5.299981832504272461e-01 -9.557400345802307129e-01 -3.697778284549713135e-01 -5.477480888366699219e-01 3.234434127807617188e-01 5.065209865570068359e-01 -7.511290311813354492e-01
-4.874998629093170166e-01 -6.205434203147888184e-01 -1.390454173088073730e+00 -6.550957560539245605e-01 -7.760179638862609863e-01 -3.455969691276550293e-01 -9.499739408493041992e-01 -6.914171576499938965e-01 -1.180218309164047241e-01 -1.122509717941284180e+00 -9.273639321327209473e-01 -3.469263911247253418e-01 4.686490632593631744e-03 -3.782918155193328857e-01 1.825650483369827271e-01 -1.379101395606994629e+00 3.643364906311035156e-01 -3.669050216674804688e+00 -1.803027838468551636e-01 -2.551684141159057617e+00 1.372513324022293091e-01 -7.160308957099914551e-01 -1.362693905830383301e+00 5.037720780819654465e-03 -4.342761039733886719e-01 2.560711503028869629e-01 -5.271885991096496582e-01 -9.902375936508178711e-01 -5.413136959075927734e+00 -4.776252806186676025e-01 -5.605581402778625488e-01 -6.093876361846923828e-01 -7.168354988098144531e-01 -3.590759336948394775e-01 -1.213704943656921387e+00 -1.059428691864013672e+00 -9.694124460220336914e-01 -6.078174710273742676e-01 -5.332924723625183105e-01 -7.941926121711730957e-01 -1.258460044860839844e+00 -8.354964256286621094e-01 4.380076378583908081e-02 -2.589746415615081787e-01 -2.646856546401977539e+00 6.221891641616821289e-01 -9.028753638267517090e-01 -2.546426951885223389e-01 -5.703074336051940918e-01 -1.929560422897338867e+00
-1.032518267631530762e+00 -1.698378771543502808e-01 -8.064959645271301270e-01 2.540955841541290283e-01 2.327890545129776001e-01 -2.407373487949371338e-02 -1.080021336674690247e-01 -1.863251209259033203e+00 8.515301942825317383e-01 3.444421589374542236e-01 -1.083658814430236816e+00 -1.358284711837768555e+00 3.988942801952362061e-01 -3.244063556194305420e-01 -7.425462007522583008e-01 2.363247722387313843e-01 -6.324476599693298340e-01 3.027974367141723633e-01 1.730086356401443481e-01 -1.143777817487716675e-01 -1.291844010353088379e+00 3.348526656627655029e-01 3.250042721629142761e-02 -5.008798241615295410e-01 -1.181257963180541992e+00 -2.487872093915939331e-01 -7.289923429489135742e-01 4.571236670017242432e-01 -3.842439055442810059e-01 1.955455690622329712e-01 5.069872140884399414e-01 -1.409322261810302734e+00 3.367453515529632568e-01 2.040903456509113312e-02 1.185970902442932129e-01 1.765253543853759766e+00 4.875735044479370117e-01 2.055741995573043823e-01 -9.154210090637207031e-01 2.375153601169586182e-01 1.893318057060241699e+00 1.078290790319442749e-01 4.888231754302978516e-01 -5.373936891555786133e-01 6.906116753816604614e-02 -9.357369542121887207e-01 2.324314862489700317e-01 -1.144714474678039551e+00 2.430749312043190002e-02 -1.493283808231353760e-01
1.049178317189216614e-01 3.438375890254974365e-02 2.175962030887603760e-01 1.936122775077819824e-01 1.432477831840515137e-01 6.244359612464904785e-01 -6.725300103425979614e-02 1.165122836828231812e-01 -1.427411884069442749e-01 4.697951674461364746e-01 -6.932426691055297852e-01 4.685045406222343445e-02 1.544240564107894897e-01 8.635166287422180176e-02 -1.505080610513687134e-01 4.649163484573364258e-01 -1.646570414304733276e-01 8.067645430564880371e-01 -1.642339080572128296e-01 3.531505465507507324e-01 2.506144344806671143e-01 2.693729400634765625e-01 4.083465039730072021e-01 -2.586483955383300781e-01 -4.801065623760223389e-01 -4.852249920368194580e-01 1.374294012784957886e-01 1.943057179450988770e-01 6.499262452125549316e-01 1.103319972753524780e-01 4.125163853168487549e-01 -5.521581694483757019e-02 1.659169644117355347e-01 2.071661800146102905e-01 1.487649083137512207e-01 6.514000296592712402e-01 5.913773775100708008e-01 -2.170189470052719116e-02 4.596897065639495850e-01 2.165305018424987793e-01 7.475681900978088379e-01 -2.212367057800292969e-01 -3.208995237946510315e-02 -9.149140119552612305e-01 5.140283107757568359e-01 5.632855296134948730e-01 1.735600642859935760e-02 3.279700577259063721e-01 4.099584817886352539e-01 5.086147785186767578e-01
-3.284409046173095703e-01 -1.642403006553649902e-01 -2.393564283847808838e-01 -1.490368396043777466e-01 -2.302696742117404938e-02 2.716372609138488770e-01 -3.833070397377014160e-01 2.286777086555957794e-02 -2.452790178358554840e-02 -7.853934764862060547e-01 -8.162001967430114746e-01 -2.838132083415985107e-01 -2.620454132556915283e-01 -6.030622124671936035e-01 5.899049043655395508e-01 -7.230389714241027832e-01 3.941484093666076660e-01 -4.752910733222961426e-01 -4.296742081642150879e-01 -4.765180349349975586e-01 -1.030249893665313721e-01 8.000556379556655884e-02 -4.537000954151153564e-01 3.044975101947784424e-01 -8.143507689237594604e-02 -4.771811142563819885e-02 -8.228460792452096939e-04 -4.071093499660491943e-01 -6.759141087532043457e-01 -1.879736334085464478e-01 -6.185447573661804199e-01 -2.437907904386520386e-01 -3.342041969299316406e-01 6.094011291861534119e-02 -3.286782503128051758e-01 -1.589256525039672852e+00 -6.169795393943786621e-01 -2.632502019405364990e-01 -3.540541827678680420e-01 -3.350632190704345703e-01 -1.888111829757690430e+00 9.413935542106628418e-01 -4.608633816242218018e-01 2.604252994060516357e-01 4.454723894596099854e-01 -3.055759072303771973e-01 -1.397709101438522339e-01 6.738238036632537842e-02 -4.839004278182983398e-01 2.940903306007385254e-01
-8.368887901306152344e-01 -6.298166513442993164e-01 -2.829347133636474609e+00 1.290990471839904785e+00 7.666234970092773438e-01 5.543302297592163086e-01 2.628416419029235840e-01 -2.092515230178833008e+00 2.401500701904296875e+00 6.110754609107971191e-02 -3.710387647151947021e-01 -1.127486228942871094e+00 7.877804040908813477e-01 -1.966522932052612305e+00 -9.382306933403015137e-01 7.658482789993286133e-01 -7.338525652885437012e-01 7.648023962974548340e-01 4.508711099624633789e-01 -1.294221162796020508e+00 -9.995846152305603027e-01 -4.307712912559509277e-01 2.033566832542419434e-01 -8.270042538642883301e-01 -1.058218002319335938e+00 -5.949624776840209961e-01 -7.965542078018188477e-01 4.730803966522216797e-01 -2.533642351627349854e-01 8.050696849822998047e-01 9.412069916725158691e-01 -1.372271060943603516e+00 7.231578230857849121e-01 6.916245818138122559e-01 7.358961105346679688e-01 5.120687484741210938e-01 1.047870635986328125e+00 6.401839852333068848e-01 -2.355064868927001953e+00 5.849224925041198730e-01 -1.138574719429016113e+00 1.471229791641235352e+00 2.036041736602783203e+00 9.631101489067077637e-01 -1.012876927852630615e-01 -2.620410203933715820e+00 2.170761108398437500e+00 -1.118544459342956543e+00 4.238620698451995850e-01 1.461226701736450195e+00
-7.151821255683898926e-01 1.281183809041976929e-01 -3.389756083488464355e-01 -5.214022397994995117e-01 -1.904907971620559692e-01 -3.452319800853729248e-01 -3.442417681217193604e-01 -5.672217607498168945e-01 3.131036758422851562e-01 -3.476895987987518311e-01 -7.024422883987426758e-01 -9.173201322555541992e-01 -2.749350070953369141e-01 -8.658064603805541992e-01 6.527198106050491333e-02 -1.987507939338684082e-01 2.362721562385559082e-01 4.802673161029815674e-01 -9.557328373193740845e-02 -2.205595672130584717e-01 -7.273065447807312012e-01 9.541822224855422974e-02 -5.219151377677917480e-01 4.584035277366638184e-02 -8.787797093391418457e-01 1.511538177728652954e-01 -2.999847531318664551e-01 -4.331106543540954590e-01 -4.204871058464050293e-01 -1.142438575625419617e-01 -4.735009074211120605e-01 -7.663810253143310547e-01 -5.464760586619377136e-02 -3.709105551242828369e-01 -3.316437602043151855e-01 4.213567078113555908e-01 -2.938040196895599365e-01 -3.092958927154541016e-01 -7.368783354759216309e-01 -4.854633808135986328e-01 1.503034979104995728e-01 -7.858251035213470459e-02 -3.485222160816192627e-01 5.086075663566589355e-01 7.594472169876098633e-01 -2.848483808338642120e-02 -7.172059267759323120e-02 -9.176809191703796387e-01 -3.378113806247711182e-01 -3.176719546318054199e-01
-7.098960280418395996e-01 -7.079618573188781738e-01 -1.254692375659942627e-01 -5.084569454193115234e-01 -5.299692153930664062e-01 -1.440754383802413940e-01 -8.417107462882995605e-01 1.845631897449493408e-01 -5.415569543838500977e-01 -3.836587071418762207e-01 -7.941098809242248535e-01 -4.680195748805999756e-01 -3.176531493663787842e-01 -7.866132855415344238e-01 6.223070621490478516e-01 -4.935137629508972168e-01 3.455315828323364258e-01 -6.779327988624572754e-01 -3.781688213348388672e-01 -4.224084317684173584e-01 -3.019993007183074951e-01 -8.347365260124206543e-01 -9.459672123193740845e-02 2.797232940793037415e-02 -6.996292471885681152e-01 5.316414237022399902e-01 -6.157381534576416016e-01 -8.012002706527709961e-01 -4.103658795356750488e-01 -5.474258065223693848e-01 -6.099665760993957520e-01 -7.040510177612304688e-01 -3.649472296237945557e-01 -4.700950086116790771e-01 -3.649547100067138672e-01 -1.455969095230102539e+00 -3.161625564098358154e-01 -1.920769214630126953e-01 -4.956605136394500732e-01 -4.221378862857818604e-01 -1.771691799163818359e+00 -1.534215509891510010e-01 -4.364728331565856934e-01 -6.430857777595520020e-01 -8.223968744277954102e-01 -6.789568662643432617e-01 -2.570708394050598145e-01 -4.658977687358856201e-01 -1.117788031697273254e-01 -6.218383312225341797e-01
3.059869259595870972e-02 1.590487919747829437e-02 7.634968161582946777e-01 -7.273247092962265015e-02 2.974405586719512939e-01 8.523788452148437500e-01 -1.912391036748886108e-01 4.840960502624511719e-01 4.054272770881652832e-01 6.278808712959289551e-01 -1.523575782775878906e-01 2.206142246723175049e-01 2.712573707103729248e-01 3.150132298469543457e-01 -3.552539348602294922e-01 4.651758372783660889e-01 -5.242350101470947266e-01 4.789981842041015625e-01 -1.124815549701452255e-02 4.685364365577697754e-01 3.933269083499908447e-01 6.315819621086120605e-01 5.043608546257019043e-01 -7.719023823738098145e-01 -3.508878052234649658e-01 -6.979261636734008789e-01 1.702782958745956421e-01 3.034534156322479248e-01 1.956550627946853638e-01 2.022272497415542603e-01 4.571799933910369873e-01 5.877075716853141785e-02 3.773803710937500000e-01 5.283966064453125000e-01 5.386902093887329102e-01 7.595196962356567383e-01 6.229315400123596191e-01 3.555058240890502930e-01 4.149564504623413086e-01 3.185903429985046387e-01 9.624276161193847656e-01 -8.622689545154571533e-02 -3.058175742626190186e-01 -2.878455817699432373e-01 1.801702380180358887e-01 6.473903656005859375e-01 2.041530609130859375e-01 3.972195088863372803e-01 2.759825289249420166e-01 8.503367751836776733e-02
-4.775160551071166992e-01 -7.442789077758789062e-01 -4.248329102993011475e-01 9.085550159215927124e-02 4.360218048095703125e-01 6.162937879562377930e-01 1.484937071800231934e-01 -8.805152177810668945e-01 -2.480557262897491455e-01 8.318724632263183594e-01 -8.535699248313903809e-01 -4.192660748958587646e-01 2.419759780168533325e-01 3.875907659530639648e-01 -2.753257155418395996e-01 4.165414869785308838e-01 -3.044941127300262451e-01 4.982298910617828369e-01 -7.465291768312454224e-02 -2.992408573627471924e-01 -2.261167019605636597e-01 -9.156484007835388184e-01 2.433499842882156372e-01 -4.465300738811492920e-01 -7.094888091087341309e-01 -4.219074845314025879e-01 -5.414891242980957031e-01 5.243058204650878906e-01 -2.036370337009429932e-01 1.075877845287322998e-01 8.503187894821166992e-01 -4.581803083419799805e-01 2.619968950748443604e-01 3.309971988201141357e-01 1.244719401001930237e-01 1.398201465606689453e+00 8.486620187759399414e-01 2.495156787335872650e-02 -1.381996423006057739e-01 4.430965781211853027e-01 5.786935687065124512e-01 -6.010608077049255371e-01 1.593267321586608887e-01 -1.673306584358215332e+00 3.442297223955392838e-03 -2.901743054389953613e-01 -2.924736961722373962e-02 -3.814914822578430176e-02 5.145391225814819336e-01 2.313140779733657837e-02
-3.086171150207519531e-01 -1.481606215238571167e-01 -3.382539153099060059e-01 -3.164621591567993164e-01 -3.591001927852630615e-01 -3.414517641067504883e-01 -4.645330309867858887e-01 -3.856031596660614014e-01 1.833576560020446777e-01 -2.064476758241653442e-01 -1.039099574089050293e+00 -6.376217007637023926e-01 -2.982280254364013672e-01 -7.555399537086486816e-01 -9.337734431028366089e-03 -2.839041054248809814e-01 2.249664068222045898e-01 2.001318521797657013e-02 -6.133757829666137695e-01 -2.371640950441360474e-01 -4.709227979183197021e-01 -1.691130846738815308e-01 -3.561113774776458740e-01 6.068287789821624756e-02 -7.168065309524536133e-01 2.067376971244812012e-01 -2.323217988014221191e-01 -5.655176043510437012e-01 -2.149266190826892853e-02 -5.352888703346252441e-01 -5.387288928031921387e-01 -6.030473113059997559e-01 -4.108501970767974854e-01 -4.983564913272857666e-01 -2.011279165744781494e-01 2.573139667510986328e-01 -5.737634897232055664e-01 -5.510223507881164551e-01 -5.402260422706604004e-01 -3.027463853359222412e-01 4.717246294021606445e-01 6.387587636709213257e-02 -4.198651313781738281e-01 5.239797830581665039e-01 2.214666157960891724e-01 -4.573068618774414062e-01 -1.659038364887237549e-01 -4.884733855724334717e-01 -2.804287970066070557e-01 8.786367252469062805e-03
-6.332432627677917480e-01 -5.774647593498229980e-01 4.864417482167482376e-03 -5.532511472702026367e-01 4.631046578288078308e-02 -2.639135420322418213e-01 -4.274271130561828613e-01 3.777980804443359375e-01 -3.680103719234466553e-01 -4.126682877540588379e-01 -5.629149079322814941e-01 -9.018747210502624512e-01 -3.091940283775329590e-01 -6.075752973556518555e-01 3.271777927875518799e-01 -1.238740533590316772e-01 -1.899994909763336182e-01 -3.161613047122955322e-01 -2.235446870326995850e-01 2.964702844619750977e-01 -7.358347177505493164e-01 -4.680528938770294189e-01 -1.695210933685302734e-01 1.781617105007171631e-02 -8.306705951690673828e-01 3.268575668334960938e-01 -7.090801596641540527e-01 -2.930261790752410889e-01 4.766915738582611084e-01 -2.364831566810607910e-01 -9.330397844314575195e-02 -7.804701328277587891e-01 -1.627215445041656494e-01 -1.436258852481842041e-01 -4.788126647472381592e-01 -6.817685365676879883e-01 -2.461849004030227661e-01 -2.018178999423980713e-01 -6.765283346176147461e-01 -1.759161502122879028e-01 -8.837903738021850586e-01 -1.438581496477127075e-01 -5.533262491226196289e-01 2.733843214809894562e-02 2.291325628757476807e-01 -2.541645765304565430e-01 -3.635467961430549622e-02 -7.656355500221252441e-01 5.489579960703849792e-02 2.234033048152923584e-01
-7.474029660224914551e-01 -6.980144977569580078e-01 -5.294467210769653320e-01 -2.636643350124359131e-01 -2.613334357738494873e-01 -2.482610195875167847e-01 -5.677118897438049316e-01 -3.083320558071136475e-01 -7.954040169715881348e-02 -3.650165796279907227e-01 -1.013851046562194824e+00 -9.608066678047180176e-01 2.372905425727367401e-02 -1.022981524467468262e+00 1.418181508779525757e-01 -5.973445773124694824e-01 -1.201109215617179871e-01 -5.297172665596008301e-01 -4.341652691364288330e-01 -4.847991093993186951e-02 -5.503607392311096191e-01 -3.602357804775238037e-01 -5.345966815948486328e-01 -4.589239880442619324e-02 -8.144645094871520996e-01 2.480665594339370728e-01 -6.002839207649230957e-01 -1.691068261861801147e-01 -1.009961962699890137e-01 -3.166196942329406738e-01 -2.438859492540359497e-01 -6.812759041786193848e-01 -1.329908668994903564e-01 -1.742185056209564209e-01 -4.412604868412017822e-01 -1.330772638320922852e-01 -4.157897830009460449e-01 -8.917234092950820923e-02 -5.154194235801696777e-01 -1.576541364192962646e-01 -4.679605364799499512e-01 -7.187733650207519531e-01 -2.198311686515808105e-01 -1.238841935992240906e-01 7.523527741432189941e-02 -3.701515793800354004e-01 -2.393171191215515137e-01 -5.111129283905029297e-01 -2.232116609811782837e-01 -1.243282631039619446e-01
-8.103837370872497559e-01 -6.088494881987571716e-02 -4.456236958503723145e-01 -3.133155107498168945e-01 -4.687856733798980713e-01 -3.394972383975982666e-01 -4.279429018497467041e-01 -3.000269532203674316e-01 8.015228807926177979e-02 -5.621908307075500488e-01 -5.492607951164245605e-01 -7.069928050041198730e-01 -2.692978978157043457e-01 -7.601355910301208496e-01 1.098430305719375610e-01 -3.143382370471954346e-01 -1.042113751173019409e-01 3.474932909011840820e-01 -1.383967995643615723e-01 1.457820236682891846e-01 -3.812924921512603760e-01 1.087869778275489807e-01 -6.934192776679992676e-01 3.168729320168495178e-02 -6.647926568984985352e-01 3.731839358806610107e-02 -4.320436716079711914e-01 -1.126007214188575745e-01 4.643439874053001404e-02 -4.719887673854827881e-01 -4.803850948810577393e-01 -8.146571516990661621e-01 -3.554171919822692871e-01 -3.833031058311462402e-01 -3.313063681125640869e-01 4.883324354887008667e-02 -3.278380334377288818e-01 -6.403657048940658569e-02 -7.141090631484985352e-01 -2.057993113994598389e-01 -1.386469453573226929e-01 -2.296310067176818848e-01 -5.059538036584854126e-02 6.531268358230590820e-01 4.838666617870330811e-01 -3.600748479366302490e-01 -2.508280873298645020e-01 -6.474706530570983887e-01 -2.274359613656997681e-01 2.399792820215225220e-01
-3.452798128128051758e-01 -2.351399697363376617e-02 -6.934447884559631348e-01 -4.297804236412048340e-01 -4.746794700622558594e-01 -3.575552403926849365e-01 -9.115566015243530273e-01 -6.165626645088195801e-01 5.567482858896255493e-02 -5.472818017005920410e-01 -7.332609891891479492e-01 -8.108792901039123535e-01 -6.839366164058446884e-03 -9.086868166923522949e-01 1.492610275745391846e-01 -4.551952481269836426e-01 -4.664758592844009399e-02 -2.974118590354919434e-01 -3.324488103389739990e-01 3.022541059181094170e-03 -4.661658108234405518e-01 -6.969173904508352280e-03 -5.029957890510559082e-01 2.145940065383911133e-01 -3.787931799888610840e-01 4.894142448902130127e-01 -1.392189562320709229e-01 -5.026981234550476074e-01 -3.464782238006591797e-01 -8.136409521102905273e-02 -4.991064369678497314e-01 -4.956371486186981201e-01 -2.100322842597961426e-01 -4.192947149276733398e-01 -3.243544101715087891e-01 -3.533551692962646484e-01 -5.847469568252563477e-01 -4.621614217758178711e-01 -7.349135279655456543e-01 -3.293687701225280762e-01 1.737768948078155518e-01 -7.303220778703689575e-02 -1.629105806350708008e-01 6.857813000679016113e-01 5.616199970245361328e-01 -1.710043549537658691e-01 -1.413832157850265503e-01 -5.524162054061889648e-01 -5.095478892326354980e-01 -2.130107134580612183e-01
-4.523455798625946045e-01 -2.326526939868927002e-01 -7.563285827636718750e-01 -2.990216910839080811e-01 -5.027589797973632812e-01 1.788715869188308716e-01 -3.733913600444793701e-01 -9.654132723808288574e-01 -8.045254349708557129e-01 -1.467806994915008545e-01 -5.198218226432800293e-01 -6.936864852905273438e-01 -3.831201791763305664e-01 -9.138768315315246582e-01 -1.335823535919189453e-01 -2.143200933933258057e-01 1.834810227155685425e-01 -1.932359933853149414e-01 -1.429906338453292847e-01 7.144609838724136353e-02 -6.356799006462097168e-01 -8.961029648780822754e-01 -3.507642149925231934e-01 2.384739927947521210e-03 -5.746915340423583984e-01 2.398924380540847778e-01 -4.621723294258117676e-01 -4.242689311504364014e-01 8.266018629074096680e-01 -2.184000015258789062e-01 -2.642771005630493164e-01 -2.512683868408203125e-01 -1.066243723034858704e-01 -9.768100827932357788e-02 -7.303308844566345215e-01 -2.243482619524002075e-01 -5.565433502197265625e-01 4.352926090359687805e-02 -1.049635529518127441e+00 -3.216337263584136963e-01 -1.372170448303222656e+00 -3.779781758785247803e-01 -4.632619917392730713e-01 -7.359610199928283691e-01 -1.788972169160842896e-01 -5.700130462646484375e-01 -1.212666630744934082e-01 -4.672101438045501709e-01 6.782563775777816772e-02 -8.876319229602813721e-02
