-9.169792756438255310e-03
5.665470659732818604e-02
-6.620170921087265015e-02
-1.020432263612747192e-01
-1.638809219002723694e-02
-9.141118079423904419e-02
-1.475611180067062378e-01
-3.816455975174903870e-02
-1.109878271818161011e-01
-8.846759051084518433e-02
-8.385117352008819580e-02
-9.513146430253982544e-02
-1.004602313041687012e-01
1.646438054740428925e-02
1.978141814470291138e-01
-1.493860334157943726e-01
-1.574777662754058838e-01
4.537401720881462097e-02
-6.777785718441009521e-02
8.087922632694244385e-02
6.788150221109390259e-02
8.292938768863677979e-02
-8.520305901765823364e-02
-7.149799168109893799e-02
1.165874823927879333e-01
-1.355014294385910034e-01
-1.444426476955413818e-01
4.944051429629325867e-02
2.375337760895490646e-03
7.650221884250640869e-02
-1.713507920503616333e-01
-3.716458752751350403e-02
-4.227406904101371765e-02
-1.187171563506126404e-01
-1.330818682909011841e-01
-1.402642428874969482e-01
-2.091748639941215515e-02
-1.901088058948516846e-01
-2.246393822133541107e-02
-2.575686573982238770e-01
-1.031326875090599060e-01
-1.835520714521408081e-01
-2.756880223751068115e-01
9.774255566298961639e-03
-5.897971615195274353e-02
-1.140753030776977539e-01
-5.694713070988655090e-02
1.147452443838119507e-01
9.245332330465316772e-03
-6.916993856430053711e-02
