1.298877894878387451e-01 -5.762724280357360840e-01 3.860493004322052002e-02 -5.537229180335998535e-01 4.353686869144439697e-01 -3.034979701042175293e-01 4.696162641048431396e-01 -2.346356511116027832e-01 -2.388788163661956787e-01 1.902240514755249023e-01 -2.713561058044433594e-01 5.802947282791137695e-01 2.391243726015090942e-01 5.113600492477416992e-01 2.823494076728820801e-01 3.044295012950897217e-01 -3.644977807998657227e-01 -4.813070595264434814e-01 2.975895106792449951e-01 -2.876294553279876709e-01 -2.312229424715042114e-01 3.434731960296630859e-01 2.590717673301696777e-01 2.275208085775375366e-01 -1.538011431694030762e-01 -6.068549156188964844e-01 2.667257785797119141e-01 -8.322169184684753418e-01 -9.776355326175689697e-02 5.103473067283630371e-01 2.728410065174102783e-01 2.861858606338500977e-01 -3.969907462596893311e-01 -3.507133722305297852e-01 -4.874747097492218018e-01 -2.168567925691604614e-01 -4.538112282752990723e-01 -3.079937100410461426e-01 3.193152546882629395e-01 -3.141230344772338867e-01 4.811825156211853027e-01 2.537259757518768311e-01 -2.727341353893280029e-01 -1.305925548076629639e-01 3.236702978610992432e-01 4.394850134849548340e-01 6.670609861612319946e-02 5.037213563919067383e-01 3.662565648555755615e-01 5.986865758895874023e-01
1.653662025928497314e-01 -2.748690247535705566e-01 1.582344993948936462e-02 -1.305450946092605591e-01 3.903801143169403076e-01 -7.859230041503906250e-01 5.339162424206733704e-02 1.993657499551773071e-01 -4.108353853225708008e-01 3.673522770404815674e-01 -3.444311916828155518e-01 1.047919988632202148e+00 3.216004967689514160e-01 4.355560541152954102e-01 5.920684337615966797e-01 2.485256791114807129e-01 -1.181021556258201599e-01 -3.774826526641845703e-01 3.179314434528350830e-01 -9.269437938928604126e-02 -3.581945896148681641e-01 1.724319577217102051e+00 8.368619084358215332e-01 -2.723262645304203033e-02 -1.174229606986045837e-01 -2.678880989551544189e-01 2.808651030063629150e-01 -8.779624700546264648e-01 7.532330751419067383e-01 2.095940262079238892e-01 7.232167720794677734e-01 5.139373540878295898e-01 -4.477286338806152344e-01 1.722318232059478760e-01 1.609795093536376953e-01 -1.012142449617385864e-01 -5.636737346649169922e-01 -2.163425534963607788e-01 2.554074823856353760e-01 -2.242118418216705322e-01 4.062708914279937744e-01 7.568701505661010742e-01 -2.274556159973144531e-01 -7.586936950683593750e-01 1.087809324264526367e+00 9.251897335052490234e-01 3.664417862892150879e-01 7.946418523788452148e-01 5.014467835426330566e-01 5.781057476997375488e-01
-4.593408405780792236e-01 7.274772506207227707e-03 1.832304596900939941e-01 -1.778050214052200317e-01 -6.193136572837829590e-01 2.969953119754791260e-01 -1.534618157893419266e-02 -5.669578909873962402e-01 -1.334406733512878418e-01 -4.022282958030700684e-01 -1.815076470375061035e-01 -5.543013662099838257e-02 -3.538011312484741211e-01 -3.008043766021728516e-01 -1.988638490438461304e-01 -1.446287333965301514e-01 -1.248479038476943970e-01 7.729144096374511719e-01 -4.528702795505523682e-01 -4.516066908836364746e-01 -5.278148651123046875e-01 -5.387901663780212402e-01 -2.901335358619689941e-01 -2.272102050483226776e-02 -2.396566420793533325e-01 -3.204720616340637207e-01 -2.011275291442871094e-01 -1.458392888307571411e-01 3.214155510067939758e-02 1.280350238084793091e-01 -7.933595776557922363e-02 -4.561567008495330811e-01 1.393729746341705322e-01 -5.371955633163452148e-01 6.827609539031982422e-01 6.485292911529541016e-01 3.930610418319702148e-01 -4.408168047666549683e-02 -1.384843438863754272e-01 1.001446127891540527e+00 6.221618875861167908e-02 -4.139330387115478516e-01 -1.611987799406051636e-01 1.838394701480865479e-01 -3.005881309509277344e-01 -5.041408538818359375e-01 -2.679302692413330078e-01 -1.743151247501373291e-01 -2.976804971694946289e-01 -4.915712773799896240e-01
-3.875666260719299316e-01 -2.812774181365966797e-01 -3.748809099197387695e-01 -2.840911448001861572e-01 -1.535136252641677856e-01 9.587691724300384521e-02 -5.333089232444763184e-01 -1.795357018709182739e-01 -3.954831883311271667e-02 -4.174759089946746826e-01 8.614912629127502441e-02 -3.569037318229675293e-01 -1.724759638309478760e-01 -4.597980976104736328e-01 -1.922073662281036377e-01 -2.145121246576309204e-01 2.351627796888351440e-01 8.042784780263900757e-02 -1.050900220870971680e-01 2.693343460559844971e-01 -3.256109058856964111e-01 -1.479220110923051834e-02 -6.488847732543945312e-01 1.050521969795227051e+00 3.209698945283889771e-02 9.835316985845565796e-02 -3.167915940284729004e-01 -1.575809001922607422e+00 -3.429641723632812500e-01 -3.252028524875640869e-01 3.347279429435729980e-01 -2.951068580150604248e-01 -3.044728636741638184e-01 -2.017328739166259766e-01 5.980494022369384766e-01 7.639418244361877441e-01 9.710256457328796387e-01 3.588298261165618896e-01 -8.354137539863586426e-01 -9.661420583724975586e-01 1.142004132270812988e-01 -1.373481303453445435e-01 3.749179244041442871e-01 9.909891486167907715e-01 -3.270322084426879883e-01 -5.164659023284912109e-01 -4.219813272356987000e-02 -5.760093927383422852e-01 -2.536438405513763428e-01 -2.403176724910736084e-01
-2.882480621337890625e-01 9.543278217315673828e-01 -9.399585127830505371e-01 9.005142450332641602e-01 -3.790998756885528564e-01 5.002710819244384766e-01 -6.690454483032226562e-01 1.150476932525634766e+00 7.351779341697692871e-01 -1.607978343963623047e-01 8.117253780364990234e-01 -4.989260435104370117e-02 -1.405138373374938965e-01 -3.175914883613586426e-01 -3.036599457263946533e-01 -5.937320590019226074e-01 3.396646678447723389e-01 -2.054847002029418945e+00 -6.168071031570434570e-01 8.338567018508911133e-01 -8.085939288139343262e-01 -2.108759135007858276e-01 -5.811678171157836914e-01 -1.252635359764099121e+00 -1.222119092941284180e+00 9.197155833244323730e-01 -6.520157456398010254e-01 -3.625043034553527832e-01 1.248461961746215820e+00 -8.023937940597534180e-01 -1.034738302230834961e+00 -1.580051332712173462e-01 7.174153327941894531e-01 6.929757595062255859e-01 -1.561804771423339844e+00 -1.646678686141967773e+00 -3.619275689125061035e-01 5.037121176719665527e-01 -1.237622722983360291e-01 -2.255870103836059570e+00 -8.786461949348449707e-01 -1.591361612081527710e-01 7.719593048095703125e-01 3.421095311641693115e-01 -5.666085481643676758e-01 1.543529480695724487e-01 -9.066048264503479004e-01 -4.413900375366210938e-01 -8.414409756660461426e-01 2.068608812987804413e-02
-4.120113551616668701e-01 2.405116409063339233e-01 2.892744541168212891e-01 1.731076985597610474e-01 -2.143409401178359985e-01 1.562966108322143555e-01 9.107362478971481323e-02 -1.773316562175750732e-01 -6.437411159276962280e-02 2.843885123729705811e-02 -1.119405329227447510e-01 -4.307429492473602295e-01 -2.660837471485137939e-01 -3.654665946960449219e-01 -7.868924140930175781e-01 -3.187665343284606934e-01 1.346747428178787231e-01 3.431114256381988525e-01 -4.773049950599670410e-01 -5.678971484303474426e-02 4.698175564408302307e-02 -2.243973165750503540e-01 -6.493699550628662109e-01 -4.542808532714843750e-01 -3.865667283535003662e-01 -2.918191850185394287e-01 -3.572240769863128662e-01 1.463172733783721924e-01 -2.905566096305847168e-01 2.944088354706764221e-02 -3.840611279010772705e-01 -5.008488297462463379e-01 4.043590724468231201e-01 -3.035039603710174561e-01 -5.880652666091918945e-01 -2.369692176580429077e-01 4.195442497730255127e-01 -2.014625817537307739e-02 3.801499605178833008e-01 -1.104893907904624939e-01 -4.739866852760314941e-01 -4.127358496189117432e-01 1.284204572439193726e-01 -6.518330574035644531e-01 9.601024538278579712e-02 -5.980522632598876953e-01 -2.440854907035827637e-01 -3.686711192131042480e-01 -1.968885511159896851e-01 -4.966607987880706787e-01
-6.389617174863815308e-02 4.953144118189811707e-02 -4.401600360870361328e-01 -6.647873669862747192e-02 -3.829169869422912598e-01 -1.819932311773300171e-01 -5.686510205268859863e-01 -1.110021173954010010e-01 1.711982190608978271e-01 -1.587127298116683960e-01 -5.689325928688049316e-02 -2.400660216808319092e-01 -3.511468470096588135e-01 4.787237942218780518e-02 -4.715704321861267090e-01 -3.975156694650650024e-02 6.474868655204772949e-01 4.598350822925567627e-01 -9.915465861558914185e-02 2.367017716169357300e-01 -9.625084698200225830e-02 -4.050537943840026855e-02 2.337818890810012817e-01 -3.244273960590362549e-01 -1.067431047558784485e-01 -6.314061880111694336e-01 1.001624390482902527e-01 -1.676140278577804565e-01 -3.475874662399291992e-01 -4.952794909477233887e-01 -1.527176946401596069e-01 -3.041200041770935059e-01 8.014120161533355713e-02 9.548988938331604004e-01 3.057696521282196045e-01 7.428336888551712036e-02 -9.940757416188716888e-03 -1.962275505065917969e-01 -2.923753857612609863e-01 2.835756540298461914e-01 1.434706747531890869e-01 -8.548947423696517944e-02 4.210026562213897705e-01 2.202873975038528442e-01 1.717824041843414307e-01 7.565714418888092041e-02 -2.396055459976196289e-01 -2.385030537843704224e-01 5.999162420630455017e-02 -5.253596901893615723e-01
3.286202624440193176e-02 -4.123291373252868652e-01 2.253523468971252441e-01 -4.078092277050018311e-01 1.305914819240570068e-01 -2.494480162858963013e-01 2.362503558397293091e-01 -7.116718888282775879e-01 -3.397501409053802490e-01 4.013814926147460938e-01 -3.078592419624328613e-01 3.528736531734466553e-01 4.540510475635528564e-01 5.118135213851928711e-01 2.682614922523498535e-01 1.799338757991790771e-01 -2.842140197753906250e-01 -1.194071650505065918e+00 8.131879568099975586e-02 -6.088420748710632324e-01 1.950667947530746460e-01 3.283536136150360107e-01 -1.351262032985687256e-01 -2.368129193782806396e-01 2.627382576465606689e-01 -3.009229302406311035e-01 3.223294615745544434e-01 -2.417605668306350708e-01 -2.991858422756195068e-01 3.639692366123199463e-01 2.192882597446441650e-01 3.648803755640983582e-02 -4.184544980525970459e-01 -8.291441202163696289e-02 -9.726020097732543945e-01 -5.093182921409606934e-01 -1.583545356988906860e-01 -3.676086366176605225e-01 3.506461977958679199e-01 -5.676653385162353516e-01 1.866554170846939087e-01 3.172965049743652344e-01 -2.181740254163742065e-01 -2.719168663024902344e-01 1.172679141163825989e-01 5.143534392118453979e-02 1.087153926491737366e-01 -5.052088573575019836e-02 -4.579884931445121765e-02 5.100130438804626465e-01
3.719800710678100586e-01 2.086128294467926025e-02 -5.676910877227783203e-01 -3.951185941696166992e-01 4.920710250735282898e-02 -3.484684824943542480e-01 -8.723571896553039551e-02 -4.424425959587097168e-01 8.255370706319808960e-02 5.567330867052078247e-03 -4.274443686008453369e-01 -3.239745199680328369e-01 4.034878909587860107e-01 1.920713037252426147e-01 2.577953636646270752e-01 6.844663023948669434e-01 -5.964404940605163574e-01 6.927251219749450684e-01 4.447264671325683594e-01 -1.555452048778533936e-01 -2.315020859241485596e-01 1.041693925857543945e+00 -1.470229309052228928e-02 1.387240648269653320e+00 9.669146686792373657e-02 -3.088246881961822510e-01 4.375033974647521973e-01 2.247095257043838501e-01 2.774797379970550537e-01 -7.760835438966751099e-02 1.930170059204101562e-01 -1.250676661729812622e-01 -6.185452938079833984e-01 -3.101328313350677490e-01 2.390542745590209961e+00 3.026579320430755615e-01 2.647938430309295654e-01 7.973287999629974365e-02 -1.082470774650573730e+00 1.642716377973556519e-01 -7.904311418533325195e-01 5.577396154403686523e-01 -1.524962484836578369e-01 1.128128528594970703e+00 1.922594197094440460e-02 -2.066117711365222931e-02 2.345764935016632080e-01 -3.931195437908172607e-01 -4.571478813886642456e-02 7.056345939636230469e-01
-4.173282384872436523e-01 -9.230201691389083862e-02 1.279280483722686768e-01 -2.603760361671447754e-01 -5.990588665008544922e-01 -2.471875026822090149e-02 6.484260410070419312e-02 -2.954769730567932129e-01 -8.433432318270206451e-03 -1.552476286888122559e-01 -5.128844827413558960e-02 1.382523402571678162e-02 -3.977808058261871338e-01 -3.085800707340240479e-01 -4.378246665000915527e-01 -4.810433685779571533e-01 -1.526158750057220459e-01 7.859555482864379883e-01 -3.379060924053192139e-01 -4.738582074642181396e-01 -3.583690524101257324e-01 -5.424137115478515625e-01 1.937046647071838379e-01 -3.040679395198822021e-01 -2.408166825771331787e-01 -2.298170626163482666e-01 -3.487334549427032471e-01 -1.338006556034088135e-01 -1.773544698953628540e-01 2.807528078556060791e-01 -5.001381784677505493e-02 -5.158135890960693359e-01 2.102859169244766235e-01 -5.766971707344055176e-01 3.597615957260131836e-01 -6.946600228548049927e-02 -1.109582632780075073e-01 -1.399842053651809692e-01 2.131548076868057251e-01 5.432735085487365723e-01 -1.843053847551345825e-01 -3.272387981414794922e-01 2.966156601905822754e-02 -1.601538211107254028e-01 -3.852014541625976562e-01 -6.080811619758605957e-01 -2.782903313636779785e-01 -1.441675126552581787e-01 -2.639043331146240234e-01 -3.470169901847839355e-01
7.267557829618453979e-02 1.027622938156127930e+00 -6.238566637039184570e-01 8.054426908493041992e-01 -1.456792652606964111e-01 1.888237118721008301e+00 -2.535250425338745117e+00 1.515265822410583496e+00 1.249879837036132812e+00 -7.158331871032714844e-01 8.801888823509216309e-01 -8.436673283576965332e-01 -2.902134954929351807e-01 -1.218582242727279663e-01 -1.747405678033828735e-01 -1.182734131813049316e+00 1.327932715415954590e+00 -3.809036016464233398e-01 -4.981853961944580078e-01 3.487969338893890381e-01 2.030483037233352661e-01 1.611691266298294067e-01 -9.812708497047424316e-01 -2.829861082136631012e-02 -7.445682883262634277e-01 1.013512849807739258e+00 -8.397153764963150024e-02 -3.027021169662475586e+00 1.592347741127014160e+00 -1.308782219886779785e+00 -4.916389286518096924e-02 -2.099553644657135010e-01 9.311102628707885742e-01 7.374965548515319824e-01 1.098119378089904785e+00 -1.093467235565185547e+00 6.025464534759521484e-01 1.451281458139419556e-01 -9.756678938865661621e-01 -1.159069061279296875e+00 -1.000638723373413086e+00 -3.700323700904846191e-01 1.230797171592712402e+00 -8.117396831512451172e-01 -7.019169330596923828e-01 2.594582736492156982e-01 -2.279796153306961060e-01 -1.889462769031524658e-01 -8.969888091087341309e-01 -1.877090781927108765e-01
-5.675451159477233887e-01 2.413210831582546234e-02 -2.672846019268035889e-01 3.449889719486236572e-01 -4.887578487396240234e-01 2.486991286277770996e-01 -2.394155114889144897e-01 8.965884894132614136e-02 -3.501455858349800110e-02 -2.661385238170623779e-01 -1.874145120382308960e-01 -6.764590144157409668e-01 -3.120174109935760498e-01 -4.445756375789642334e-01 -5.865093469619750977e-01 -4.290864467620849609e-01 2.525718510150909424e-01 -1.690068095922470093e-01 -3.815792500972747803e-01 5.619498714804649353e-02 -1.684317737817764282e-01 -5.647947788238525391e-01 -3.673423826694488525e-01 -6.238270401954650879e-01 -3.081664144992828369e-01 -7.212418317794799805e-02 1.096444018185138702e-02 3.677128255367279053e-01 2.886834321543574333e-03 -1.782909268513321877e-03 -6.484623551368713379e-01 -5.309495329856872559e-01 2.762818336486816406e-01 1.109769716858863831e-01 -2.979236245155334473e-01 -6.306051015853881836e-01 4.580061733722686768e-01 2.009104192256927490e-01 -2.245627194643020630e-01 8.017902821302413940e-02 -2.380078583955764771e-01 -1.510099768638610840e-01 1.581789553165435791e-01 4.045724868774414062e-01 -3.658837676048278809e-01 -5.301257967948913574e-01 -4.557843208312988281e-01 -7.233417630195617676e-01 -2.920694649219512939e-01 -5.143783092498779297e-01
-7.025091052055358887e-01 2.949682474136352539e-01 -4.125818014144897461e-01 7.939088940620422363e-01 -1.790893673896789551e-01 1.745067685842514038e-01 -6.203178763389587402e-01 6.194366216659545898e-01 5.693777799606323242e-01 -1.871840842068195343e-02 4.319279193878173828e-01 2.402257025241851807e-01 -2.226565480232238770e-01 -2.345395535230636597e-01 -1.135035753250122070e-01 -2.745432853698730469e-01 2.719925045967102051e-01 -8.836120963096618652e-01 -5.049949884414672852e-01 3.143071830272674561e-01 -9.426352381706237793e-01 -1.553584635257720947e-01 6.414433568716049194e-02 -8.518198132514953613e-01 -8.595424294471740723e-01 2.321248799562454224e-01 -4.467054307460784912e-01 -4.550983607769012451e-01 7.297122478485107422e-01 -5.740521550178527832e-01 -3.670678734779357910e-01 -1.612453758716583252e-01 5.991826057434082031e-01 4.855844378471374512e-01 -8.519087433815002441e-01 -7.916924953460693359e-01 -6.836277246475219727e-01 -1.337667703628540039e-01 2.174647301435470581e-01 -2.973954081535339355e-01 -1.581898629665374756e-01 -1.960739940404891968e-01 3.765812516212463379e-01 -8.730989098548889160e-01 1.060453578829765320e-01 3.253813087940216064e-01 -2.165655195713043213e-01 -4.999573528766632080e-02 -4.192376509308815002e-02 -1.986722201108932495e-01
-7.622352242469787598e-01 2.052167654037475586e-01 -9.696410298347473145e-01 1.041147470474243164e+00 4.364066720008850098e-01 4.314221441745758057e-02 -8.084983229637145996e-01 1.094569563865661621e+00 1.105426192283630371e+00 -5.888901278376579285e-02 9.027760028839111328e-01 -1.165965497493743896e-01 -2.499370276927947998e-01 -4.946757853031158447e-01 -2.237932682037353516e-01 -1.114686012268066406e+00 2.937876582145690918e-01 -4.056706905364990234e+00 -6.740711927413940430e-01 1.106426715850830078e+00 -1.022345185279846191e+00 1.502851098775863647e-01 -1.680782675743103027e+00 -1.125317692756652832e+00 -8.441204428672790527e-01 1.129696488380432129e+00 -5.182403922080993652e-01 -7.795234918594360352e-01 1.158585429191589355e+00 -5.571775436401367188e-01 -1.066606998443603516e+00 8.241954445838928223e-02 9.668872691690921783e-03 1.201990127563476562e+00 -2.752342700958251953e+00 -2.289284467697143555e+00 -6.241071820259094238e-01 4.513570368289947510e-01 6.796267628669738770e-02 -4.454841613769531250e+00 -1.163782000541687012e+00 -3.404531180858612061e-01 5.637426972389221191e-01 -9.231453388929367065e-02 -8.948410749435424805e-01 -1.609269231557846069e-01 -9.785614609718322754e-01 -6.289403438568115234e-01 -9.465841650962829590e-01 -4.257125556468963623e-01
2.267778962850570679e-01 -6.602249741554260254e-01 8.232958912849426270e-01 -1.462271511554718018e-01 2.754289805889129639e-01 -8.896607160568237305e-01 8.406611680984497070e-01 -2.625817656517028809e-01 -1.100476980209350586e+00 7.134914398193359375e-01 -7.256000638008117676e-01 5.116639137268066406e-01 4.085213541984558105e-01 4.210666120052337646e-01 4.546456933021545410e-01 4.056544899940490723e-01 -4.926477670669555664e-01 -3.603023290634155273e-02 5.361813306808471680e-01 -4.626365900039672852e-01 -8.480132371187210083e-02 5.964773297309875488e-01 5.076131224632263184e-01 6.404332816600799561e-02 1.914711296558380127e-01 -6.582399606704711914e-01 3.654648065567016602e-01 -3.698284924030303955e-02 -3.294598758220672607e-01 4.183745086193084717e-01 2.745839953422546387e-01 2.487335950136184692e-01 -3.336885273456573486e-01 -9.141087532043457031e-01 -1.281497001647949219e+00 1.864005088806152344e+00 -6.332371234893798828e-01 -9.585130214691162109e-01 5.001571774482727051e-01 -1.426826119422912598e-01 4.834596067667007446e-02 4.343731105327606201e-01 -6.808969378471374512e-01 -1.141795158386230469e+00 6.818217635154724121e-01 3.601413369178771973e-01 3.992867171764373779e-01 2.479863464832305908e-01 5.745196342468261719e-01 4.831394851207733154e-01
-2.013883590698242188e-01 2.040188014507293701e-01 -2.157303839921951294e-01 -5.724829807877540588e-02 -5.132896304130554199e-01 1.564252078533172607e-01 -4.903305321931838989e-02 -1.815405860543251038e-02 -1.008834987878799438e-01 -4.037877619266510010e-01 7.246746867895126343e-02 -5.403481125831604004e-01 -2.038843035697937012e-01 -5.527507662773132324e-01 -5.872435569763183594e-01 -2.507616281509399414e-01 -3.526926506310701370e-03 2.646259069442749023e-01 -3.057943880558013916e-01 -7.841957360506057739e-02 3.284329175949096680e-02 -4.083181172609329224e-02 -3.892026543617248535e-01 -5.534967184066772461e-01 -2.256273180246353149e-01 -3.381002843379974365e-01 -4.662479162216186523e-01 2.207223176956176758e-01 -2.734445407986640930e-02 -4.307168126106262207e-01 -4.477755427360534668e-01 -2.074157446622848511e-01 4.320971667766571045e-01 -2.372422963380813599e-01 4.551556706428527832e-01 -8.428904414176940918e-02 4.544415175914764404e-01 7.417318224906921387e-02 4.219509288668632507e-02 8.780728578567504883e-01 -4.989861249923706055e-01 -1.943920403718948364e-01 -5.374236404895782471e-02 -1.228851079940795898e-01 -1.225610077381134033e-01 -2.448610961437225342e-01 -2.297848165035247803e-01 -3.686105608940124512e-01 -3.970206379890441895e-01 -5.356506705284118652e-01
-3.038567900657653809e-01 4.696446061134338379e-01 -3.824767172336578369e-01 -1.657589823007583618e-01 -4.356566667556762695e-01 1.549600958824157715e-01 -1.464847624301910400e-01 -4.035914242267608643e-01 2.113214582204818726e-01 -2.673865556716918945e-01 -1.229097396135330200e-01 -9.645493328571319580e-02 -3.248407542705535889e-01 -1.553162038326263428e-01 -4.727837443351745605e-01 -1.893145143985748291e-01 1.424422860145568848e-01 6.974817067384719849e-02 4.777768626809120178e-04 -4.539801776409149170e-01 -3.211298584938049316e-01 -2.444798946380615234e-01 -2.913683354854583740e-01 -4.409503340721130371e-01 -2.039824724197387695e-01 -8.992467820644378662e-02 -3.086669445037841797e-01 -4.592019021511077881e-01 1.143932119011878967e-01 7.286600023508071899e-02 1.571171358227729797e-02 -2.972499728202819824e-01 4.902370870113372803e-01 -2.896572351455688477e-01 4.097400307655334473e-01 -8.079902082681655884e-02 8.135096728801727295e-02 2.623668015003204346e-01 1.371803283691406250e-01 1.116053462028503418e+00 5.071686580777168274e-02 -1.533618271350860596e-01 -1.499342322349548340e-01 1.876509934663772583e-01 -2.519086897373199463e-01 2.701751142740249634e-02 -5.530988797545433044e-02 -2.637582719326019287e-01 -1.520436555147171021e-01 1.569017469882965088e-01
5.068849921226501465e-01 -4.361586868762969971e-01 -5.603924393653869629e-01 -2.706993818283081055e-01 2.603340335190296173e-02 -1.437943428754806519e-01 -5.536392927169799805e-01 -1.367418169975280762e-01 3.176392614841461182e-01 -8.788784593343734741e-02 4.656460136175155640e-02 -2.177225351333618164e-01 3.672306835651397705e-01 4.246935546398162842e-01 -4.204490780830383301e-01 6.407592296600341797e-01 1.922315806150436401e-01 -1.491015195846557617e+00 3.079179823398590088e-01 2.849180698394775391e-01 6.159361079335212708e-02 4.099019169807434082e-01 -1.546485871076583862e-01 1.277029752731323242e+00 1.317075639963150024e-01 1.393628772348165512e-02 5.875769257545471191e-01 -5.432999134063720703e-01 -9.853915311396121979e-03 4.678218439221382141e-02 -5.948962271213531494e-02 -1.364345569163560867e-02 -5.024976134300231934e-01 3.456985652446746826e-01 -2.333718538284301758e-01 -2.238491028547286987e-01 8.270058035850524902e-01 2.612143754959106445e-02 -7.370915412902832031e-01 -9.894254803657531738e-01 3.644877299666404724e-02 1.132144033908843994e-01 1.364324092864990234e-01 7.788484096527099609e-01 5.189873278141021729e-02 2.668271064758300781e-01 2.491560131311416626e-01 -4.709852337837219238e-01 -1.097151041030883789e-01 4.812396764755249023e-01
-8.316322416067123413e-02 -2.110937237739562988e-01 2.690851092338562012e-01 -4.608741700649261475e-01 2.117721736431121826e-01 -1.260063201189041138e-01 2.367968559265136719e-01 -4.278839826583862305e-01 -4.065360873937606812e-02 -1.790632009506225586e-01 -4.868836402893066406e-01 2.311959862709045410e-01 1.262580454349517822e-01 8.687455952167510986e-02 -1.650528907775878906e-01 -2.330053150653839111e-01 -5.037736296653747559e-01 -4.309032559394836426e-01 -1.476470082998275757e-01 -4.015414416790008545e-01 -2.419604957103729248e-01 -3.176626265048980713e-01 -6.995559930801391602e-01 -3.656481206417083740e-01 1.778396070003509521e-01 -2.480094730854034424e-01 2.362551838159561157e-01 -1.568826436996459961e-01 -4.396432936191558838e-01 4.721166789531707764e-01 3.166981935501098633e-01 -3.951305150985717773e-02 3.333974257111549377e-02 -3.890366256237030029e-01 6.592791080474853516e-01 2.402490377426147461e-01 3.501038849353790283e-01 -2.568205595016479492e-01 -1.767519563436508179e-01 -1.046575512737035751e-02 5.553843379020690918e-01 -2.055980414152145386e-01 -3.715217113494873047e-01 -2.900409102439880371e-01 -1.373141705989837646e-01 -4.467083215713500977e-01 -6.259205192327499390e-02 1.632188707590103149e-01 1.877018064260482788e-01 1.297446191310882568e-01
1.742623299360275269e-01 -6.362355947494506836e-01 7.222105860710144043e-01 -4.790494441986083984e-01 1.963104456663131714e-01 -9.265391230583190918e-01 8.830172419548034668e-01 -6.540756225585937500e-01 -7.424070239067077637e-01 6.353105306625366211e-01 -6.321924924850463867e-01 2.478967756032943726e-01 5.055699944496154785e-01 3.290755152702331543e-01 3.083748221397399902e-01 -3.620794788002967834e-02 -7.412768602371215820e-01 -3.280933480709791183e-03 5.567703247070312500e-01 -8.930064439773559570e-01 2.044657170772552490e-01 3.435619473457336426e-01 3.695185780525207520e-01 4.188191890716552734e-01 3.806068897247314453e-01 -5.890856385231018066e-01 1.724812537431716919e-01 8.904548287391662598e-01 -5.684490203857421875e-01 6.307704448699951172e-01 2.942512929439544678e-01 6.234545707702636719e-01 -7.188950181007385254e-01 -5.614442229270935059e-01 -3.277412652969360352e-01 9.853103756904602051e-01 -1.602057456970214844e+00 -7.792165279388427734e-01 9.157081246376037598e-01 -5.609301328659057617e-01 2.092432677745819092e-01 6.515630483627319336e-01 -9.127680659294128418e-01 -8.391378521919250488e-01 1.770305931568145752e-01 6.816086173057556152e-01 3.355073034763336182e-01 6.238116621971130371e-01 5.842609405517578125e-01 1.988521218299865723e-01
-8.373771905899047852e-01 2.559526264667510986e-01 -8.629155755043029785e-01 9.358816146850585938e-01 -2.097892314195632935e-01 3.928573429584503174e-01 -6.806007027626037598e-01 9.579444527626037598e-01 5.832657814025878906e-01 -5.120282769203186035e-01 3.228951096534729004e-01 -7.648720145225524902e-01 1.749241054058074951e-01 -4.232377409934997559e-01 -7.467173933982849121e-01 -7.773557901382446289e-01 7.128569483757019043e-01 -2.033957242965698242e+00 -4.239633679389953613e-01 9.131209254264831543e-01 -4.225460588932037354e-01 2.664921581745147705e-01 -7.431290149688720703e-01 -1.217571973800659180e+00 -9.967666268348693848e-01 2.874655127525329590e-01 -6.285862922668457031e-01 3.064292371273040771e-01 2.158314138650894165e-01 -7.058631181716918945e-01 -1.153508067131042480e+00 -3.372266590595245361e-01 3.904807865619659424e-01 1.418201446533203125e+00 -1.858083963394165039e+00 -5.421432852745056152e-01 3.014370203018188477e-01 5.565443038940429688e-01 -2.383311092853546143e-01 -2.889881610870361328e+00 -6.325683593750000000e-01 -7.937236428260803223e-01 5.535312294960021973e-01 4.647785723209381104e-01 -3.429393470287322998e-01 -4.580228030681610107e-01 -8.880299925804138184e-01 -6.570174098014831543e-01 -6.615494489669799805e-01 -5.457028150558471680e-01
2.376164346933364868e-01 -6.589056253433227539e-01 8.932049572467803955e-02 -4.730572998523712158e-01 6.465111970901489258e-01 -1.137762904167175293e+00 8.255471587181091309e-01 -8.344153165817260742e-01 -7.807851433753967285e-01 4.845793247222900391e-01 -5.361835956573486328e-01 1.560071557760238647e-01 8.652103543281555176e-01 1.778521239757537842e-01 2.327515929937362671e-02 4.305760189890861511e-02 -6.580605506896972656e-01 3.274728357791900635e-01 3.064322173595428467e-01 -6.505083441734313965e-01 2.901780009269714355e-01 -4.257505759596824646e-02 -2.120901346206665039e-01 7.837737798690795898e-01 3.260250091552734375e-01 -6.562613248825073242e-01 5.082217454910278320e-01 8.376920819282531738e-01 -9.103694558143615723e-01 1.527392566204071045e-01 2.610264718532562256e-01 4.937174618244171143e-01 -6.275762319564819336e-01 -6.777960807085037231e-02 1.747824311256408691e+00 1.853242993354797363e+00 -1.162192583084106445e+00 -9.683082699775695801e-01 4.199269115924835205e-01 -1.208139583468437195e-01 2.462288886308670044e-01 6.561065912246704102e-01 -7.455771565437316895e-01 -2.284432798624038696e-01 2.471213638782501221e-01 1.946096718311309814e-01 3.735076189041137695e-01 -5.481242015957832336e-02 3.860599398612976074e-01 3.262366056442260742e-01
-1.174036264419555664e-01 -1.992502361536026001e-01 -1.897678673267364502e-01 -3.585924161598086357e-03 4.738940298557281494e-02 -6.978116929531097412e-03 -3.789675533771514893e-01 1.961017027497291565e-02 -8.543856441974639893e-02 -5.271142348647117615e-03 -2.146160155534744263e-01 -6.001631021499633789e-01 6.622818857431411743e-02 -3.630386888980865479e-01 -4.288492500782012939e-01 -4.792752861976623535e-01 2.377965003252029419e-01 3.093947172164916992e-01 -2.033331394195556641e-01 7.756294310092926025e-02 7.796546816825866699e-02 -1.594685912132263184e-01 -2.149133533239364624e-01 -2.859361767768859863e-01 -1.586004048585891724e-01 -1.476619541645050049e-01 -2.485115826129913330e-01 5.600213408470153809e-01 -1.154185980558395386e-01 -3.855695426464080811e-01 -2.081173062324523926e-01 -2.342418283224105835e-01 1.872245073318481445e-01 -8.271690458059310913e-02 4.153904914855957031e-01 -4.053591191768646240e-01 3.971287608146667480e-01 9.924506396055221558e-02 -1.071160957217216492e-01 5.538038015365600586e-01 -4.905884265899658203e-01 -2.269038110971450806e-01 -1.606686711311340332e-01 -1.672455817461013794e-01 -2.413635551929473877e-01 -2.961325943470001221e-01 -1.722363233566284180e-01 -3.507041335105895996e-01 -3.322202265262603760e-01 -1.183432415127754211e-01
7.852052897214889526e-02 -2.587657868862152100e-01 -1.091626048088073730e+00 2.087187170982360840e-01 5.770074129104614258e-01 -3.186737298965454102e-01 -7.173716425895690918e-01 3.924176990985870361e-01 4.987777471542358398e-01 -6.608787924051284790e-02 4.723426997661590576e-01 -4.763223528861999512e-01 5.915057063102722168e-01 -4.012830257415771484e-01 -6.129615902900695801e-01 -3.271817564964294434e-01 6.238471269607543945e-01 -1.617308259010314941e-01 5.041542649269104004e-02 1.090234875679016113e+00 6.378075480461120605e-01 1.701988101005554199e+00 -4.469069540500640869e-01 -2.463326416909694672e-02 -6.377801895141601562e-01 8.522765338420867920e-02 -7.997325807809829712e-02 -9.287862479686737061e-02 -9.764421731233596802e-02 -9.050796627998352051e-01 -4.657394587993621826e-01 1.214205697178840637e-01 -2.927952110767364502e-01 1.277661919593811035e+00 3.602195680141448975e-01 1.985462568700313568e-02 4.268286228179931641e-01 3.511679172515869141e-01 -4.855543673038482666e-01 -1.240320205688476562e+00 -5.619424581527709961e-01 1.162779852747917175e-01 6.559934616088867188e-01 5.891852378845214844e-01 -1.997180134057998657e-01 2.424515485763549805e-01 -5.041271820664405823e-02 -6.138441562652587891e-01 -4.203246831893920898e-01 1.852122880518436432e-02
-9.125583171844482422e-01 7.309286594390869141e-01 -7.878654003143310547e-01 1.120951890945434570e+00 -5.998312234878540039e-01 6.787420511245727539e-01 -6.633099913597106934e-01 5.115861296653747559e-01 5.732639431953430176e-01 -4.551340341567993164e-01 4.287235736846923828e-01 -8.133899569511413574e-01 -4.161195755004882812e-01 -8.672459721565246582e-01 -7.059468030929565430e-01 -8.726365566253662109e-01 6.906377077102661133e-01 -8.652940988540649414e-01 -6.044971942901611328e-01 8.035010099411010742e-01 -1.081893801689147949e+00 -6.110890507698059082e-01 -8.644507527351379395e-01 -8.283649086952209473e-01 -9.038707613945007324e-01 5.478657484054565430e-01 -9.707232713699340820e-01 3.457633852958679199e-01 6.571000218391418457e-01 -1.063089728355407715e+00 -1.424371957778930664e+00 -4.819037616252899170e-01 7.194248437881469727e-01 7.540537714958190918e-01 -7.537070512771606445e-01 -4.736231565475463867e-01 4.818852543830871582e-01 8.303760886192321777e-01 -2.432862967252731323e-01 -7.745472192764282227e-01 -1.011112093925476074e+00 -6.436508297920227051e-01 8.788835406303405762e-01 4.926107823848724365e-01 -9.448222517967224121e-01 -1.004804968833923340e+00 -1.031575322151184082e+00 -1.099335312843322754e+00 -1.025901913642883301e+00 -6.263637542724609375e-01
-1.014804118312895298e-03 -6.055912971496582031e-01 3.819634616374969482e-01 -7.038177847862243652e-01 1.071422174572944641e-01 -4.637996852397918701e-01 4.342813789844512939e-01 -8.646312952041625977e-01 -1.023951992392539978e-01 1.523509323596954346e-01 -4.180305004119873047e-01 -1.981241405010223389e-01 -3.246630355715751648e-02 -4.989742860198020935e-02 -4.587621614336967468e-02 1.678784638643264771e-01 -5.150911808013916016e-01 5.788567066192626953e-01 3.562650177627801895e-03 -6.579204797744750977e-01 -3.965609967708587646e-01 -3.738894164562225342e-01 -7.905567996203899384e-03 -1.479676961898803711e-01 9.111512452363967896e-02 -3.417638838291168213e-01 1.262613236904144287e-01 2.988273203372955322e-01 -7.694483995437622070e-01 2.008609324693679810e-01 6.654500216245651245e-02 -1.859320551156997681e-01 -1.619831025600433350e-01 -3.498609960079193115e-01 9.573480486869812012e-01 5.640702247619628906e-01 3.409510850906372070e-01 -5.248450040817260742e-01 3.974917903542518616e-02 7.628483772277832031e-01 2.795101702213287354e-01 -9.189488738775253296e-02 -5.921888947486877441e-01 2.909130603075027466e-02 3.080825135111808777e-02 -3.061898350715637207e-01 -7.869347184896469116e-02 -2.080251574516296387e-01 2.101361751556396484e-01 8.134719729423522949e-02
-2.069176584482192993e-01 -4.049764573574066162e-01 -2.557511925697326660e-01 -8.428319096565246582e-01 2.446621954441070557e-01 -1.093719713389873505e-02 1.018318757414817810e-01 -6.821537017822265625e-01 3.139790892601013184e-02 -1.386342383921146393e-02 -2.053467333316802979e-01 -3.492476940155029297e-01 7.970237135887145996e-01 3.055492639541625977e-01 -8.438315987586975098e-02 2.593341171741485596e-01 1.842249184846878052e-01 1.628686785697937012e-01 1.418826282024383545e-01 -3.445955514907836914e-01 -2.231294214725494385e-01 4.172005131840705872e-02 6.595183908939361572e-02 5.665198564529418945e-01 6.001118943095207214e-02 -7.811575531959533691e-01 7.096415758132934570e-02 -1.184984087944030762e+00 -7.465348243713378906e-01 -7.394327223300933838e-02 -1.442595869302749634e-01 -3.054720163345336914e-01 -2.964947819709777832e-01 1.083735823631286621e+00 6.049872636795043945e-01 3.052919507026672363e-01 3.135013580322265625e-02 -2.954479157924652100e-01 -2.034113742411136627e-02 1.594935357570648193e-01 2.705001831054687500e-01 5.737384408712387085e-02 -2.985531687736511230e-01 -1.006551086902618408e-01 -1.756438314914703369e-01 -5.024415850639343262e-01 -1.933715939521789551e-01 8.014906942844390869e-02 1.659914404153823853e-01 4.318673163652420044e-02
-6.156207323074340820e-01 2.674350440502166748e-01 -5.093597769737243652e-01 6.845812797546386719e-01 3.321199715137481689e-01 3.128702044486999512e-01 -8.749111890792846680e-01 1.136512041091918945e+00 9.217992424964904785e-01 -1.410858631134033203e-01 8.066388964653015137e-01 -8.873381018638610840e-01 3.279661834239959717e-01 -6.632530093193054199e-01 -4.829374849796295166e-01 -4.313940927386283875e-02 4.827655255794525146e-01 -1.713819622993469238e+00 -3.629797101020812988e-01 9.882292747497558594e-01 -1.837336719036102295e-01 -3.347629681229591370e-02 -4.411403536796569824e-01 -3.351320326328277588e-01 -4.569097459316253662e-01 5.448110103607177734e-01 -6.831672191619873047e-01 -1.314736716449260712e-02 8.035370707511901855e-01 -5.251003503799438477e-01 -1.073267698287963867e+00 -4.838559627532958984e-01 4.988138973712921143e-01 1.146852612495422363e+00 -2.088730096817016602e+00 -1.533356189727783203e+00 5.835701152682304382e-02 5.874284505844116211e-01 -3.580783307552337646e-01 -2.621577024459838867e+00 -8.034107685089111328e-01 -6.298698782920837402e-01 9.172661304473876953e-01 6.630891561508178711e-01 -5.249933004379272461e-01 -7.204616069793701172e-01 -7.190818786621093750e-01 -8.701523542404174805e-01 -6.400689482688903809e-01 -4.378185868263244629e-01
-6.099169254302978516e-01 -3.419069647789001465e-01 -5.161804556846618652e-01 3.892074525356292725e-01 -6.688429117202758789e-01 -2.977778911590576172e-01 -4.910000562667846680e-01 8.568046689033508301e-01 4.194650352001190186e-01 -8.847475051879882812e-02 7.551606893539428711e-01 -1.184941921383142471e-02 -2.096643000841140747e-01 -6.077960729598999023e-01 -7.860518693923950195e-01 -7.674452662467956543e-01 1.161005422472953796e-01 -2.729181528091430664e+00 -4.447222054004669189e-01 3.268232941627502441e-01 -1.483013629913330078e+00 -5.516935586929321289e-01 -7.606214284896850586e-01 -1.291236758232116699e+00 -6.765688061714172363e-01 5.094486474990844727e-01 -5.217918157577514648e-01 -3.520415425300598145e-01 3.485514521598815918e-01 -7.156877517700195312e-01 -2.621208727359771729e-01 -4.235902428627014160e-01 -1.407219171524047852e-01 7.049306035041809082e-01 -1.219096064567565918e+00 -1.622079968452453613e+00 -1.658575773239135742e+00 4.102928191423416138e-02 4.087819755077362061e-01 -3.777182102203369141e+00 -9.632575511932373047e-02 -4.874703288078308105e-01 3.463106751441955566e-01 -1.799513220787048340e+00 -4.388448596000671387e-01 -6.581442356109619141e-01 -6.517852544784545898e-01 -6.830776333808898926e-01 -1.435104161500930786e-01 -1.313456177711486816e+00
8.073916435241699219e-01 -1.103557705879211426e+00 -1.177770346403121948e-01 -9.348405003547668457e-01 3.444846570491790771e-01 -5.246718525886535645e-01 -1.733729988336563110e-01 -6.146039366722106934e-01 -3.204891383647918701e-01 6.410403847694396973e-01 -6.271704435348510742e-01 6.718198060989379883e-01 8.032962083816528320e-01 1.002750039100646973e+00 2.978079915046691895e-01 6.384394764900207520e-01 -5.995962619781494141e-01 -1.931816577911376953e+00 7.472259402275085449e-01 -2.876547276973724365e-01 7.272619605064392090e-01 8.976925015449523926e-01 2.251254618167877197e-01 8.362827897071838379e-01 7.235151529312133789e-01 -5.474694967269897461e-01 8.101980090141296387e-01 -1.476577997207641602e+00 -7.944263219833374023e-01 3.371657431125640869e-01 5.895533561706542969e-01 6.553510427474975586e-01 -6.043046712875366211e-01 -2.883740961551666260e-01 -1.162266016006469727e+00 -8.923532962799072266e-01 -3.367399573326110840e-01 -4.378437101840972900e-01 6.319890171289443970e-02 -1.835636734962463379e+00 1.152570009231567383e+00 6.011006236076354980e-01 -5.703609585762023926e-01 -2.339955866336822510e-01 6.157103776931762695e-01 8.596277832984924316e-01 3.963285982608795166e-01 5.613415837287902832e-01 5.530544519424438477e-01 9.791736006736755371e-01
-3.566537797451019287e-01 1.650792211294174194e-01 2.188402861356735229e-01 5.549704656004905701e-02 -1.663635820150375366e-01 2.196952998638153076e-01 -1.457017213106155396e-01 -1.753386408090591431e-01 2.031721025705337524e-01 -3.793578445911407471e-01 -3.633552417159080505e-02 1.245038583874702454e-01 -1.986834555864334106e-01 -4.074611663818359375e-01 -2.011675983667373657e-01 -1.060980409383773804e-01 -3.400658071041107178e-01 9.472749829292297363e-01 -3.748008608818054199e-01 -8.993705362081527710e-02 -4.468947649002075195e-01 -1.754168123006820679e-01 8.861892670392990112e-02 -5.726594328880310059e-01 -2.855825126171112061e-01 -3.682644665241241455e-01 -3.221004903316497803e-01 -1.872730106115341187e-01 -3.884772071614861488e-03 1.479612439870834351e-01 1.188318803906440735e-01 -2.340146452188491821e-01 5.527200549840927124e-02 -4.960277974605560303e-01 2.436362951993942261e-01 -1.548000276088714600e-01 2.785709686577320099e-02 -7.502589374780654907e-02 -2.275002747774124146e-01 5.300027728080749512e-01 -8.036800473928451538e-02 -3.170468509197235107e-01 -8.104940503835678101e-02 -2.928175628185272217e-01 -1.992530226707458496e-01 -1.897372007369995117e-01 -4.152810871601104736e-01 -2.077909186482429504e-02 -1.274974942207336426e-01 -2.940225005149841309e-01
3.286631405353546143e-01 4.378423988819122314e-01 -1.238643288612365723e+00 3.819728493690490723e-01 -1.622070223093032837e-01 5.614850521087646484e-01 -1.312482237815856934e+00 1.396005749702453613e-01 1.072358608245849609e+00 -5.789013504981994629e-01 4.785462319850921631e-01 -6.839714646339416504e-01 1.882215738296508789e-01 -2.452300302684307098e-02 6.853257864713668823e-02 -4.576021432876586914e-01 6.303056478500366211e-01 -2.741425335407257080e-01 -4.195580482482910156e-01 4.751218259334564209e-01 -9.842230081558227539e-01 1.690638899803161621e+00 -5.737671256065368652e-01 5.955470204353332520e-01 -2.564739882946014404e-01 4.919510781764984131e-01 1.445474568754434586e-02 -1.356182098388671875e+00 3.399826884269714355e-01 -3.855850696563720703e-01 -1.560241580009460449e-01 -4.364052414894104004e-02 -3.538286685943603516e-01 8.261315226554870605e-01 7.052145600318908691e-01 -4.005401730537414551e-01 1.306671738624572754e+00 4.236674308776855469e-01 -1.205812573432922363e+00 1.010792136192321777e+00 -4.981243014335632324e-01 -1.087667569518089294e-01 7.783419489860534668e-01 1.072393178939819336e+00 -8.340314626693725586e-01 -2.573138177394866943e-01 -2.969006896018981934e-01 -7.001093626022338867e-01 -8.987401127815246582e-01 9.309563636779785156e-01
-3.896382451057434082e-01 2.149908840656280518e-01 2.897234857082366943e-01 2.178122401237487793e-01 -9.134896397590637207e-01 1.619266122579574585e-01 3.080233037471771240e-01 -2.902995347976684570e-01 -7.901793718338012695e-02 -4.937148988246917725e-01 -3.169142305850982666e-01 -6.616393476724624634e-02 -9.392653703689575195e-01 -6.716098785400390625e-01 1.097817122936248779e-01 -6.528283953666687012e-01 -3.795009851455688477e-01 8.426117897033691406e-01 -5.695550441741943359e-01 -3.639478981494903564e-01 -1.347082614898681641e+00 -1.003498792648315430e+00 -4.078547358512878418e-01 -3.361788690090179443e-01 -4.730670154094696045e-01 -4.989611357450485229e-02 -5.326399207115173340e-01 1.008741036057472229e-01 1.732740253210067749e-01 -2.619561851024627686e-01 -7.100991159677505493e-02 -6.477237343788146973e-01 2.600792050361633301e-01 -5.737583041191101074e-01 4.767601788043975830e-01 8.781649470329284668e-01 6.196444388478994370e-03 3.370605036616325378e-02 2.857168391346931458e-02 7.903601527214050293e-01 -1.355569809675216675e-01 -4.487223625183105469e-01 -2.894718647003173828e-01 7.484614849090576172e-02 -1.376288980245590210e-01 -2.584325969219207764e-01 -6.228939071297645569e-02 3.243623767048120499e-03 -4.935656115412712097e-02 -3.158793747425079346e-01
5.900748372077941895e-01 5.596710368990898132e-02 -1.388606429100036621e+00 4.137458801269531250e-01 6.988469958305358887e-01 -1.454070210456848145e-01 -8.688997030258178711e-01 9.738131761550903320e-01 8.025592565536499023e-01 -5.111845955252647400e-02 8.529790639877319336e-01 -4.451717138290405273e-01 5.721482038497924805e-01 -5.061897039413452148e-01 -7.141129970550537109e-01 -2.240709587931632996e-02 7.871107459068298340e-01 -1.187418937683105469e+00 -3.385332524776458740e-01 5.372882485389709473e-01 1.254112005233764648e+00 1.023425698280334473e+00 -6.221060156822204590e-01 1.649869233369827271e-01 1.020455658435821533e-01 6.707541942596435547e-01 -1.207144930958747864e-02 -1.558958888053894043e-01 5.064453482627868652e-01 -1.127836585044860840e+00 -3.525689616799354553e-02 1.927998960018157959e-01 -4.120263159275054932e-01 1.348532199859619141e+00 5.084790587425231934e-01 -1.120904088020324707e+00 -9.335628151893615723e-01 5.375373363494873047e-01 -5.944561958312988281e-01 -1.812915682792663574e+00 -2.867983579635620117e-01 -2.037410587072372437e-01 8.670412898063659668e-01 2.637218534946441650e-01 -3.870648443698883057e-01 2.807815670967102051e-01 -4.785552248358726501e-02 -1.017821803689002991e-01 -7.343464493751525879e-01 -3.375245034694671631e-01
-7.681313157081604004e-02 2.870749235153198242e-01 2.624872326850891113e-01 7.394695281982421875e-02 -2.976485490798950195e-01 1.651885211467742920e-01 3.060258328914642334e-01 -1.282642781734466553e-01 -2.038144618272781372e-01 -4.298308193683624268e-01 -1.313539892435073853e-01 -4.203714057803153992e-02 -4.489063024520874023e-01 -2.386510521173477173e-01 -6.789908558130264282e-02 -3.738846778869628906e-01 -4.806641936302185059e-01 8.953181505203247070e-01 -2.141917645931243896e-01 -5.407872796058654785e-01 -4.629045426845550537e-01 -3.151480257511138916e-01 -6.625367999076843262e-01 3.806396722793579102e-01 6.379505246877670288e-02 -3.710439503192901611e-01 -3.126652240753173828e-01 4.688076376914978027e-01 2.858166955411434174e-02 3.102399036288261414e-02 -1.067968085408210754e-01 -3.543804287910461426e-01 -1.833636015653610229e-01 -9.865197539329528809e-01 5.275517106056213379e-01 4.834782779216766357e-01 6.409100890159606934e-01 1.626729816198348999e-01 -4.402975738048553467e-01 8.404595851898193359e-01 -3.969922065734863281e-01 -3.053063750267028809e-01 -2.283596098423004150e-01 3.537599742412567139e-01 -4.476538598537445068e-01 -4.127925932407379150e-01 -1.612311005592346191e-01 -2.354133725166320801e-01 -4.338868707418441772e-02 1.747164875268936157e-01
-4.382098913192749023e-01 1.436257362365722656e-01 2.673437818884849548e-02 1.579917520284652710e-01 -4.791382253170013428e-01 1.996752619743347168e-01 -3.160219490528106689e-01 7.890361547470092773e-02 -7.299903035163879395e-02 3.212226182222366333e-02 -3.419545292854309082e-01 -3.189663887023925781e-01 -3.132261335849761963e-01 -1.243747696280479431e-01 -4.563543498516082764e-01 -2.991636991500854492e-01 4.416771233081817627e-01 8.085250258445739746e-01 -2.834635376930236816e-01 1.837245672941207886e-01 -4.064983427524566650e-01 -1.266165971755981445e-01 1.920289918780326843e-02 -4.499714672565460205e-01 -2.952174246311187744e-01 -3.910519778728485107e-01 -2.130185365676879883e-01 -1.897567808628082275e-01 -1.060882508754730225e-01 -1.763333231210708618e-01 -2.278337627649307251e-01 -2.560333311557769775e-01 3.114260137081146240e-01 4.229757562279701233e-02 1.924437731504440308e-01 -3.436595797538757324e-01 5.443751811981201172e-01 -2.161518931388854980e-01 -1.187849491834640503e-01 -1.035516783595085144e-01 -6.943167187273502350e-03 -5.298548191785812378e-02 2.317793220281600952e-01 -2.052992582321166992e-01 2.953232824802398682e-01 -9.999834001064300537e-02 -4.022578299045562744e-01 2.162193693220615387e-02 -9.732663631439208984e-03 -4.453865885734558105e-01
7.594140172004699707e-01 -3.008942306041717529e-01 -7.169362902641296387e-01 -4.606674313545227051e-01 2.235608398914337158e-01 -6.666599512100219727e-01 -2.672793567180633545e-01 -2.276581674814224243e-01 -6.821680665016174316e-01 -5.546253547072410583e-02 -1.016001179814338684e-01 -2.024597078561782837e-01 4.040045142173767090e-01 3.805823922157287598e-01 6.238164305686950684e-01 5.493296980857849121e-01 3.765729963779449463e-01 1.967708021402359009e-01 3.838139474391937256e-01 -4.776268303394317627e-01 -9.913052618503570557e-02 7.942874431610107422e-01 6.747780442237854004e-01 7.174227237701416016e-01 4.838897585868835449e-01 -5.795179009437561035e-01 4.656835794448852539e-01 2.841917872428894043e-01 -5.430401563644409180e-01 6.536473333835601807e-02 5.257589817047119141e-01 5.806163549423217773e-01 -6.440952420234680176e-01 5.133087038993835449e-01 1.598068594932556152e+00 3.476307094097137451e-01 -6.879351735115051270e-01 -3.811955824494361877e-02 -2.738784253597259521e-01 -4.002602398395538330e-01 -3.397219479084014893e-01 5.330818891525268555e-01 -3.385002017021179199e-01 1.933325529098510742e-01 -1.831292808055877686e-01 7.634964585304260254e-01 6.397180557250976562e-01 3.247524052858352661e-02 1.338128596544265747e-01 5.815752744674682617e-01
5.553918480873107910e-01 -7.665345072746276855e-01 1.000469207763671875e+00 -4.143837392330169678e-01 -1.280526667833328247e-01 -7.003875970840454102e-01 4.231929183006286621e-01 -3.764187395572662354e-01 -3.185044825077056885e-01 8.476247787475585938e-01 -8.356305360794067383e-01 9.319469928741455078e-01 -2.069077491760253906e-01 5.407522916793823242e-01 2.720790207386016846e-01 4.310126602649688721e-01 -6.914268732070922852e-01 7.062833905220031738e-01 2.899196445941925049e-01 -5.533021092414855957e-01 6.653374992311000824e-03 -5.992097035050392151e-02 6.630464196205139160e-01 -2.846970260143280029e-01 4.134500920772552490e-01 -8.834269642829895020e-01 5.466507673263549805e-01 -1.186472773551940918e+00 -7.931931614875793457e-01 6.905155777931213379e-01 7.953576445579528809e-01 5.875963568687438965e-01 -5.813026428222656250e-01 -6.514474749565124512e-01 -1.741272211074829102e-01 2.946485280990600586e-01 -1.480497479438781738e+00 -8.519193530082702637e-01 1.000495433807373047e+00 5.964506268501281738e-01 8.908711075782775879e-01 8.706880211830139160e-01 -8.723843097686767578e-01 -9.471579194068908691e-01 9.201386570930480957e-01 4.140559732913970947e-01 5.697870254516601562e-01 6.581982374191284180e-01 9.161139130592346191e-01 2.416858375072479248e-01
5.790100097656250000e-01 -8.168759942054748535e-01 8.142199367284774780e-02 -8.264947533607482910e-01 4.153929650783538818e-01 -6.963791847229003906e-01 2.075935304164886475e-01 -3.939743041992187500e-01 -5.261113643646240234e-01 6.907649636268615723e-01 -5.078074336051940918e-01 5.015255212783813477e-01 7.946856021881103516e-01 4.797770082950592041e-01 6.149669289588928223e-01 5.897426605224609375e-01 -1.040048971772193909e-01 -2.625591307878494263e-02 3.844106197357177734e-01 8.646770566701889038e-02 -1.045176386833190918e-01 6.547259688377380371e-01 6.109244823455810547e-01 -2.474498897790908813e-01 5.001656413078308105e-01 -6.591245532035827637e-01 7.422152161598205566e-01 -1.278864145278930664e+00 -6.252949237823486328e-01 -7.790455967187881470e-02 6.954163312911987305e-01 7.157652974128723145e-01 -8.513368368148803711e-01 3.894234299659729004e-01 -2.185120582580566406e-01 3.049811348319053650e-02 -7.066883444786071777e-01 -2.256174534559249878e-01 1.536321640014648438e-01 -7.282940745353698730e-01 5.672236084938049316e-01 7.450648546218872070e-01 -5.259527564048767090e-01 -5.736397504806518555e-01 4.367619752883911133e-01 8.025802969932556152e-01 6.008235216140747070e-01 7.247481942176818848e-01 5.456047058105468750e-01 6.738645490258932114e-03
-1.225920096039772034e-01 -6.982862949371337891e-02 8.318147622048854828e-03 -1.284174174070358276e-01 -1.238970905542373657e-01 1.558250933885574341e-01 9.691588580608367920e-02 -2.632221579551696777e-01 -8.988332934677600861e-03 -2.193560898303985596e-01 -4.902471899986267090e-01 -1.725946813821792603e-01 1.119083017110824585e-01 1.527909636497497559e-01 -3.048520088195800781e-01 1.076213046908378601e-01 -4.595213234424591064e-01 1.961466521024703979e-01 -5.480611696839332581e-03 -3.894606828689575195e-01 -3.649922311305999756e-01 2.575025558471679688e-01 2.294716835021972656e-01 -1.716708093881607056e-01 -4.202944934368133545e-01 -4.222932755947113037e-01 -1.880625039339065552e-01 -6.418923288583755493e-02 -9.414315223693847656e-02 7.255633175373077393e-02 -1.717447489500045776e-01 -2.488992214202880859e-01 -8.382792770862579346e-02 -4.566642642021179199e-01 5.041892640292644501e-03 -5.919928476214408875e-02 6.349898874759674072e-02 1.044811531901359558e-01 -3.287924826145172119e-01 7.087973952293395996e-01 3.952936828136444092e-02 1.458224803209304810e-01 6.824487820267677307e-03 -6.433222908526659012e-03 -3.324896842241287231e-02 -4.282177090644836426e-01 -1.953027099370956421e-01 -2.881374061107635498e-01 -1.523795574903488159e-01 -1.811204254627227783e-01
-5.162016749382019043e-01 1.016315743327140808e-01 2.874481081962585449e-01 -5.174114555120468140e-02 -7.815349698066711426e-01 2.160032093524932861e-01 2.973932325839996338e-01 -4.039796590805053711e-01 -2.866727411746978760e-01 -1.671415567398071289e-01 -4.761168360710144043e-01 -4.218172729015350342e-01 -5.278127193450927734e-01 -2.712568938732147217e-01 -4.064894616603851318e-01 -4.401368200778961182e-01 -1.772822141647338867e-01 1.439071178436279297e+00 -1.653656810522079468e-01 -5.646033883094787598e-01 -6.367444992065429688e-01 -7.785035371780395508e-01 -2.236086130142211914e-01 1.787544786930084229e-01 -4.586132615804672241e-02 -3.880500793457031250e-01 -2.323309481143951416e-01 2.254122309386730194e-02 -4.739308059215545654e-01 4.495856538414955139e-02 -2.726899981498718262e-01 -6.159143447875976562e-01 4.223704710602760315e-02 -7.811471819877624512e-02 1.714015603065490723e+00 8.279154300689697266e-01 3.503512740135192871e-01 -3.638016879558563232e-01 -5.527992174029350281e-02 2.005582571029663086e+00 1.999862492084503174e-02 -4.216490089893341064e-01 2.969360910356044769e-02 -1.756609044969081879e-02 -2.157576233148574829e-01 -5.909358263015747070e-01 -3.935812115669250488e-01 -2.852448523044586182e-01 -7.467348873615264893e-02 -5.452022552490234375e-01
1.207956969738006592e-01 -2.333093136548995972e-01 4.124851226806640625e-01 -4.813749194145202637e-01 -8.906757831573486328e-02 -5.879333019256591797e-01 4.093181788921356201e-01 -5.544656515121459961e-01 -4.603357613086700439e-01 2.120698243379592896e-01 -7.750545144081115723e-01 2.523501217365264893e-01 -1.505616754293441772e-01 -1.845593750476837158e-01 7.343020290136337280e-02 -2.391283512115478516e-01 -7.766463756561279297e-01 1.862650752067565918e+00 -6.854157894849777222e-02 -8.831420540809631348e-01 1.064580082893371582e-01 1.968086697161197662e-03 -1.168231368064880371e-01 -5.027438402175903320e-01 2.005683183670043945e-01 -2.245188802480697632e-01 -7.525221258401870728e-02 -2.622826397418975830e-01 -4.079838395118713379e-01 6.053085327148437500e-01 5.896448493003845215e-01 -9.502516686916351318e-02 -7.483197003602981567e-02 -8.671619892120361328e-01 7.402431368827819824e-01 -1.884526461362838745e-01 -5.167385339736938477e-01 -6.749063730239868164e-01 3.356554508209228516e-01 7.817923426628112793e-01 7.146143913269042969e-01 2.634903192520141602e-01 -5.144376754760742188e-01 -9.861277937889099121e-01 2.544732689857482910e-01 -5.318382754921913147e-02 3.113622069358825684e-01 2.852882444858551025e-01 5.224937796592712402e-01 -1.906088320538401604e-03
-1.618750840425491333e-01 -4.337903261184692383e-01 1.080962046980857849e-01 -5.579922199249267578e-01 6.333200633525848389e-02 -8.465740084648132324e-02 -1.036014035344123840e-01 -6.572897434234619141e-01 -4.760307967662811279e-01 -1.148953661322593689e-01 -5.045837759971618652e-01 3.416838943958282471e-01 -6.740284711122512817e-02 -8.094944059848785400e-02 8.751715719699859619e-02 8.438477665185928345e-02 -5.101982355117797852e-01 8.737666010856628418e-01 -2.805333212018013000e-02 -7.744712829589843750e-01 2.214454263448715210e-01 1.520962119102478027e-01 -3.294916749000549316e-01 -1.528068780899047852e-01 -6.266755051910877228e-03 -7.117126584053039551e-01 2.631270885467529297e-01 -5.643965005874633789e-01 -7.224577665328979492e-01 3.767364919185638428e-01 1.184233874082565308e-01 3.080151416361331940e-02 -1.988897621631622314e-01 -6.153084635734558105e-01 7.318532466888427734e-01 -1.579083502292633057e-01 1.036179438233375549e-01 -1.644189953804016113e-01 2.789067327976226807e-01 8.421461582183837891e-01 5.136939883232116699e-01 -7.648583501577377319e-02 -5.401449799537658691e-01 -4.408062696456909180e-01 1.728284806013107300e-01 -7.231718301773071289e-02 -1.591177284717559814e-01 2.247443646192550659e-01 -3.709013387560844421e-02 1.663187295198440552e-01
-7.059887647628784180e-01 1.760457754135131836e-01 -5.440959930419921875e-01 7.406603097915649414e-01 -6.485068798065185547e-01 6.304847002029418945e-01 -5.190858840942382812e-01 7.033804655075073242e-01 7.416167259216308594e-01 -4.617068469524383545e-01 2.171317785978317261e-01 5.696229636669158936e-02 -8.260244131088256836e-01 -2.024305313825607300e-01 -5.989547371864318848e-01 -6.722525954246520996e-01 7.680804133415222168e-01 -1.089928388595581055e+00 -8.063706755638122559e-01 2.659230530261993408e-01 -8.468721508979797363e-01 -6.436434984207153320e-01 -5.358222723007202148e-01 -8.605583310127258301e-01 -1.048362016677856445e+00 9.149378538131713867e-02 -4.127797186374664307e-01 -1.891260445117950439e-01 2.797557413578033447e-01 -4.460041224956512451e-01 -4.199064671993255615e-01 -3.968788087368011475e-01 7.675698995590209961e-01 3.987867236137390137e-01 -8.732437491416931152e-01 -1.215760469436645508e+00 9.848738461732864380e-02 6.573807597160339355e-01 -3.078720867633819580e-01 -2.159057617187500000e+00 -8.360984921455383301e-02 -2.804464399814605713e-01 6.458042263984680176e-01 1.646654158830642700e-01 -3.072263300418853760e-01 -3.513392210006713867e-01 -7.608855366706848145e-01 -2.851220965385437012e-01 -3.555864095687866211e-01 -2.932680845260620117e-01
1.447137892246246338e-01 -6.540691852569580078e-01 5.722893867641687393e-03 -5.210745930671691895e-01 -3.353873491287231445e-01 -2.063855975866317749e-01 2.219811677932739258e-01 -3.851672708988189697e-01 1.885700784623622894e-02 4.121797978878021240e-01 -7.924260199069976807e-02 1.934081166982650757e-01 -1.635121107101440430e-01 4.398986101150512695e-01 3.020842075347900391e-01 5.597307682037353516e-01 -4.916855692863464355e-01 -1.028996467590332031e+00 2.985480129718780518e-01 -3.689303621649742126e-02 -4.767059087753295898e-01 9.649058431386947632e-02 -7.879416644573211670e-02 3.377307057380676270e-01 5.029873847961425781e-01 -1.633271723985671997e-01 4.589203894138336182e-01 -1.351919293403625488e+00 -7.754922509193420410e-01 5.198869109153747559e-01 5.207332968711853027e-01 -1.122144460678100586e-01 -6.987203955650329590e-01 1.754775345325469971e-01 -1.154578804969787598e+00 -3.224309980869293213e-01 -1.296023875474929810e-01 -2.951605916023254395e-01 -2.965961396694183350e-02 -1.785999059677124023e+00 7.810608744621276855e-01 8.189964294433593750e-02 -2.148596048355102539e-01 -2.012027651071548462e-01 3.154908716678619385e-01 -2.394867688417434692e-02 1.749883145093917847e-01 1.110386922955513000e-01 1.682427823543548584e-01 2.453491091728210449e-01
2.643468677997589111e-01 -5.375571250915527344e-01 3.542844057083129883e-01 -5.585883855819702148e-01 -3.316634297370910645e-01 -5.176516249775886536e-02 2.181146293878555298e-02 -6.521735191345214844e-01 1.110305339097976685e-01 1.253207474946975708e-01 -4.003318846225738525e-01 3.798319697380065918e-01 -1.002251580357551575e-01 2.733453214168548584e-01 2.063034474849700928e-01 4.014804363250732422e-01 -2.524112462997436523e-01 -9.977065920829772949e-01 4.548435658216476440e-02 -2.774106264114379883e-01 -2.221867144107818604e-01 -2.810980975627899170e-01 4.359587654471397400e-02 4.598244726657867432e-01 1.382116377353668213e-01 -3.607973456382751465e-01 1.479694396257400513e-01 -7.298579216003417969e-01 -5.681285858154296875e-01 4.621545374393463135e-01 3.178893923759460449e-01 -1.661906540393829346e-01 -5.418584942817687988e-01 -2.336780726909637451e-02 -2.263783961534500122e-01 3.985407054424285889e-01 -1.167435422539710999e-01 -5.956960842013359070e-02 -2.519182628020644188e-03 -9.699763655662536621e-01 4.431714713573455811e-01 2.359612435102462769e-01 -1.717944145202636719e-01 -1.613759696483612061e-01 2.598887979984283447e-01 -2.369353324174880981e-01 3.924480378627777100e-01 2.278250157833099365e-01 3.377178609371185303e-01 9.347997605800628662e-02
1.772237718105316162e-01 1.385507881641387939e-01 5.939338207244873047e-01 -4.407693147659301758e-01 1.294119954109191895e+00 6.851027607917785645e-01 3.148405551910400391e-01 -3.663524612784385681e-02 -3.417175635695457458e-02 9.647071957588195801e-01 -1.173482298851013184e+00 1.521476268768310547e+00 -1.358627527952194214e-01 7.991218566894531250e-02 2.973881550133228302e-02 -4.706556349992752075e-02 -7.164084315299987793e-01 8.943400382995605469e-01 -1.676519662141799927e-01 -9.817792177200317383e-01 4.138856232166290283e-01 1.504771590232849121e+00 1.138948321342468262e+00 -1.322697758674621582e+00 -2.681563198566436768e-01 -3.783429265022277832e-01 2.947172224521636963e-01 -4.426177978515625000e+00 4.303847551345825195e-01 1.012829899787902832e+00 9.530525803565979004e-01 1.336464166641235352e+00 8.474591970443725586e-01 -9.312478899955749512e-01 -4.277716577053070068e-01 -6.265673637390136719e-01 -2.561315596103668213e-01 -5.875782370567321777e-01 1.069059252738952637e+00 -1.642300337553024292e-01 1.423516988754272461e+00 6.147437095642089844e-01 -7.384719252586364746e-01 -1.037603616714477539e+00 1.434519290924072266e+00 2.441689014434814453e+00 7.724564075469970703e-01 1.805878043174743652e+00 9.274215698242187500e-01 7.770017981529235840e-01
1.591289937496185303e-01 -2.690417170524597168e-01 7.250846922397613525e-02 -6.152427196502685547e-02 -2.175703346729278564e-01 -1.789440363645553589e-01 -3.711839318275451660e-01 2.341373711824417114e-01 2.950693666934967041e-01 2.569616138935089111e-01 -4.572935998439788818e-01 5.182955265045166016e-01 7.494352757930755615e-02 2.518689632415771484e-01 2.527105808258056641e-01 4.336364567279815674e-01 -5.794865489006042480e-01 -1.076617956161499023e+00 2.649014294147491455e-01 -2.323464602231979370e-01 7.874360680580139160e-02 1.851086877286434174e-02 2.698302268981933594e-01 -3.645173013210296631e-01 -2.062117755413055420e-01 -1.951632350683212280e-01 3.328841328620910645e-01 -1.923729419708251953e+00 -1.833203583955764771e-01 6.757096052169799805e-01 2.662597894668579102e-01 -1.745722256600856781e-02 -1.137612834572792053e-01 -9.565885066986083984e-01 -2.442261219024658203e+00 -2.610245466232299805e+00 -2.753553390502929688e-01 4.176649451255798340e-02 4.050848484039306641e-01 -2.503609657287597656e+00 7.090652585029602051e-01 1.444297283887863159e-01 8.891329169273376465e-03 -3.884123563766479492e-01 3.442714512348175049e-01 3.907182812690734863e-01 2.683719694614410400e-01 1.805778294801712036e-01 4.376344084739685059e-01 3.253129422664642334e-01
3.602482378482818604e-01 -9.698250889778137207e-02 2.944334447383880615e-01 -3.366560637950897217e-01 -5.301867425441741943e-02 3.274671137332916260e-01 6.812433153390884399e-02 9.361089766025543213e-02 -5.971145629882812500e-02 2.371156215667724609e-01 -4.777997136116027832e-01 2.661604583263397217e-01 -2.571796476840972900e-01 3.801330626010894775e-01 -3.565444052219390869e-02 1.428058743476867676e-01 3.379692137241363525e-01 -4.613327682018280029e-01 1.761097311973571777e-01 -3.651905953884124756e-01 -6.403942126780748367e-03 3.275313973426818848e-01 -3.589428663253784180e-01 -1.641159318387508392e-02 1.244174689054489136e-01 -4.328301846981048584e-01 5.606142282485961914e-01 -1.357140421867370605e+00 2.438791543245315552e-01 1.914648264646530151e-01 2.278943806886672974e-01 3.613475561141967773e-01 -1.784440428018569946e-01 3.244419991970062256e-01 -6.858340501785278320e-01 -1.414557456970214844e+00 4.451170861721038818e-01 1.133915409445762634e-01 5.051459744572639465e-02 -1.839412927627563477e+00 -2.198073640465736389e-02 3.755058944225311279e-01 -6.980823725461959839e-02 1.280857995152473450e-02 4.216175973415374756e-01 1.160469412803649902e+00 1.266085803508758545e-01 3.645265698432922363e-01 -8.798708021640777588e-02 4.580484628677368164e-01
3.725914750248193741e-03 -4.679265618324279785e-01 1.833202838897705078e-01 -6.597148180007934570e-01 -2.504578828811645508e-01 -7.749592768959701061e-04 3.903793692588806152e-01 -5.090054869651794434e-01 -5.937319993972778320e-01 7.751779258251190186e-02 -6.974718570709228516e-01 2.171669155359268188e-01 -1.218165457248687744e-01 1.924841254949569702e-01 -4.038190841674804688e-02 6.045230850577354431e-02 -5.712795853614807129e-01 4.608201682567596436e-01 1.975283920764923096e-01 -5.697415471076965332e-01 -3.034919500350952148e-01 -2.232777029275894165e-01 -4.636102542281150818e-02 -1.488823145627975464e-01 2.269461303949356079e-01 -4.648467004299163818e-01 2.554053664207458496e-01 1.223419383168220520e-01 -2.045708894729614258e-01 4.012070596218109131e-01 4.479761049151420593e-02 -5.719503760337829590e-02 -4.805536270141601562e-01 -7.079415321350097656e-01 6.602469682693481445e-01 2.576771676540374756e-01 1.642953455448150635e-01 -4.409173130989074707e-01 1.629440635442733765e-01 4.743529260158538818e-01 -5.344120413064956665e-02 -8.310649544000625610e-02 -4.929299950599670410e-01 -3.467884659767150879e-01 -1.711898893117904663e-01 -1.869271546602249146e-01 1.482125967741012573e-01 -1.018699854612350464e-01 1.789594590663909912e-01 -2.335103899240493774e-01
